{"learner":{"attributes":{"best_iteration":"322","best_score":"0.9021347123358661"},"feature_names":["home_shots","away_shots","home_shots_on_target","away_shots_on_target","home_corners","away_corners","home_is_win_avg_5","home_is_win_form_3","home_goal_diff_avg_5","home_shots_avg_5","home_shots_on_target_avg_5","home_corners_avg_5","home_attack_strength_5","home_defense_strength_5","away_is_win_avg_5","away_is_win_form_3","away_goal_diff_avg_5","away_shots_avg_5","away_shots_on_target_avg_5","away_corners_avg_5","away_attack_strength_5","away_defense_strength_5","home_prob_implied","draw_prob_implied","away_prob_implied","form_diff","strength_diff","total_avg_goals"],"feature_types":["float","float","float","float","float","float","float","float","float","float","float","float","float","float","float","float","float","float","float","float","float","float","float","float","float","float","float","float"],"gradient_booster":{"model":{"gbtree_model_param":{"num_parallel_tree":"1","num_trees":"1119"},"iteration_indptr":[0,3,6,9,12,15,18,21,24,27,30,33,36,39,42,45,48,51,54,57,60,63,66,69,72,75,78,81,84,87,90,93,96,99,102,105,108,111,114,117,120,123,126,129,132,135,138,141,144,147,150,153,156,159,162,165,168,171,174,177,180,183,186,189,192,195,198,201,204,207,210,213,216,219,222,225,228,231,234,237,240,243,246,249,252,255,258,261,264,267,270,273,276,279,282,285,288,291,294,297,300,303,306,309,312,315,318,321,324,327,330,333,336,339,342,345,348,351,354,357,360,363,366,369,372,375,378,381,384,387,390,393,396,399,402,405,408,411,414,417,420,423,426,429,432,435,438,441,444,447,450,453,456,459,462,465,468,471,474,477,480,483,486,489,492,495,498,501,504,507,510,513,516,519,522,525,528,531,534,537,540,543,546,549,552,555,558,561,564,567,570,573,576,579,582,585,588,591,594,597,600,603,606,609,612,615,618,621,624,627,630,633,636,639,642,645,648,651,654,657,660,663,666,669,672,675,678,681,684,687,690,693,696,699,702,705,708,711,714,717,720,723,726,729,732,735,738,741,744,747,750,753,756,759,762,765,768,771,774,777,780,783,786,789,792,795,798,801,804,807,810,813,816,819,822,825,828,831,834,837,840,843,846,849,852,855,858,861,864,867,870,873,876,879,882,885,888,891,894,897,900,903,906,909,912,915,918,921,924,927,930,933,936,939,942,945,948,951,954,957,960,963,966,969,972,975,978,981,984,987,990,993,996,999,1002,1005,1008,1011,1014,1017,1020,1023,1026,1029,1032,1035,1038,1041,1044,1047,1050,1053,1056,1059,1062,1065,1068,1071,1074,1077,1080,1083,1086,1089,1092,1095,1098,1101,1104,1107,1110,1113,1116,1119],"tree_info":[0,1,2,0,1,2,0,1,2,0,1,2,0,1,2,0,1,2,0,1,2,0,1,2,0,1,2,0,1,2,0,1,2,0,1,2,0,1,2,0,1,2,0,1,2,0,1,2,0,1,2,0,1,2,0,1,2,0,1,2,0,1,2,0,1,2,0,1,2,0,1,2,0,1,2,0,1,2,0,1,2,0,1,2,0,1,2,0,1,2,0,1,2,0,1,2,0,1,2,0,1,2,0,1,2,0,1,2,0,1,2,0,1,2,0,1,2,0,1,2,0,1,2,0,1,2,0,1,2,0,1,2,0,1,2,0,1,2,0,1,2,0,1,2,0,1,2,0,1,2,0,1,2,0,1,2,0,1,2,0,1,2,0,1,2,0,1,2,0,1,2,0,1,2,0,1,2,0,1,2,0,1,2,0,1,2,0,1,2,0,1,2,0,1,2,0,1,2,0,1,2,0,1,2,0,1,2,0,1,2,0,1,2,0,1,2,0,1,2,0,1,2,0,1,2,0,1,2,0,1,2,0,1,2,0,1,2,0,1,2,0,1,2,0,1,2,0,1,2,0,1,2,0,1,2,0,1,2,0,1,2,0,1,2,0,1,2,0,1,2,0,1,2,0,1,2,0,1,2,0,1,2,0,1,2,0,1,2,0,1,2,0,1,2,0,1,2,0,1,2,0,1,2,0,1,2,0,1,2,0,1,2,0,1,2,0,1,2,0,1,2,0,1,2,0,1,2,0,1,2,0,1,2,0,1,2,0,1,2,0,1,2,0,1,2,0,1,2,0,1,2,0,1,2,0,1,2,0,1,2,0,1,2,0,1,2,0,1,2,0,1,2,0,1,2,0,1,2,0,1,2,0,1,2,0,1,2,0,1,2,0,1,2,0,1,2,0,1,2,0,1,2,0,1,2,0,1,2,0,1,2,0,1,2,0,1,2,0,1,2,0,1,2,0,1,2,0,1,2,0,1,2,0,1,2,0,1,2,0,1,2,0,1,2,0,1,2,0,1,2,0,1,2,0,1,2,0,1,2,0,1,2,0,1,2,0,1,2,0,1,2,0,1,2,0,1,2,0,1,2,0,1,2,0,1,2,0,1,2,0,1,2,0,1,2,0,1,2,0,1,2,0,1,2,0,1,2,0,1,2,0,1,2,0,1,2,0,1,2,0,1,2,0,1,2,0,1,2,0,1,2,0,1,2,0,1,2,0,1,2,0,1,2,0,1,2,0,1,2,0,1,2,0,1,2,0,1,2,0,1,2,0,1,2,0,1,2,0,1,2,0,1,2,0,1,2,0,1,2,0,1,2,0,1,2,0,1,2,0,1,2,0,1,2,0,1,2,0,1,2,0,1,2,0,1,2,0,1,2,0,1,2,0,1,2,0,1,2,0,1,2,0,1,2,0,1,2,0,1,2,0,1,2,0,1,2,0,1,2,0,1,2,0,1,2,0,1,2,0,1,2,0,1,2,0,1,2,0,1,2,0,1,2,0,1,2,0,1,2,0,1,2,0,1,2,0,1,2,0,1,2,0,1,2,0,1,2,0,1,2,0,1,2,0,1,2,0,1,2,0,1,2,0,1,2,0,1,2,0,1,2,0,1,2,0,1,2,0,1,2,0,1,2,0,1,2,0,1,2,0,1,2,0,1,2,0,1,2,0,1,2,0,1,2,0,1,2,0,1,2,0,1,2,0,1,2,0,1,2,0,1,2,0,1,2,0,1,2,0,1,2,0,1,2,0,1,2,0,1,2,0,1,2,0,1,2,0,1,2,0,1,2,0,1,2,0,1,2,0,1,2,0,1,2,0,1,2,0,1,2,0,1,2,0,1,2,0,1,2,0,1,2,0,1,2,0,1,2,0,1,2,0,1,2,0,1,2,0,1,2,0,1,2,0,1,2,0,1,2,0,1,2,0,1,2,0,1,2,0,1,2,0,1,2,0,1,2,0,1,2,0,1,2,0,1,2,0,1,2,0,1,2,0,1,2,0,1,2,0,1,2,0,1,2,0,1,2,0,1,2,0,1,2,0,1,2,0,1,2,0,1,2,0,1,2,0,1,2,0,1,2,0,1,2,0,1,2,0,1,2,0,1,2,0,1,2,0,1,2,0,1,2,0,1,2,0,1,2,0,1,2,0,1,2,0,1,2,0,1,2,0,1,2,0,1,2,0,1,2,0,1,2,0,1,2,0,1,2,0,1,2,0,1,2,0,1,2,0,1,2,0,1,2,0,1,2,0,1,2,0,1,2,0,1,2,0,1,2,0,1,2,0,1,2,0,1,2,0,1,2,0,1,2,0,1,2,0,1,2,0,1,2,0,1,2,0,1,2,0,1,2,0,1,2,0,1,2,0,1,2,0,1,2,0,1,2,0,1,2,0,1,2,0,1,2,0,1,2,0,1,2,0,1,2,0,1,2,0,1,2,0,1,2,0,1,2,0,1,2,0,1,2,0,1,2,0,1,2,0,1,2,0,1,2,0,1,2,0,1,2,0,1,2,0,1,2,0,1,2],"trees":[{"base_weights":[2.4129634E-1,-6.9836244E-2,3.9851233E-1,2.9838964E-1,-1.977983E-1,7.702259E-1,2.5548315E-1,-5.5497303E-3,4.8399013E-1,-4.3717673E-1,-7.0049934E-2,1.029134E0,6.813135E-1,1.9808003E-1,4.6727747E-1,-2.5451237E-1,1.5760216E-1,9.410291E-1,4.3741092E-1,-5.9043366E-1,-3.3715785E-1,5.9373938E-2,-1.8136671E-1,1.254059E0,9.539629E-1,5.242018E-1,8.2819027E-1,2.4545667E-1,-8.790416E-2,6.207092E-1,3.0781412E-1,2.9045302E-1,-3.4236822E-1,3.9404336E-1,-3.0687978E-2,1.0908726E0,7.040729E-1,5.715365E-1,2.8946373E-1,-6.1437648E-2,-5.529008E-1,-2.2386694E-1,-4.411525E-1,1.5511829E-1,-6.714003E-2,-1.3753626E-1,-4.1678375E-1,7.207601E-1,1.2826173E0,1.261594E0,8.780399E-1,6.081594E-1,1.6138335E-1,9.840674E-1,6.7120856E-1,1.3220726E-1,3.1955674E-1,-8.824063E-4,-1.9219089E-1,6.919786E-1,3.7290654E-1,4.2180315E-1,1.1767828E-1,7.774219E-2,-8.140134E-4,-5.7610475E-2,-2.1488905E-2,7.438204E-2,2.8913777E-2,1.5393475E-2,-1.8559856E-2,1.0909952E-1,7.908672E-2,1.0574821E-1,4.3234266E-2,3.8027007E-2,6.8432115E-2,2.8533418E-2,-1.0368157E-2,-3.9594505E-2,-5.332701E-2,-8.043278E-3,-2.79883E-2,-3.8489502E-2,1.8873384E-2,1.8828534E-2,2.38373E-3,-1.110378E-2,7.908325E-3,-7.121362E-3,-2.525993E-2,-3.0287206E-2,-4.533959E-2,1.0095557E-1,2.5508532E-2,1.146508E-1,1.0108846E-1,1.1394377E-1,6.3533686E-2,8.896565E-2,6.641986E-2,6.443575E-2,4.3892752E-2,2.8456153E-2,8.737377E-4,9.129561E-2,6.0947873E-2,9.145448E-2,5.174825E-2,1.3523185E-2,-2.5341352E-3,6.1491676E-2,2.469571E-2,-1.0440309E-2,9.425736E-3,-2.1619804E-2,1.0320313E-3,6.2542275E-2,9.539053E-3,6.0378183E-2,2.2407241E-2,5.201026E-2,2.6511384E-2,4.6940143E-3,3.940176E-2],"categories":[],"categories_nodes":[],"categories_segments":[],"categories_sizes":[],"default_left":[0,0,0,0,0,0,0,0,0,0,0,0,0,0,0,0,0,0,0,0,0,0,0,0,0,0,0,0,0,0,0,0,0,0,0,0,0,0,0,0,0,0,0,0,0,0,0,0,0,0,0,0,0,0,0,0,0,0,0,0,0,0,0,0,0,0,0,0,0,0,0,0,0,0,0,0,0,0,0,0,0,0,0,0,0,0,0,0,0,0,0,0,0,0,0,0,0,0,0,0,0,0,0,0,0,0,0,0,0,0,0,0,0,0,0,0,0,0,0,0,0,0,0,0,0],"id":0,"left_children":[1,3,5,7,9,11,13,15,17,19,21,23,25,27,29,31,33,35,37,39,41,43,45,47,49,51,53,55,57,59,61,63,65,67,69,71,73,75,77,-1,79,81,83,85,87,89,91,93,95,97,99,101,103,105,107,109,111,113,115,117,119,121,123,-1,-1,-1,-1,-1,-1,-1,-1,-1,-1,-1,-1,-1,-1,-1,-1,-1,-1,-1,-1,-1,-1,-1,-1,-1,-1,-1,-1,-1,-1,-1,-1,-1,-1,-1,-1,-1,-1,-1,-1,-1,-1,-1,-1,-1,-1,-1,-1,-1,-1,-1,-1,-1,-1,-1,-1,-1,-1,-1,-1,-1,-1],"loss_changes":[1.147525E3,3.710429E2,8.284939E2,1.1458356E2,1.7867967E2,9.955737E1,1.3678186E2,3.127571E1,2.6746613E1,3.1105957E1,5.490866E1,1.8541504E1,7.4292114E1,1.1998224E2,5.8647522E1,1.4605133E1,2.072054E1,4.003029E0,2.2652817E1,3.858429E0,1.4456039E1,2.1346457E1,2.1106049E1,4.0675354E0,1.921753E1,4.7402985E1,4.0641235E1,6.3719177E1,1.1407093E1,2.1521027E1,2.5473373E1,7.9463377E0,7.840315E0,5.306343E0,1.0247574E1,2.0247574E0,4.664402E0,1.7316315E1,1.0227032E1,0E0,3.951477E0,7.967037E0,4.625908E0,8.400095E0,7.681775E0,1.479298E1,2.2113953E0,2.6888008E0,1.3974304E0,6.310211E0,1.074762E1,1.7329407E1,7.6275163E0,1.9609497E1,2.1116425E1,1.295406E1,5.4546448E1,9.320907E0,7.225548E0,2.3332336E1,1.0021507E1,1.52939E1,9.493647E0,0E0,0E0,0E0,0E0,0E0,0E0,0E0,0E0,0E0,0E0,0E0,0E0,0E0,0E0,0E0,0E0,0E0,0E0,0E0,0E0,0E0,0E0,0E0,0E0,0E0,0E0,0E0,0E0,0E0,0E0,0E0,0E0,0E0,0E0,0E0,0E0,0E0,0E0,0E0,0E0,0E0,0E0,0E0,0E0,0E0,0E0,0E0,0E0,0E0,0E0,0E0,0E0,0E0,0E0,0E0,0E0,0E0,0E0,0E0,0E0,0E0,0E0],"parents":[2147483647,0,0,1,1,2,2,3,3,4,4,5,5,6,6,7,7,8,8,9,9,10,10,11,11,12,12,13,13,14,14,15,15,16,16,17,17,18,18,19,19,20,20,21,21,22,22,23,23,24,24,25,25,26,26,27,27,28,28,29,29,30,30,31,31,32,32,33,33,34,34,35,35,36,36,37,37,38,38,40,40,41,41,42,42,43,43,44,44,45,45,46,46,47,47,48,48,49,49,50,50,51,51,52,52,53,53,54,54,55,55,56,56,57,57,58,58,59,59,60,60,61,61,62,62],"right_children":[2,4,6,8,10,12,14,16,18,20,22,24,26,28,30,32,34,36,38,40,42,44,46,48,50,52,54,56,58,60,62,64,66,68,70,72,74,76,78,-1,80,82,84,86,88,90,92,94,96,98,100,102,104,106,108,110,112,114,116,118,120,122,124,-1,-1,-1,-1,-1,-1,-1,-1,-1,-1,-1,-1,-1,-1,-1,-1,-1,-1,-1,-1,-1,-1,-1,-1,-1,-1,-1,-1,-1,-1,-1,-1,-1,-1,-1,-1,-1,-1,-1,-1,-1,-1,-1,-1,-1,-1,-1,-1,-1,-1,-1,-1,-1,-1,-1,-1,-1,-1,-1,-1,-1,-1],"split_conditions":[-1.20072484E-1,-5.623895E-1,-1.1795597E-1,-8.899045E-1,-8.899045E-1,-1.0068231E0,1.0346757E0,-1.2748206E0,-1.4512566E0,-1.2748206E0,3.264776E-1,-1.4512566E0,6.497596E-1,1.2153447E0,2.0967458E-1,-1.4512566E0,-3.453825E-1,4.1961128E-1,3.7114378E-2,-1.6597366E0,3.264776E-1,3.7114378E-2,8.0210817E-1,-1.1936226E0,-1.0808716E0,1.184605E0,-4.147392E-2,3.7540436E-2,3.7114378E-2,1.5671021E0,1.2153447E0,9.3257185E-3,-1.6597366E0,-1.5851365E0,-1.0068231E0,2.818067E-1,-5.4229915E-1,6.5312195E-1,1.9495989E0,-6.1437648E-2,3.264776E-1,-3.453825E-1,2.1302414E0,6.8446016E-1,2.5453162E-1,1.6597781E0,1.2153447E0,2.498855E-1,8.0210817E-1,1.9495989E0,3.7114378E-2,-3.453825E-1,-5.623895E-1,1.5671021E0,-7.278794E-1,4.1961128E-1,-1.2386633E0,-2.702503E-1,9.045814E-1,2.5486453E0,-1.2640389E0,3.7114378E-2,2.5743399E0,7.774219E-2,-8.140134E-4,-5.7610475E-2,-2.1488905E-2,7.438204E-2,2.8913777E-2,1.5393475E-2,-1.8559856E-2,1.0909952E-1,7.908672E-2,1.0574821E-1,4.3234266E-2,3.8027007E-2,6.8432115E-2,2.8533418E-2,-1.0368157E-2,-3.9594505E-2,-5.332701E-2,-8.043278E-3,-2.79883E-2,-3.8489502E-2,1.8873384E-2,1.8828534E-2,2.38373E-3,-1.110378E-2,7.908325E-3,-7.121362E-3,-2.525993E-2,-3.0287206E-2,-4.533959E-2,1.0095557E-1,2.5508532E-2,1.146508E-1,1.0108846E-1,1.1394377E-1,6.3533686E-2,8.896565E-2,6.641986E-2,6.443575E-2,4.3892752E-2,2.8456153E-2,8.737377E-4,9.129561E-2,6.0947873E-2,9.145448E-2,5.174825E-2,1.3523185E-2,-2.5341352E-3,6.1491676E-2,2.469571E-2,-1.0440309E-2,9.425736E-3,-2.1619804E-2,1.0320313E-3,6.2542275E-2,9.539053E-3,6.0378183E-2,2.2407241E-2,5.201026E-2,2.6511384E-2,4.6940143E-3,3.940176E-2],"split_indices":[2,3,3,2,2,3,2,2,3,2,3,3,2,3,23,3,4,4,4,2,3,4,4,25,23,4,23,25,4,4,3,17,2,1,3,23,0,25,4,0,3,4,12,19,1,3,3,26,4,4,4,4,3,4,4,4,23,25,21,3,23,4,2,0,0,0,0,0,0,0,0,0,0,0,0,0,0,0,0,0,0,0,0,0,0,0,0,0,0,0,0,0,0,0,0,0,0,0,0,0,0,0,0,0,0,0,0,0,0,0,0,0,0,0,0,0,0,0,0,0,0,0,0,0,0],"split_type":[0,0,0,0,0,0,0,0,0,0,0,0,0,0,0,0,0,0,0,0,0,0,0,0,0,0,0,0,0,0,0,0,0,0,0,0,0,0,0,0,0,0,0,0,0,0,0,0,0,0,0,0,0,0,0,0,0,0,0,0,0,0,0,0,0,0,0,0,0,0,0,0,0,0,0,0,0,0,0,0,0,0,0,0,0,0,0,0,0,0,0,0,0,0,0,0,0,0,0,0,0,0,0,0,0,0,0,0,0,0,0,0,0,0,0,0,0,0,0,0,0,0,0,0,0],"sum_hessian":[2.345911E4,7.874666E3,1.5584443E4,2.0306665E3,5.8439995E3,4.330222E3,1.1254222E4,7.697777E2,1.2608888E3,2.0333333E3,3.8106665E3,1.1066666E3,3.2235554E3,8.854666E3,2.3995554E3,3.048889E2,4.6488885E2,1.16444435E2,1.1444443E3,8.026666E2,1.2306666E3,1.7617777E3,2.0488887E3,2.768889E2,8.297777E2,1.5577777E3,1.6657777E3,7.596444E3,1.2582222E3,1.2226666E3,1.1768888E3,4.222222E1,2.6266666E2,2.0622221E2,2.5866666E2,7.111111E1,4.5333332E1,5.9999994E2,5.444444E2,1.7822221E2,6.244444E2,5.893333E2,6.413333E2,1.003111E3,7.586666E2,1.7275554E3,3.213333E2,1.4222221E1,2.6266666E2,1.6399998E2,6.657777E2,1.2648888E3,2.928889E2,8.355555E2,8.3022217E2,3.0048887E3,4.591555E3,6.8622217E2,5.7199994E2,9.4933325E2,2.733333E2,7.3555554E2,4.413333E2,1.3777777E1,2.8444443E1,5.5555553E1,2.071111E2,2.0888887E1,1.8533333E2,1.2133333E2,1.3733333E2,3.2444443E1,3.8666664E1,1.1999999E1,3.3333332E1,3.902222E2,2.0977777E2,4.902222E2,5.4222218E1,2.8444443E2,3.3999997E2,2.6399997E2,3.253333E2,6.311111E2,1.0222221E1,6.5999994E2,3.4311108E2,5.4399994E2,2.1466666E2,1.2906666E3,4.3688885E2,2.1066666E2,1.1066666E2,6.666666E0,7.5555553E0,1.5688889E2,1.0577777E2,1.4266666E2,2.1333332E1,2.4622221E2,4.1955554E2,4.8577774E2,7.791111E2,1.3644444E2,1.5644443E2,6.2888885E2,2.0666666E2,1.12888885E2,7.173333E2,2.5813333E3,4.2355554E2,3.1377777E2,4.2777773E3,3.2844443E2,3.5777777E2,4.3955554E2,1.3244444E2,8.844444E2,6.4888885E1,6.711111E1,2.0622221E2,2.7111108E2,4.6444443E2,3.7377774E2,6.755555E1],"tree_param":{"num_deleted":"0","num_feature":"28","num_nodes":"125","size_leaf_vector":"1"}},{"base_weights":[-1.5393123E-1,-1.19764045E-1,-2.5979385E-1,-2.6327148E-1,-1.0744514E-1,-4.541737E-1,-2.3193905E-1,-4.6629134E-1,-2.5070566E-1,-7.220742E-2,-1.3561514E-1,-4.3649992E-1,-6.4790446E-1,-1.9348301E-1,-2.8194603E-1,-4.6467632E-2,-2.5191233E-1,-1.9603191E-1,-2.89535E-1,-4.3843206E-2,-1.5727815E-1,-2.008916E-1,-1.2521885E-1,-5.2400875E-1,-3.7172464E-1,-2.283283E-2,-6.039703E-2,-2.3394828E-1,-1.3894741E-1,-3.2016963E-1,-2.4437095E-1,-5.4459374E-2,4.1336096E-3,5.1987274E-3,-2.5035536E-1,-4.315377E-1,-2.6336625E-1,3.5115268E-2,-6.4718E-2,-9.72191E-2,-1.97323E-1,-2.4656296E-1,-1.3588378E-1,-4.0264778E-2,-1.3125484E-1,-1.9754253E-1,-4.6541516E-2,-5.0831497E-2,-4.0075094E-1,-2.1718366E-1,-4.1749042E-1,-2.320249E-1,-9.6930005E-2,-3.7454718E-1,-2.6786146E-1,-4.4336334E-1,-2.2619145E-1,6.6846706E-2,-3.845612E-3,-1.3258951E-2,-2.9811213E-2,-3.9663214E-2,-5.0296285E-3,-2.3178728E-2,3.1243032E-2,5.482003E-2,2.223768E-3,1.5867976E-3,-6.516135E-3,-1.0701888E-2,1.063472E-2,-1.43530825E-2,-3.0921852E-2,-1.871715E-2,-3.234859E-2,1.1547783E-2,-1.386404E-2,-1.4402552E-2,1.1469049E-3,-1.6495751E-2,-1.0376929E-2,-4.491803E-2,1.2146925E-2,-3.2881655E-2,5.9080925E-3,-2.447577E-2,-3.900845E-2,-1.4299874E-2,-2.2978863E-2,-2.3819188E-2,-4.8918482E-2,6.7025647E-3,-2.3457162E-2,-8.763361E-3,5.819004E-2,-2.8603084E-2,-5.071678E-2,-3.1508885E-2,-1.8496275E-2,-4.5928426E-2,-2.3880623E-2,-1.3415477E-2,-2.218345E-2],"categories":[],"categories_nodes":[],"categories_segments":[],"categories_sizes":[],"default_left":[0,0,0,0,0,0,0,0,0,0,0,0,0,0,0,0,0,0,0,0,0,0,0,0,0,0,0,0,0,0,0,0,0,0,0,0,0,0,0,0,0,0,0,0,0,0,0,0,0,0,0,0,0,0,0,0,0,0,0,0,0,0,0,0,0,0,0,0,0,0,0,0,0,0,0,0,0,0,0,0,0,0,0,0,0,0,0,0,0,0,0,0,0,0,0,0,0,0,0,0,0,0,0],"id":1,"left_children":[1,3,5,7,9,11,13,15,17,19,21,23,25,27,29,-1,31,33,35,37,39,41,43,45,47,-1,-1,49,51,53,55,-1,-1,57,59,61,63,65,67,69,71,73,75,77,79,81,-1,83,85,87,89,91,93,95,97,99,101,-1,-1,-1,-1,-1,-1,-1,-1,-1,-1,-1,-1,-1,-1,-1,-1,-1,-1,-1,-1,-1,-1,-1,-1,-1,-1,-1,-1,-1,-1,-1,-1,-1,-1,-1,-1,-1,-1,-1,-1,-1,-1,-1,-1,-1,-1],"loss_changes":[8.48089E1,3.1323349E1,3.0937561E1,3.5277252E0,1.6197174E1,2.3800201E0,9.594971E0,1.3319664E0,2.7709732E0,1.749604E1,6.137375E0,3.6656647E0,1.3230343E0,6.222023E0,3.0872345E0,0E0,2.6285706E0,6.0155525E0,2.8197174E0,8.972024E0,4.343727E0,3.6744194E0,4.003647E0,2.005661E0,3.4949455E0,0E0,0E0,4.955658E0,4.696718E0,3.022171E0,3.9274902E0,0E0,0E0,4.6202393E0,4.049715E0,1.4922276E0,3.622982E0,6.1894712E0,4.2388134E0,4.5907044E0,5.1536255E0,2.5693893E0,3.7648773E0,3.6105568E0,4.268814E0,2.0744092E0,0E0,1.2933035E0,2.2032661E0,3.8330307E0,2.8753204E0,5.070463E0,3.8474212E0,4.4445267E0,2.8067818E0,1.3776913E0,2.3437119E0,0E0,0E0,0E0,0E0,0E0,0E0,0E0,0E0,0E0,0E0,0E0,0E0,0E0,0E0,0E0,0E0,0E0,0E0,0E0,0E0,0E0,0E0,0E0,0E0,0E0,0E0,0E0,0E0,0E0,0E0,0E0,0E0,0E0,0E0,0E0,0E0,0E0,0E0,0E0,0E0,0E0,0E0,0E0,0E0,0E0,0E0],"parents":[2147483647,0,0,1,1,2,2,3,3,4,4,5,5,6,6,7,7,8,8,9,9,10,10,11,11,12,12,13,13,14,14,16,16,17,17,18,18,19,19,20,20,21,21,22,22,23,23,24,24,27,27,28,28,29,29,30,30,33,33,34,34,35,35,36,36,37,37,38,38,39,39,40,40,41,41,42,42,43,43,44,44,45,45,47,47,48,48,49,49,50,50,51,51,52,52,53,53,54,54,55,55,56,56],"right_children":[2,4,6,8,10,12,14,16,18,20,22,24,26,28,30,-1,32,34,36,38,40,42,44,46,48,-1,-1,50,52,54,56,-1,-1,58,60,62,64,66,68,70,72,74,76,78,80,82,-1,84,86,88,90,92,94,96,98,100,102,-1,-1,-1,-1,-1,-1,-1,-1,-1,-1,-1,-1,-1,-1,-1,-1,-1,-1,-1,-1,-1,-1,-1,-1,-1,-1,-1,-1,-1,-1,-1,-1,-1,-1,-1,-1,-1,-1,-1,-1,-1,-1,-1,-1,-1,-1],"split_conditions":[6.497596E-1,-9.218169E-1,-1.2640389E0,-2.6489136E0,-1.20072484E-1,3.3433652E0,2.3313853E-1,2.6198192E0,-1.20072484E-1,5.837544E-1,-1.14391625E-1,8.1282043E-1,6.53122E-1,4.3707812E-1,3.6738724E-1,-4.6467632E-2,-8.899045E-1,-7.967073E-1,-2.0117462E0,-7.967073E-1,2.5453162E-1,2.4988554E-1,-1.3973658E0,-2.5664046E-1,-1.5851365E0,-2.283283E-2,-6.039703E-2,2.5743399E0,-3.6612722E-1,-2.7108783E-1,-1.2607822E0,-5.4459374E-2,4.1336096E-3,-2.3567064E-1,6.9140166E-1,2.075276E0,2.175859E0,-7.4394935E-1,-1.2748206E0,1.2202001E0,8.3639437E-1,-2.003201E-1,-4.363191E-1,8.472143E-1,-6.0119516E-1,-8.2781045E-3,-4.6541516E-2,-5.510991E-1,-7.9024553E-1,5.7991058E-2,3.1695224E-2,-5.0544834E-1,2.5113761E0,1.2017311E0,2.885749E-1,-6.8407804E-1,-4.3836477E-1,6.6846706E-2,-3.845612E-3,-1.3258951E-2,-2.9811213E-2,-3.9663214E-2,-5.0296285E-3,-2.3178728E-2,3.1243032E-2,5.482003E-2,2.223768E-3,1.5867976E-3,-6.516135E-3,-1.0701888E-2,1.063472E-2,-1.43530825E-2,-3.0921852E-2,-1.871715E-2,-3.234859E-2,1.1547783E-2,-1.386404E-2,-1.4402552E-2,1.1469049E-3,-1.6495751E-2,-1.0376929E-2,-4.491803E-2,1.2146925E-2,-3.2881655E-2,5.9080925E-3,-2.447577E-2,-3.900845E-2,-1.4299874E-2,-2.2978863E-2,-2.3819188E-2,-4.8918482E-2,6.7025647E-3,-2.3457162E-2,-8.763361E-3,5.819004E-2,-2.8603084E-2,-5.071678E-2,-3.1508885E-2,-1.8496275E-2,-4.5928426E-2,-2.3880623E-2,-1.3415477E-2,-2.218345E-2],"split_indices":[2,23,23,22,2,22,22,1,2,24,23,10,25,16,19,0,2,1,24,1,1,26,21,10,1,0,0,2,5,1,26,0,0,10,17,26,10,23,2,27,9,23,8,16,22,1,0,20,5,5,8,26,10,8,10,27,27,0,0,0,0,0,0,0,0,0,0,0,0,0,0,0,0,0,0,0,0,0,0,0,0,0,0,0,0,0,0,0,0,0,0,0,0,0,0,0,0,0,0,0,0,0,0],"split_type":[0,0,0,0,0,0,0,0,0,0,0,0,0,0,0,0,0,0,0,0,0,0,0,0,0,0,0,0,0,0,0,0,0,0,0,0,0,0,0,0,0,0,0,0,0,0,0,0,0,0,0,0,0,0,0,0,0,0,0,0,0,0,0,0,0,0,0,0,0,0,0,0,0,0,0,0,0,0,0,0,0,0,0,0,0,0,0,0,0,0,0,0,0,0,0,0,0,0,0,0,0,0,0],"sum_hessian":[2.3453777E4,1.7731555E4,5.7222217E3,1.4013333E3,1.6330222E4,7.1688885E2,5.005333E3,8.133333E1,1.3199999E3,7.2559995E3,9.074222E3,6.573333E2,5.9555553E1,2.8302222E3,2.175111E3,5.9111107E1,2.2222221E1,5.4888885E2,7.711111E2,5.4422217E3,1.8137777E3,1.2457777E3,7.828444E3,2.7911108E2,3.782222E2,8.444444E0,5.1111107E1,1.6239999E3,1.2062222E3,1.0773333E3,1.0977777E3,9.777777E0,1.2444444E1,1.16444435E2,4.3244443E2,1.1955555E2,6.5155554E2,1.1373333E3,4.3048887E3,7.2622217E2,1.0875555E3,7.311111E2,5.146666E2,5.1999994E2,7.308444E3,1.8222221E1,2.608889E2,3.1555553E1,3.4666666E2,1.4884443E3,1.3555554E2,3.7466666E2,8.315555E2,5.2755554E2,5.497778E2,9.155555E1,1.00622217E3,7.1111107E0,1.0933333E2,2.2222221E2,2.1022221E2,1.0933333E2,1.0222221E1,6.426666E2,8.888888E0,1.6444443E1,1.1208888E3,5.333333E2,3.7715554E3,6.4399994E2,8.222221E1,9.271111E2,1.6044443E2,6.093333E2,1.2177777E2,4.622222E1,4.6844443E2,1.5333333E2,3.6666666E2,9.546666E2,6.3537773E3,9.333333E0,8.888888E0,8.444444E0,2.311111E1,1.16888885E2,2.2977777E2,7.697777E2,7.186666E2,7.244444E1,6.3111107E1,4.5777775E1,3.2888885E2,8.253333E2,6.222222E0,4.493333E2,7.822221E1,1.8177777E2,3.6799997E2,5.733333E1,3.422222E1,3.3599997E2,6.7022217E2],"tree_param":{"num_deleted":"0","num_feature":"28","num_nodes":"103","size_leaf_vector":"1"}},{"base_weights":[-8.935649E-2,-2.2963473E-1,1.960655E-1,-4.71317E-1,-1.2976329E-1,5.347291E-1,5.6626726E-2,-5.8358645E-1,-3.8237825E-1,1.7336714E-1,-1.9900379E-1,4.7134453E-1,8.922711E-1,-2.2149341E-1,1.3143773E-1,-6.1067402E-2,-5.411604E-1,-5.612409E-1,-3.0277658E-1,4.5841545E-1,9.5709644E-2,-3.8358712E-1,-1.5453982E-1,5.9662896E-1,3.569443E-1,1.0562143E0,7.101244E-1,-1.318696E-1,-3.247449E-1,2.3642519E-1,-4.7614337E-3,-5.7017833E-1,-3.2774177E-1,-5.770285E-1,-4.0389866E-1,-1.4664281E-2,-3.4414247E-1,5.7307285E-1,2.1681602E-1,1.4949214E-1,-1.2779115E-1,-5.007286E-1,-3.1339598E-1,-1.2737541E-1,-3.1066248E-1,4.959567E-1,7.426168E-1,2.2513619E-1,4.7870123E-1,9.572939E-1,1.0797078E-1,9.743883E-1,6.2706727E-1,-2.8724834E-2,-2.276896E-1,9.11846E-2,-3.4501684E-1,1.503494E-1,3.815377E-1,-7.864228E-2,1.6167302E-1,-4.5969974E-2,-5.7991974E-2,-3.7127968E-2,-1.5627658E-2,-3.213166E-2,-5.0143655E-2,2.0561619E-2,-4.1303046E-2,-3.9666765E-3,5.735359E-2,-2.3593305E-2,-3.7019882E-2,7.289113E-2,4.0785354E-2,1.49094155E-2,6.603626E-2,1.6511394E-2,3.996094E-3,-1.799715E-2,4.880372E-3,-5.3703856E-2,-3.773368E-2,-3.2337647E-2,-1.2146899E-2,-1.3523573E-2,-1.2134238E-3,-2.1279857E-2,-3.4545664E-2,4.4816226E-2,1.587819E-3,7.05222E-2,3.797209E-2,2.5746983E-2,3.5440398E-3,5.416162E-2,3.1356E-2,8.967217E-2,4.1815806E-2,5.6962255E-2,9.661526E-2,2.9600214E-2,6.4460315E-2,2.6636655E-3,-2.4536114E-2,-2.4056036E-2,1.0300556E-2,-3.0358078E-2,4.911832E-2,-3.0695865E-2,1.2414824E-2,2.0532025E-2,1.4991133E-3,5.2113783E-2,2.7724087E-2,-1.0278933E-3,-1.3565626E-2,2.0595267E-2,-1.267798E-2],"categories":[],"categories_nodes":[],"categories_segments":[],"categories_sizes":[],"default_left":[0,0,0,0,0,0,0,0,0,0,0,0,0,0,0,0,0,0,0,0,0,0,0,0,0,0,0,0,0,0,0,0,0,0,0,0,0,0,0,0,0,0,0,0,0,0,0,0,0,0,0,0,0,0,0,0,0,0,0,0,0,0,0,0,0,0,0,0,0,0,0,0,0,0,0,0,0,0,0,0,0,0,0,0,0,0,0,0,0,0,0,0,0,0,0,0,0,0,0,0,0,0,0,0,0,0,0,0,0,0,0,0,0,0,0,0,0,0,0],"id":2,"left_children":[1,3,5,7,9,11,13,15,17,19,21,23,25,27,29,-1,31,33,35,37,39,41,43,45,47,49,51,53,55,57,59,61,63,65,67,69,71,73,75,77,79,81,83,85,87,89,91,93,95,97,-1,99,101,103,105,107,109,111,113,115,117,-1,-1,-1,-1,-1,-1,-1,-1,-1,-1,-1,-1,-1,-1,-1,-1,-1,-1,-1,-1,-1,-1,-1,-1,-1,-1,-1,-1,-1,-1,-1,-1,-1,-1,-1,-1,-1,-1,-1,-1,-1,-1,-1,-1,-1,-1,-1,-1,-1,-1,-1,-1,-1,-1,-1,-1,-1,-1],"loss_changes":[9.388449E2,3.7944098E2,3.6483948E2,4.5835205E1,2.335024E2,5.0971252E1,1.138766E2,1.1422302E1,3.6467163E1,4.5752842E1,7.429462E1,2.7371521E1,9.99707E0,1.0705479E1,6.1691833E1,0E0,9.490723E0,1.8950195E0,2.1139374E1,1.221122E1,1.95448E1,1.4398773E1,3.092566E1,1.3336975E1,1.6017067E1,3.5611877E0,3.4159546E0,6.125263E0,4.558571E0,3.0393433E1,2.3079954E1,4.4787903E0,2.8470516E0,1.6282654E0,3.8132668E0,4.863949E0,9.387161E0,7.8950577E0,3.264565E0,5.9546165E0,4.88384E0,4.8533325E0,1.2425034E1,2.2099838E1,6.2006073E0,7.798355E0,9.36528E0,6.7936954E0,8.970856E0,5.328308E0,0E0,1.7390213E0,4.3791733E0,4.6793056E0,6.160307E0,5.437118E0,3.912037E0,1.8410671E1,1.1630569E1,6.972831E0,1.4372863E1,0E0,0E0,0E0,0E0,0E0,0E0,0E0,0E0,0E0,0E0,0E0,0E0,0E0,0E0,0E0,0E0,0E0,0E0,0E0,0E0,0E0,0E0,0E0,0E0,0E0,0E0,0E0,0E0,0E0,0E0,0E0,0E0,0E0,0E0,0E0,0E0,0E0,0E0,0E0,0E0,0E0,0E0,0E0,0E0,0E0,0E0,0E0,0E0,0E0,0E0,0E0,0E0,0E0,0E0,0E0,0E0,0E0,0E0],"parents":[2147483647,0,0,1,1,2,2,3,3,4,4,5,5,6,6,7,7,8,8,9,9,10,10,11,11,12,12,13,13,14,14,16,16,17,17,18,18,19,19,20,20,21,21,22,22,23,23,24,24,25,25,26,26,27,27,28,28,29,29,30,30,31,31,32,32,33,33,34,34,35,35,36,36,37,37,38,38,39,39,40,40,41,41,42,42,43,43,44,44,45,45,46,46,47,47,48,48,49,49,51,51,52,52,53,53,54,54,55,55,56,56,57,57,58,58,59,59,60,60],"right_children":[2,4,6,8,10,12,14,16,18,20,22,24,26,28,30,-1,32,34,36,38,40,42,44,46,48,50,52,54,56,58,60,62,64,66,68,70,72,74,76,78,80,82,84,86,88,90,92,94,96,98,-1,100,102,104,106,108,110,112,114,116,118,-1,-1,-1,-1,-1,-1,-1,-1,-1,-1,-1,-1,-1,-1,-1,-1,-1,-1,-1,-1,-1,-1,-1,-1,-1,-1,-1,-1,-1,-1,-1,-1,-1,-1,-1,-1,-1,-1,-1,-1,-1,-1,-1,-1,-1,-1,-1,-1,-1,-1,-1,-1,-1,-1,-1,-1,-1,-1],"split_conditions":[3.264776E-1,-5.623895E-1,-5.413161E-1,-1.0068231E0,-4.4450924E-1,2.2871027E0,-9.668818E-1,-1.4512566E0,-8.2824785E-1,-1.4632702E0,-9.127145E-1,4.821093E-1,9.0622765E-1,8.1282043E-1,4.821093E-1,-6.1067402E-2,5.2926666E-1,2.3320959E0,-9.133148E-1,4.821093E-1,9.0622765E-1,-1.4758414E0,4.821093E-1,1.2153447E0,1.2153447E0,2.1042118E0,-2.6489136E0,5.7991058E-2,-3.647283E-1,1.2153447E0,1.6597781E0,1.3431966E0,5.4069126E-1,-2.8085485E-1,7.887669E-2,2.7708306E0,5.7991058E-2,-2.1477773E0,8.0210817E-1,8.118875E-1,3.7114378E-2,-1.9590143E0,8.0210817E-1,8.4200084E-1,1.3303459E0,1.232217E0,8.1282043E-1,1.7544641E0,-1.1376278E0,1.8576652E0,1.0797078E-1,1.4331232E0,-1.1103762E0,1.7940111E0,2.1042118E0,-1.5316403E0,3.0970893E0,5.821523E-1,-7.9024553E-1,4.982731E-1,2.1785824E0,-4.5969974E-2,-5.7991974E-2,-3.7127968E-2,-1.5627658E-2,-3.213166E-2,-5.0143655E-2,2.0561619E-2,-4.1303046E-2,-3.9666765E-3,5.735359E-2,-2.3593305E-2,-3.7019882E-2,7.289113E-2,4.0785354E-2,1.49094155E-2,6.603626E-2,1.6511394E-2,3.996094E-3,-1.799715E-2,4.880372E-3,-5.3703856E-2,-3.773368E-2,-3.2337647E-2,-1.2146899E-2,-1.3523573E-2,-1.2134238E-3,-2.1279857E-2,-3.4545664E-2,4.4816226E-2,1.587819E-3,7.05222E-2,3.797209E-2,2.5746983E-2,3.5440398E-3,5.416162E-2,3.1356E-2,8.967217E-2,4.1815806E-2,5.6962255E-2,9.661526E-2,2.9600214E-2,6.4460315E-2,2.6636655E-3,-2.4536114E-2,-2.4056036E-2,1.0300556E-2,-3.0358078E-2,4.911832E-2,-3.0695865E-2,1.2414824E-2,2.0532025E-2,1.4991133E-3,5.2113783E-2,2.7724087E-2,-1.0278933E-3,-1.3565626E-2,2.0595267E-2,-1.267798E-2],"split_indices":[3,3,22,3,22,24,24,3,24,22,24,5,5,10,5,0,24,4,22,5,5,24,5,3,3,3,22,5,18,3,3,22,18,11,10,24,5,22,4,23,4,24,4,13,5,10,10,5,22,18,0,16,4,22,3,24,4,10,5,10,5,0,0,0,0,0,0,0,0,0,0,0,0,0,0,0,0,0,0,0,0,0,0,0,0,0,0,0,0,0,0,0,0,0,0,0,0,0,0,0,0,0,0,0,0,0,0,0,0,0,0,0,0,0,0,0,0,0,0],"split_type":[0,0,0,0,0,0,0,0,0,0,0,0,0,0,0,0,0,0,0,0,0,0,0,0,0,0,0,0,0,0,0,0,0,0,0,0,0,0,0,0,0,0,0,0,0,0,0,0,0,0,0,0,0,0,0,0,0,0,0,0,0,0,0,0,0,0,0,0,0,0,0,0,0,0,0,0,0,0,0,0,0,0,0,0,0,0,0,0,0,0,0,0,0,0,0,0,0,0,0,0,0,0,0,0,0,0,0,0,0,0,0,0,0,0,0,0,0,0,0],"sum_hessian":[2.3448443E4,1.5721776E4,7.726666E3,4.5968887E3,1.1124889E4,2.2533333E3,5.473333E3,2.0315554E3,2.5653333E3,2.0684443E3,9.056444E3,1.9142222E3,3.3911108E2,1.1599999E3,4.313333E3,4.893333E2,1.5422222E3,7.897777E2,1.7755554E3,4.4266663E2,1.6257777E3,1.7577777E3,7.298666E3,9.1333325E2,1.00088885E3,1.7822221E2,1.6088889E2,6.213333E2,5.386666E2,2.4359998E3,1.8773333E3,1.3573333E3,1.8488889E2,7.173333E2,7.244444E1,2.231111E2,1.5524443E3,2.9999997E2,1.4266666E2,1.3106666E3,3.1511108E2,6.5822217E2,1.0995555E3,6.217333E3,1.0813333E3,5.4088885E2,3.7244443E2,4.8088885E2,5.1999994E2,1.2177777E2,5.6444443E1,3.822222E1,1.2266666E2,2.9955554E2,3.2177777E2,2.4888887E1,5.137778E2,1.5293333E3,9.066666E2,1.3004443E3,5.7688885E2,1.0662222E3,2.9111108E2,1.0533333E2,7.955555E1,4.0444443E1,6.7688885E2,7.9999995E0,6.444444E1,2.1333331E2,9.777777E0,8.924444E2,6.5999994E2,7.4666664E1,2.2533331E2,1.3288889E2,9.777777E0,9.1422217E2,3.9644443E2,2.1733331E2,9.777777E1,2.0177777E2,4.5644443E2,7.915555E2,3.0799997E2,4.8648887E3,1.3524443E3,6.5999994E2,4.213333E2,5.0844443E2,3.2444443E1,2.888889E2,8.355555E1,3.382222E2,1.4266666E2,2.1422221E2,3.0577777E2,1.00888885E2,2.0888887E1,1.3333332E1,2.4888887E1,3.9111107E1,8.355555E1,2.431111E2,5.6444443E1,2.782222E2,4.3555553E1,1.2888888E1,1.1999999E1,4.982222E2,1.5555554E1,9.0799994E2,6.213333E2,1.7688889E2,7.297777E2,7.1288885E2,5.8755554E2,4.5866663E2,1.1822221E2],"tree_param":{"num_deleted":"0","num_feature":"28","num_nodes":"119","size_leaf_vector":"1"}},{"base_weights":[2.2586833E-1,-1.746882E-1,3.3650735E-1,-4.8514965E-1,-9.13216E-2,2.4085633E-1,6.6289073E-1,-5.7501793E-2,-4.298704E-1,-2.1131714E-1,7.8363255E-2,1.9025752E-2,2.9783443E-1,4.9629596E-1,7.645546E-1,-4.9413598E-1,-2.0418622E-1,-1.156048E-1,-3.0751365E-1,2.0259556E-1,-6.3146405E-2,-1.8089248E-1,8.345215E-2,2.0750411E-1,4.4051138E-1,5.8051974E-1,2.0200299E-1,8.617972E-1,5.487384E-1,-3.6846158E-1,-4.5781728E-2,1.0668216E-1,-3.0140835E-1,-2.367299E-1,-2.6215777E-2,-4.5277944E-1,-2.3277713E-1,6.2796816E-2,3.0706286E-1,-1.2431541E-1,1.7691174E-1,-1.856832E-2,-2.3840913E-1,2.228251E-3,1.9971435E-1,2.4994905E-1,-3.3387583E-2,5.4564536E-1,3.1997618E-1,5.221004E-1,9.672265E-1,3.3041555E-1,5.9043895E-2,7.763324E-1,1.0465612E0,7.3875564E-1,4.357456E-1,-2.1052167E-2,-5.4805055E-2,5.106571E-2,-8.757691E-3,3.8765997E-2,-2.8848689E-2,-2.5009222E-2,-3.20353E-3,-1.3924049E-2,6.2124515E-3,-5.4929897E-2,-3.4205437E-2,-3.063725E-2,-1.3014015E-2,1.51251275E-2,-2.524425E-3,2.2054793E-2,4.236432E-2,-2.4341157E-2,-1.8012397E-3,2.3581093E-2,-9.5619215E-3,2.8380128E-3,-4.0904548E-2,-2.1493603E-2,6.533038E-2,-5.563376E-3,1.2927587E-2,2.7053483E-2,7.35383E-3,1.7755508E-2,2.8639574E-2,-5.5980654E-3,1.8852215E-2,4.348452E-2,6.425928E-2,3.9476026E-2,2.0597015E-2,2.9250303E-2,4.849731E-2,8.615695E-2,5.3652506E-2,3.4653734E-2,-1.3310482E-3,2.3747906E-2,-1.206058E-2,6.5156445E-2,1.1077073E-1,7.073346E-2,9.382454E-2,8.8553354E-2,5.720015E-2,4.2608604E-2,9.959656E-3],"categories":[],"categories_nodes":[],"categories_segments":[],"categories_sizes":[],"default_left":[0,0,0,0,0,0,0,0,0,0,0,0,0,0,0,0,0,0,0,0,0,0,0,0,0,0,0,0,0,0,0,0,0,0,0,0,0,0,0,0,0,0,0,0,0,0,0,0,0,0,0,0,0,0,0,0,0,0,0,0,0,0,0,0,0,0,0,0,0,0,0,0,0,0,0,0,0,0,0,0,0,0,0,0,0,0,0,0,0,0,0,0,0,0,0,0,0,0,0,0,0,0,0,0,0,0,0,0,0,0,0],"id":3,"left_children":[1,3,5,7,9,11,13,-1,15,17,19,21,23,25,27,29,31,33,35,37,39,41,43,45,47,49,51,53,55,57,-1,59,61,63,65,67,69,71,73,75,77,79,81,83,85,87,89,91,93,95,97,99,101,103,105,107,109,-1,-1,-1,-1,-1,-1,-1,-1,-1,-1,-1,-1,-1,-1,-1,-1,-1,-1,-1,-1,-1,-1,-1,-1,-1,-1,-1,-1,-1,-1,-1,-1,-1,-1,-1,-1,-1,-1,-1,-1,-1,-1,-1,-1,-1,-1,-1,-1,-1,-1,-1,-1,-1,-1],"loss_changes":[1.0503832E3,1.3272836E2,5.7972656E2,1.1333603E1,8.234912E1,1.8151776E2,7.119763E1,0E0,1.2158386E1,2.1785133E1,2.945467E1,3.7803173E1,1.4723334E2,3.9493378E1,5.4749756E1,3.5173798E0,5.6574364E0,1.2845072E1,1.2778717E1,1.3006302E1,1.1492446E1,6.6616077E0,2.095428E1,7.156113E1,5.607715E1,2.7912476E1,6.496331E0,2.8311646E1,1.7355133E1,5.570904E0,0E0,4.615028E0,4.0248213E0,5.6967125E0,9.316454E0,3.8673782E0,7.8898964E0,4.062271E0,4.621372E0,1.0380624E1,4.603113E0,4.519545E0,7.403507E0,1.3218616E1,1.2183235E1,2.1260406E1,8.629733E0,1.721051E1,2.3102509E1,9.06546E0,2.322647E0,4.973789E0,7.436088E0,7.0682373E0,6.647888E0,5.983429E0,1.0457314E1,0E0,0E0,0E0,0E0,0E0,0E0,0E0,0E0,0E0,0E0,0E0,0E0,0E0,0E0,0E0,0E0,0E0,0E0,0E0,0E0,0E0,0E0,0E0,0E0,0E0,0E0,0E0,0E0,0E0,0E0,0E0,0E0,0E0,0E0,0E0,0E0,0E0,0E0,0E0,0E0,0E0,0E0,0E0,0E0,0E0,0E0,0E0,0E0,0E0,0E0,0E0,0E0,0E0,0E0],"parents":[2147483647,0,0,1,1,2,2,3,3,4,4,5,5,6,6,8,8,9,9,10,10,11,11,12,12,13,13,14,14,15,15,16,16,17,17,18,18,19,19,20,20,21,21,22,22,23,23,24,24,25,25,26,26,27,27,28,28,29,29,31,31,32,32,33,33,34,34,35,35,36,36,37,37,38,38,39,39,40,40,41,41,42,42,43,43,44,44,45,45,46,46,47,47,48,48,49,49,50,50,51,51,52,52,53,53,54,54,55,55,56,56],"right_children":[2,4,6,8,10,12,14,-1,16,18,20,22,24,26,28,30,32,34,36,38,40,42,44,46,48,50,52,54,56,58,-1,60,62,64,66,68,70,72,74,76,78,80,82,84,86,88,90,92,94,96,98,100,102,104,106,108,110,-1,-1,-1,-1,-1,-1,-1,-1,-1,-1,-1,-1,-1,-1,-1,-1,-1,-1,-1,-1,-1,-1,-1,-1,-1,-1,-1,-1,-1,-1,-1,-1,-1,-1,-1,-1,-1,-1,-1,-1,-1,-1,-1,-1,-1,-1,-1,-1,-1,-1,-1,-1,-1,-1],"split_conditions":[-5.0498855E-1,-1.2748206E0,7.75684E-1,-1.6597366E0,-8.744283E-2,-5.513891E-1,2.6484355E-1,-5.7501793E-2,3.14966E-1,-3.453825E-1,3.7114378E-2,-1.4632702E0,2.6484355E-1,8.0210817E-1,1.184605E0,2.431803E-1,-3.939399E-2,-8.244787E-1,-8.244787E-1,4.3897894E-1,1.2431972E0,-7.278794E-1,2.6484355E-1,4.1961128E-1,4.1961128E-1,2.0837243E0,-2.02474E-1,1.6985412E0,-1.4973722E0,3.7114378E-2,-4.5781728E-2,-4.8407438E-1,-1.9594866E0,7.17415E-1,-8.899045E-1,-3.855435E-1,-8.899045E-1,-7.278794E-1,1.3646437E0,-8.899045E-1,1.5671021E0,2.3119864E0,1.3815886E0,7.868671E-1,3.7114378E-2,3.242042E-1,1.3303459E0,1.8045077E0,2.0542456E-1,9.034003E-1,2.3717668E0,2.3320959E0,-6.475511E-1,1.3734776E0,6.497596E-1,-4.6515055E0,2.7145927E0,-2.1052167E-2,-5.4805055E-2,5.106571E-2,-8.757691E-3,3.8765997E-2,-2.8848689E-2,-2.5009222E-2,-3.20353E-3,-1.3924049E-2,6.2124515E-3,-5.4929897E-2,-3.4205437E-2,-3.063725E-2,-1.3014015E-2,1.51251275E-2,-2.524425E-3,2.2054793E-2,4.236432E-2,-2.4341157E-2,-1.8012397E-3,2.3581093E-2,-9.5619215E-3,2.8380128E-3,-4.0904548E-2,-2.1493603E-2,6.533038E-2,-5.563376E-3,1.2927587E-2,2.7053483E-2,7.35383E-3,1.7755508E-2,2.8639574E-2,-5.5980654E-3,1.8852215E-2,4.348452E-2,6.425928E-2,3.9476026E-2,2.0597015E-2,2.9250303E-2,4.849731E-2,8.615695E-2,5.3652506E-2,3.4653734E-2,-1.3310482E-3,2.3747906E-2,-1.206058E-2,6.5156445E-2,1.1077073E-1,7.073346E-2,9.382454E-2,8.8553354E-2,5.720015E-2,4.2608604E-2,9.959656E-3],"split_indices":[2,2,22,2,22,22,2,0,22,4,4,22,2,4,4,17,17,22,22,22,22,4,2,4,4,22,20,22,23,4,0,6,0,23,2,23,2,4,22,2,4,16,9,23,4,8,5,2,23,22,8,4,23,17,2,23,4,0,0,0,0,0,0,0,0,0,0,0,0,0,0,0,0,0,0,0,0,0,0,0,0,0,0,0,0,0,0,0,0,0,0,0,0,0,0,0,0,0,0,0,0,0,0,0,0,0,0,0,0,0,0],"split_type":[0,0,0,0,0,0,0,0,0,0,0,0,0,0,0,0,0,0,0,0,0,0,0,0,0,0,0,0,0,0,0,0,0,0,0,0,0,0,0,0,0,0,0,0,0,0,0,0,0,0,0,0,0,0,0,0,0,0,0,0,0,0,0,0,0,0,0,0,0,0,0,0,0,0,0,0,0,0,0,0,0,0,0,0,0,0,0,0,0,0,0,0,0,0,0,0,0,0,0,0,0,0,0,0,0,0,0,0,0,0,0],"sum_hessian":[2.3701197E4,5.1295723E3,1.8571627E4,1.0856562E3,4.0439158E3,1.43626875E4,4.2089385E3,2.4424126E2,8.41415E2,2.3689944E3,1.6749216E3,2.9354246E3,1.1427263E4,1.5953851E3,2.6135532E3,6.546822E2,1.8673283E2,1.1878369E3,1.1811573E3,8.92132E2,7.827896E2,7.1518085E2,2.2202437E3,6.997544E3,4.429719E3,1.2402119E3,3.5517322E2,1.8014728E3,8.120805E2,1.6875438E2,4.859278E2,4.4336094E1,1.4239674E2,5.0407104E2,6.837659E2,4.0091965E2,7.802377E2,3.8181616E2,5.1031586E2,6.2404596E2,1.5874359E2,1.8740016E2,5.277807E2,1.3074089E3,9.128348E2,5.949499E3,1.0480448E3,2.3656897E3,2.0640293E3,1.0776416E3,1.6257028E2,1.868601E2,1.683131E2,1.2320558E3,5.69417E2,3.025628E2,5.095177E2,1.173303E2,5.1424076E1,1.3293697E1,3.1042397E1,6.609374E0,1.3578737E2,3.916939E2,1.1237713E2,2.870084E2,3.967575E2,8.384559E1,3.1707407E2,3.0107983E2,4.7915784E2,1.7057658E2,2.1123958E2,4.0778162E2,1.0253424E2,2.429671E2,3.810789E2,1.1811192E2,4.0631676E1,1.6837334E2,1.902683E1,5.206172E2,7.1635184E0,9.003627E2,4.0704623E2,4.4699728E2,4.6583752E2,4.021089E3,1.9284102E3,9.301881E2,1.1785672E2,2.0267087E3,3.3898093E2,7.2676605E2,1.3372633E3,2.2640778E2,8.512338E2,1.4338719E2,1.918309E1,1.5315796E2,3.370215E1,8.0461914E1,8.785119E1,1.2065283E3,2.552748E1,1.16342026E2,4.5307498E2,5.4842693E1,2.4772012E2,4.234681E2,8.60496E1],"tree_param":{"num_deleted":"0","num_feature":"28","num_nodes":"111","size_leaf_vector":"1"}},{"base_weights":[-1.4384189E-1,-3.274986E-1,-1.2691392E-1,-2.7237076E-1,-4.118254E-1,-1.0123098E-1,-2.1421312E-1,-1.9407319E-1,-3.0520996E-1,-3.7548804E-1,-5.4702145E-1,-3.192326E-2,-1.3186102E-1,-3.4092298E-1,-1.802899E-1,-2.074151E-1,4.629069E-2,-4.3161556E-1,-2.8056088E-1,-4.6225005E-1,-2.977198E-1,-4.976073E-1,-6.213137E-2,8.052942E-2,-1.141497E-1,-1.1095206E-1,-2.1377374E-1,-3.2559818E-1,-4.8293866E-2,-2.6768035E-1,-1.4464155E-1,1.18436E-1,-2.3948494E-1,-4.7594288E-1,-5.777096E-2,-2.9909593E-1,6.272199E-2,-4.2182654E-2,-3.221694E-1,-3.3186746E-1,-6.438881E-2,-2.1290064E-1,-4.6536017E-2,1.9747221E-1,4.6422698E-2,-3.858922E-1,-9.868754E-2,-9.587438E-2,-1.595973E-1,-1.7608142E-1,-3.077992E-1,-3.9755857E-1,-2.7131703E-1,-2.1093415E-1,-3.522917E-1,-1.3026136E-1,-2.426687E-1,-2.3532506E-2,4.1244317E-2,1.6869636E-2,-2.210379E-2,-3.0724613E-2,-5.0418254E-2,2.125489E-2,-3.7036136E-2,-2.916313E-2,-1.9750623E-2,3.0445896E-2,-2.5693836E-2,3.339907E-2,-3.5062063E-2,-0E0,-3.0784095E-2,4.404979E-3,-4.2935345E-2,-4.198226E-2,2.7010277E-2,3.291456E-2,9.810117E-3,5.0157807E-3,-2.0924343E-2,-3.5005063E-2,1.87604E-2,-5.3165825E-3,-1.4049486E-2,-1.0292786E-2,-4.8828223E-3,-1.5265636E-2,3.3756355E-3,-1.4073156E-2,-4.2346742E-2,-2.7182197E-2,2.3002349E-2,-2.5695158E-2,-3.8644798E-2,-1.8488105E-2,-3.9235804E-2,-1.9304452E-2,9.145193E-4,-3.761627E-3,-3.1808436E-2,-1.24930125E-2,-3.0753394E-3,-2.7072787E-2,-1.1025411E-2],"categories":[],"categories_nodes":[],"categories_segments":[],"categories_sizes":[],"default_left":[0,0,0,0,0,0,0,0,0,0,0,0,0,0,0,0,0,0,0,0,0,0,0,0,0,0,0,0,0,0,0,0,0,0,0,0,0,0,0,0,0,0,0,0,0,0,0,0,0,0,0,0,0,0,0,0,0,0,0,0,0,0,0,0,0,0,0,0,0,0,0,0,0,0,0,0,0,0,0,0,0,0,0,0,0,0,0,0,0,0,0,0,0,0,0,0,0,0,0,0,0,0,0,0,0],"id":4,"left_children":[1,3,5,7,9,11,13,15,17,19,21,23,25,27,29,31,-1,33,35,37,39,41,-1,43,45,47,49,51,-1,53,55,57,59,61,63,65,67,-1,69,71,73,75,-1,77,79,81,83,85,87,89,91,93,95,97,99,101,103,-1,-1,-1,-1,-1,-1,-1,-1,-1,-1,-1,-1,-1,-1,-1,-1,-1,-1,-1,-1,-1,-1,-1,-1,-1,-1,-1,-1,-1,-1,-1,-1,-1,-1,-1,-1,-1,-1,-1,-1,-1,-1,-1,-1,-1,-1,-1,-1],"loss_changes":[7.2491455E1,9.104843E0,4.786737E1,3.0293198E0,3.7575073E0,3.5025574E1,2.083316E1,3.45183E0,2.5647583E0,4.0876617E0,1.3967323E0,4.67798E1,1.9581146E1,3.4924622E0,1.1904686E1,3.627201E0,0E0,2.2257519E0,4.481529E0,1.2880249E0,2.5556679E0,1.7546082E0,0E0,8.506015E0,1.2248783E1,6.67173E0,8.214722E0,3.7061234E0,0E0,5.288498E0,3.8115501E0,4.477292E0,2.778164E0,1.5630398E0,1.7107335E0,1.9031639E0,3.854903E0,0E0,3.5756392E0,2.7860203E0,2.1536152E0,2.8709807E0,0E0,7.464468E0,6.020745E0,2.4129047E0,6.6327114E0,6.694668E0,8.460865E0,5.729103E0,4.3926735E0,2.1720428E0,5.581341E0,2.3349018E0,2.8852844E0,3.6637764E0,2.9314556E0,0E0,0E0,0E0,0E0,0E0,0E0,0E0,0E0,0E0,0E0,0E0,0E0,0E0,0E0,0E0,0E0,0E0,0E0,0E0,0E0,0E0,0E0,0E0,0E0,0E0,0E0,0E0,0E0,0E0,0E0,0E0,0E0,0E0,0E0,0E0,0E0,0E0,0E0,0E0,0E0,0E0,0E0,0E0,0E0,0E0,0E0,0E0,0E0],"parents":[2147483647,0,0,1,1,2,2,3,3,4,4,5,5,6,6,7,7,8,8,9,9,10,10,11,11,12,12,13,13,14,14,15,15,17,17,18,18,19,19,20,20,21,21,23,23,24,24,25,25,26,26,27,27,29,29,30,30,31,31,32,32,33,33,34,34,35,35,36,36,38,38,39,39,40,40,41,41,43,43,44,44,45,45,46,46,47,47,48,48,49,49,50,50,51,51,52,52,53,53,54,54,55,55,56,56],"right_children":[2,4,6,8,10,12,14,16,18,20,22,24,26,28,30,32,-1,34,36,38,40,42,-1,44,46,48,50,52,-1,54,56,58,60,62,64,66,68,-1,70,72,74,76,-1,78,80,82,84,86,88,90,92,94,96,98,100,102,104,-1,-1,-1,-1,-1,-1,-1,-1,-1,-1,-1,-1,-1,-1,-1,-1,-1,-1,-1,-1,-1,-1,-1,-1,-1,-1,-1,-1,-1,-1,-1,-1,-1,-1,-1,-1,-1,-1,-1,-1,-1,-1,-1,-1,-1,-1,-1,-1],"split_conditions":[-1.1205047E0,6.497596E-1,6.497596E-1,-5.510991E-1,1.5104525E0,-1.1795597E-1,-5.623895E-1,1.5564104E0,-3.3534234E0,1.4971465E-1,3.3433652E0,-5.0498855E-1,5.54462E-1,1.49424E0,2.1144786E-1,-8.899045E-1,4.629069E-2,3.010972E0,1.5798409E0,4.8628962E-1,-1.2640389E0,-2.0730726E-1,-6.213137E-2,-1.2748206E0,-1.4512566E0,7.709111E-1,1.2153447E0,1.4971465E-1,-4.8293866E-2,1.4195918E0,1.0616714E0,8.091453E-1,-1.638482E0,4.954996E-1,1.6294042E0,4.954996E-1,6.8446016E-1,-4.2182654E-2,-2.3427284E-1,-2.0730726E-1,1.739338E0,-1.1531782E-1,-4.6536017E-2,-1.0068231E0,2.1785824E0,1.689876E0,3.7006295E-1,-5.045631E-1,2.1785824E0,2.4255688E0,3.8750556E0,-3.5831672E-1,4.821093E-1,7.4012136E-1,-1.3926816E0,1.1911825E0,1.0808012E0,-2.3532506E-2,4.1244317E-2,1.6869636E-2,-2.210379E-2,-3.0724613E-2,-5.0418254E-2,2.125489E-2,-3.7036136E-2,-2.916313E-2,-1.9750623E-2,3.0445896E-2,-2.5693836E-2,3.339907E-2,-3.5062063E-2,-0E0,-3.0784095E-2,4.404979E-3,-4.2935345E-2,-4.198226E-2,2.7010277E-2,3.291456E-2,9.810117E-3,5.0157807E-3,-2.0924343E-2,-3.5005063E-2,1.87604E-2,-5.3165825E-3,-1.4049486E-2,-1.0292786E-2,-4.8828223E-3,-1.5265636E-2,3.3756355E-3,-1.4073156E-2,-4.2346742E-2,-2.7182197E-2,2.3002349E-2,-2.5695158E-2,-3.8644798E-2,-1.8488105E-2,-3.9235804E-2,-1.9304452E-2,9.145193E-4,-3.761627E-3,-3.1808436E-2,-1.24930125E-2,-3.0753394E-3,-2.7072787E-2,-1.1025411E-2],"split_indices":[23,2,2,20,9,3,3,19,23,18,22,2,24,8,18,2,0,12,9,19,23,19,0,2,3,3,3,18,0,2,17,12,5,7,9,7,19,0,17,19,22,20,0,3,5,12,22,19,5,24,5,8,5,17,12,13,19,0,0,0,0,0,0,0,0,0,0,0,0,0,0,0,0,0,0,0,0,0,0,0,0,0,0,0,0,0,0,0,0,0,0,0,0,0,0,0,0,0,0,0,0,0,0,0,0],"split_type":[0,0,0,0,0,0,0,0,0,0,0,0,0,0,0,0,0,0,0,0,0,0,0,0,0,0,0,0,0,0,0,0,0,0,0,0,0,0,0,0,0,0,0,0,0,0,0,0,0,0,0,0,0,0,0,0,0,0,0,0,0,0,0,0,0,0,0,0,0,0,0,0,0,0,0,0,0,0,0,0,0,0,0,0,0,0,0,0,0,0,0,0,0,0,0,0,0,0,0,0,0,0,0,0,0],"sum_hessian":[2.332645E4,1.9682411E3,2.1358209E4,1.1906892E3,7.775519E2,1.6503682E4,4.8545273E3,3.5244125E2,8.38248E2,6.1328143E2,1.6427046E2,5.058863E3,1.1444817E4,1.0247638E3,3.8297637E3,3.4628247E2,6.158775E0,1.3630063E2,7.019474E2,2.8943784E2,3.238436E2,1.2963588E2,3.4634583E1,2.1363933E3,2.9224695E3,9.118145E3,2.326673E3,9.6006525E2,6.469857E1,1.1090544E3,2.7207092E3,3.0849024E1,3.1543344E2,1.21698944E2,1.4601678E1,6.661609E2,3.578645E1,2.3368428E2,5.575357E1,2.8226056E2,4.158303E1,1.9201977E1,1.104339E2,4.8195712E2,1.6544363E3,1.5708511E2,2.7653843E3,6.961699E3,2.1564458E3,1.6613978E3,6.6527515E2,4.122425E2,5.4782275E2,6.6433325E2,4.447212E2,2.3732551E3,3.4745413E2,1.4762099E1,1.6086926E1,1.369891E1,3.0173456E2,6.1438393E1,6.026055E1,7.961304E0,6.6403737E0,4.0411722E2,2.6204367E2,1.987636E1,1.5910088E1,6.124727E0,4.962884E1,2.3074198E1,2.5918637E2,3.2808285E1,8.774745E0,1.2640114E1,6.561863E0,1.4587744E2,3.3607968E2,1.5868839E3,6.75524E1,1.5092561E2,6.159504E0,1.7884381E3,9.769463E2,4.221523E3,2.7401763E3,1.9629429E3,1.9350284E2,1.607505E3,5.3892864E1,6.5251154E2,1.2763634E1,1.5298302E2,2.5925946E2,4.2624643E2,1.21576294E2,6.2048303E2,4.3850266E1,2.887752E1,4.1584366E2,2.0197283E3,3.5352682E2,2.0834453E2,1.3910959E2],"tree_param":{"num_deleted":"0","num_feature":"28","num_nodes":"105","size_leaf_vector":"1"}},{"base_weights":[-8.393192E-2,2.4186043E-1,-1.8449041E-1,5.0557584E-1,1.6087255E-1,-1.154159E-1,-3.731888E-1,7.3476774E-1,4.1006595E-1,3.3130085E-1,1.2152596E-1,-2.5012678E-1,-7.8874096E-2,-3.2133567E-1,-5.275184E-1,9.1318196E-1,5.635684E-1,7.5744495E-2,4.446723E-1,1.9874957E-1,4.5199397E-1,1.7517102E-1,2.831322E-2,-3.8055494E-1,-2.1104118E-1,4.060469E-2,-1.23373106E-1,-4.065245E-1,-2.7381167E-1,-5.5973643E-1,-3.8996997E-1,7.089728E-1,1.0848508E0,7.200137E-1,3.100117E-1,1.524332E-1,-5.2793186E-2,3.4101903E-1,5.4292226E-1,2.677399E-1,5.5717537E-3,5.7937515E-1,2.0405157E-1,-2.5892572E-4,2.1792985E-1,1.23951316E-1,-3.4942973E-2,-4.722198E-1,-3.3724412E-1,-1.6772375E-1,-3.4658545E-1,8.9585036E-2,-5.8266822E-2,-1.5360259E-1,-2.1641431E-2,-2.541466E-1,-4.4417602E-1,-3.8098636E-1,-2.3472907E-1,-1.19732335E-1,-5.671272E-1,-2.1375641E-1,-5.105247E-1,7.150623E-2,3.5914145E-2,5.6561466E-2,9.609617E-2,8.011004E-2,4.9491815E-2,5.32406E-2,1.3758352E-2,-2.6274145E-2,2.5174404E-2,5.1977113E-2,2.5666421E-2,4.821757E-2,-1.7751798E-2,-1.2283211E-2,2.6772676E-2,5.2023645E-2,-5.3970884E-3,4.2740148E-2,6.394956E-2,2.1113694E-2,-5.1358152E-2,3.743382E-2,-4.055794E-3,2.625778E-2,1.4712334E-2,8.128663E-3,3.523695E-2,-1.4194275E-3,-2.6679318E-2,-2.5506327E-2,-4.4971038E-2,2.1592587E-2,-2.9550442E-2,-3.9657378E-3,-1.984158E-2,-2.4482839E-2,-4.090738E-2,4.8937523E-3,2.5001882E-2,-6.5672356E-3,2.5127541E-2,-1.1655503E-3,-1.5175039E-2,2.1165153E-3,-9.21397E-3,-3.7336253E-2,-1.2364566E-2,-4.0839575E-2,-2.9818837E-2,-4.2328898E-2,-2.9520366E-2,5.8699143E-3,-2.1547386E-2,3.3085175E-2,-3.7075315E-2,-5.5491738E-2,-4.5799017E-2,-6.882033E-4,-3.352981E-2,-5.111005E-2,-1.2930688E-2],"categories":[],"categories_nodes":[],"categories_segments":[],"categories_sizes":[],"default_left":[0,0,0,0,0,0,0,0,0,0,0,0,0,0,0,0,0,0,0,0,0,0,0,0,0,0,0,0,0,0,0,0,0,0,0,0,0,0,0,0,0,0,0,0,0,0,0,0,0,0,0,0,0,0,0,0,0,0,0,0,0,0,0,0,0,0,0,0,0,0,0,0,0,0,0,0,0,0,0,0,0,0,0,0,0,0,0,0,0,0,0,0,0,0,0,0,0,0,0,0,0,0,0,0,0,0,0,0,0,0,0,0,0,0,0,0,0,0,0,0,0,0,0,0,0],"id":5,"left_children":[1,3,5,7,9,11,13,15,17,19,21,23,25,27,29,31,33,35,37,39,41,43,45,47,49,51,53,55,57,59,61,63,65,67,69,71,-1,73,75,77,79,81,83,85,87,89,91,93,95,97,99,101,103,105,107,109,111,113,115,117,119,121,123,-1,-1,-1,-1,-1,-1,-1,-1,-1,-1,-1,-1,-1,-1,-1,-1,-1,-1,-1,-1,-1,-1,-1,-1,-1,-1,-1,-1,-1,-1,-1,-1,-1,-1,-1,-1,-1,-1,-1,-1,-1,-1,-1,-1,-1,-1,-1,-1,-1,-1,-1,-1,-1,-1,-1,-1,-1,-1,-1,-1,-1,-1],"loss_changes":[7.646144E2,1.1752261E2,2.3242859E2,2.8227386E1,2.821257E1,6.424727E1,3.8185303E1,1.1505554E1,1.0530304E1,1.2590027E1,1.7098381E1,1.4161331E1,5.4609325E1,1.443808E1,5.2598877E0,6.385315E0,7.6356125E0,4.5542364E0,8.364502E0,5.0026217E0,1.2993591E1,1.6302246E1,7.5702944E0,2.4940033E0,1.2553001E1,1.3497534E1,2.300354E1,7.300598E0,9.580505E0,3.1203308E0,4.8060417E0,3.1105156E0,1.7182083E0,3.5664444E0,3.4263434E0,5.1127195E0,0E0,4.2376404E0,7.457794E0,5.341963E0,4.1824718E0,3.5369568E0,4.9565954E0,8.838232E0,7.099556E0,4.0821724E0,3.8063211E0,1.9274483E0,2.5292625E0,1.2833939E1,4.0496674E0,1.219137E1,6.13511E0,1.9846191E1,6.9070125E0,5.0646725E0,3.361557E0,2.3868713E0,9.37204E0,2.6147246E0,2.2862244E0,3.4207878E0,4.3075676E0,0E0,0E0,0E0,0E0,0E0,0E0,0E0,0E0,0E0,0E0,0E0,0E0,0E0,0E0,0E0,0E0,0E0,0E0,0E0,0E0,0E0,0E0,0E0,0E0,0E0,0E0,0E0,0E0,0E0,0E0,0E0,0E0,0E0,0E0,0E0,0E0,0E0,0E0,0E0,0E0,0E0,0E0,0E0,0E0,0E0,0E0,0E0,0E0,0E0,0E0,0E0,0E0,0E0,0E0,0E0,0E0,0E0,0E0,0E0,0E0,0E0,0E0],"parents":[2147483647,0,0,1,1,2,2,3,3,4,4,5,5,6,6,7,7,8,8,9,9,10,10,11,11,12,12,13,13,14,14,15,15,16,16,17,17,18,18,19,19,20,20,21,21,22,22,23,23,24,24,25,25,26,26,27,27,28,28,29,29,30,30,31,31,32,32,33,33,34,34,35,35,37,37,38,38,39,39,40,40,41,41,42,42,43,43,44,44,45,45,46,46,47,47,48,48,49,49,50,50,51,51,52,52,53,53,54,54,55,55,56,56,57,57,58,58,59,59,60,60,61,61,62,62],"right_children":[2,4,6,8,10,12,14,16,18,20,22,24,26,28,30,32,34,36,38,40,42,44,46,48,50,52,54,56,58,60,62,64,66,68,70,72,-1,74,76,78,80,82,84,86,88,90,92,94,96,98,100,102,104,106,108,110,112,114,116,118,120,122,124,-1,-1,-1,-1,-1,-1,-1,-1,-1,-1,-1,-1,-1,-1,-1,-1,-1,-1,-1,-1,-1,-1,-1,-1,-1,-1,-1,-1,-1,-1,-1,-1,-1,-1,-1,-1,-1,-1,-1,-1,-1,-1,-1,-1,-1,-1,-1,-1,-1,-1,-1,-1,-1,-1,-1,-1,-1,-1,-1,-1,-1,-1],"split_conditions":[-4.4450924E-1,-1.4632702E0,7.75684E-1,-2.1477773E0,-1.0146949E0,-5.338976E-1,1.7940111E0,4.821093E-1,-5.338976E-1,2.5453162E-1,4.821093E-1,-1.3223268E0,5.7991058E-2,3.7114378E-2,2.5453162E-1,5.173414E-1,-1.5665665E0,1.2760382E0,-3.453825E-1,9.0622765E-1,1.3303459E0,-5.338976E-1,-8.897735E-1,5.8846436E-2,4.821093E-1,6.3869035E-1,8.4200084E-1,-7.784971E-1,-7.967073E-1,-1.2508928E0,2.4988542E-1,7.8354543E-1,4.478031E-1,1.3303459E0,-1.1824845E-1,1.890338E-1,-5.2793186E-2,-1.0324801E0,1.7743982E0,-1.2165353E0,9.6871816E-2,7.562447E-1,1.2640359E0,-1.3926816E0,-3.6612722E-1,1.3780571E0,1.2640359E0,-8.57865E-2,-3.9575762E-1,-3.0610126E-1,2.4092714E-1,1.184605E0,1.5685803E0,-5.4229915E-1,3.7336287E-1,-5.338976E-1,5.173414E-1,-7.4394935E-1,-7.784971E-1,-2.2164445E0,3.7114378E-2,6.3869035E-1,7.637283E-1,7.150623E-2,3.5914145E-2,5.6561466E-2,9.609617E-2,8.011004E-2,4.9491815E-2,5.32406E-2,1.3758352E-2,-2.6274145E-2,2.5174404E-2,5.1977113E-2,2.5666421E-2,4.821757E-2,-1.7751798E-2,-1.2283211E-2,2.6772676E-2,5.2023645E-2,-5.3970884E-3,4.2740148E-2,6.394956E-2,2.1113694E-2,-5.1358152E-2,3.743382E-2,-4.055794E-3,2.625778E-2,1.4712334E-2,8.128663E-3,3.523695E-2,-1.4194275E-3,-2.6679318E-2,-2.5506327E-2,-4.4971038E-2,2.1592587E-2,-2.9550442E-2,-3.9657378E-3,-1.984158E-2,-2.4482839E-2,-4.090738E-2,4.8937523E-3,2.5001882E-2,-6.5672356E-3,2.5127541E-2,-1.1655503E-3,-1.5175039E-2,2.1165153E-3,-9.21397E-3,-3.7336253E-2,-1.2364566E-2,-4.0839575E-2,-2.9818837E-2,-4.2328898E-2,-2.9520366E-2,5.8699143E-3,-2.1547386E-2,3.3085175E-2,-3.7075315E-2,-5.5491738E-2,-4.5799017E-2,-6.882033E-4,-3.352981E-2,-5.111005E-2,-1.2930688E-2],"split_indices":[22,22,22,22,0,1,22,5,1,1,5,1,5,4,1,1,23,17,4,5,5,1,22,23,5,0,13,0,1,0,26,19,17,5,13,19,0,23,19,12,23,20,23,12,5,19,23,7,22,0,22,4,1,0,21,1,1,23,0,23,4,0,19,0,0,0,0,0,0,0,0,0,0,0,0,0,0,0,0,0,0,0,0,0,0,0,0,0,0,0,0,0,0,0,0,0,0,0,0,0,0,0,0,0,0,0,0,0,0,0,0,0,0,0,0,0,0,0,0,0,0,0,0,0,0],"split_type":[0,0,0,0,0,0,0,0,0,0,0,0,0,0,0,0,0,0,0,0,0,0,0,0,0,0,0,0,0,0,0,0,0,0,0,0,0,0,0,0,0,0,0,0,0,0,0,0,0,0,0,0,0,0,0,0,0,0,0,0,0,0,0,0,0,0,0,0,0,0,0,0,0,0,0,0,0,0,0,0,0,0,0,0,0,0,0,0,0,0,0,0,0,0,0,0,0,0,0,0,0,0,0,0,0,0,0,0,0,0,0,0,0,0,0,0,0,0,0,0,0,0,0,0,0],"sum_hessian":[2.3339068E4,5.504566E3,1.7834502E4,1.2930813E3,4.2114844E3,1.3055724E4,4.7787783E3,3.8010858E2,9.129728E2,7.895977E2,3.4218867E3,2.7854287E3,1.0270295E4,3.5773232E3,1.2014552E3,1.8589433E2,1.9421423E2,8.581369E1,8.2715906E2,3.765913E2,4.130064E2,2.1714875E3,1.2503994E3,6.418292E2,2.1435996E3,2.7867E3,7.483595E3,1.2804857E3,2.2968376E3,9.7301056E2,2.2844464E2,8.513276E1,1.0076158E2,1.1992466E2,7.428958E1,7.73936E1,8.42009E0,4.028788E2,4.2428027E2,2.7724854E2,9.934278E1,2.7264694E2,1.4035947E2,4.2527573E2,1.7462117E3,4.9816043E2,7.5223895E2,2.0540204E2,4.3642722E2,1.6248461E3,5.187534E2,1.8639376E3,9.2276227E2,5.7687886E3,1.7148066E3,2.5407642E2,1.0264093E3,6.132695E2,1.6835681E3,1.6218878E1,9.567917E2,9.3039375E1,1.3540527E2,5.8316303E1,2.6816454E1,9.647663E0,9.1113914E1,4.606318E1,7.386148E1,2.362216E1,5.066742E1,1.8233988E1,5.915961E1,5.139559E1,3.5148322E2,4.1159888E2,1.2681396E1,2.8066183E1,2.4918234E2,1.0225121E1,8.911766E1,1.881757E2,8.447123E1,1.3321178E2,7.1476836E0,4.1197212E1,3.8407852E2,5.811014E2,1.1651104E3,4.537995E2,4.4360947E1,7.0613293E2,4.610601E1,5.053587E1,1.5486617E2,6.9901795E0,4.29437E2,5.6930347E2,1.0555427E3,3.6024942E2,1.5850398E2,1.6107212E3,2.5321642E2,8.7620496E2,4.655733E1,8.630698E2,4.9057188E3,1.1151294E3,5.996772E2,9.415013E1,1.5992628E2,7.4496796E2,2.814413E2,1.3942827E2,4.7384116E2,9.554141E1,1.5880267E3,6.1368594E0,1.0082019E1,2.4554684E2,7.112449E2,4.3595192E1,4.9444183E1,1.0816988E2,2.7235382E1],"tree_param":{"num_deleted":"0","num_feature":"28","num_nodes":"125","size_leaf_vector":"1"}},{"base_weights":[2.0787133E-1,-1.6713619E-1,3.101717E-1,-4.7543636E-1,-8.48675E-2,5.9156257E-1,2.177993E-1,-5.583971E-2,-4.2360452E-1,1.4115782E-1,-1.6874497E-1,4.3114072E-1,6.896056E-1,2.6886934E-1,3.1505672E-3,-4.7792354E-1,-2.2931516E-1,2.7295512E-1,-2.1381362E-3,-6.939583E-2,-2.6179472E-1,5.005134E-1,1.8390143E-1,7.7561724E-1,4.9613032E-1,2.0950511E-1,4.3127915E-1,-2.2342664E-1,5.3045683E-2,-3.5716808E-1,-5.1078844E-1,-2.7046564E-1,4.525251E-2,5.534676E-1,2.2622277E-1,-1.7830181E-1,1.0673278E-1,2.0142758E-2,-2.3148951E-1,-2.0944141E-1,-4.4650632E-1,7.780546E-1,4.2857295E-1,7.8132816E-2,1.619264E-1,9.678051E-1,7.0286155E-1,6.762438E-1,3.9644352E-1,2.527629E-1,1.9195598E-2,5.6711E-1,3.3416232E-1,-3.075188E-1,-1.1581166E-1,-3.4581583E-2,1.7964098E-1,-3.4164555E-2,2.1216401E-3,-2.821802E-2,-4.5439973E-2,3.0300291E-2,-2.6263358E-2,3.043116E-2,7.685436E-2,7.343191E-3,2.7165992E-2,9.56543E-3,-2.5730724E-2,-1.3567596E-3,2.1422442E-2,7.790247E-2,6.6655123E-4,-2.4464237E-2,-6.26187E-4,-2.683538E-2,-1.1979436E-2,-3.3713173E-2,-5.518933E-2,5.5948757E-2,7.622166E-2,2.5749704E-2,4.211785E-2,1.911738E-2,-1.3475731E-2,6.5258846E-2,8.6720444E-2,5.3638693E-2,6.6579305E-2,3.126028E-2,6.255861E-2,3.8582288E-2,1.0430645E-2,3.5917956E-2,1.9063797E-2,-1.3771986E-3,2.479676E-2,6.1178185E-2,3.7370194E-2,3.9276678E-2,2.1065472E-2,-1.887484E-2,-3.966382E-2,-3.7533478E-3,-3.4619004E-2,-5.394135E-3,1.804127E-2,1.3568192E-2,5.213414E-2],"categories":[],"categories_nodes":[],"categories_segments":[],"categories_sizes":[],"default_left":[0,0,0,0,0,0,0,0,0,0,0,0,0,0,0,0,0,0,0,0,0,0,0,0,0,0,0,0,0,0,0,0,0,0,0,0,0,0,0,0,0,0,0,0,0,0,0,0,0,0,0,0,0,0,0,0,0,0,0,0,0,0,0,0,0,0,0,0,0,0,0,0,0,0,0,0,0,0,0,0,0,0,0,0,0,0,0,0,0,0,0,0,0,0,0,0,0,0,0,0,0,0,0,0,0,0,0,0,0],"id":6,"left_children":[1,3,5,7,9,11,13,-1,15,17,19,21,23,25,27,29,31,33,35,37,39,41,43,45,47,49,51,53,55,57,59,61,-1,63,65,67,69,71,73,75,77,79,81,-1,83,85,87,89,91,93,95,97,99,101,103,105,107,-1,-1,-1,-1,-1,-1,-1,-1,-1,-1,-1,-1,-1,-1,-1,-1,-1,-1,-1,-1,-1,-1,-1,-1,-1,-1,-1,-1,-1,-1,-1,-1,-1,-1,-1,-1,-1,-1,-1,-1,-1,-1,-1,-1,-1,-1,-1,-1,-1,-1,-1,-1],"loss_changes":[9.161752E2,1.297823E2,4.8764685E2,9.999893E0,7.660174E1,7.285327E1,1.548349E2,0E0,8.793335E0,2.0666143E1,2.7222816E1,3.012915E1,4.779944E1,1.0997394E2,3.0685858E1,2.538269E0,5.7268543E0,7.417637E0,1.0047985E1,2.0704151E1,1.4669785E1,2.7341309E1,6.1477947E0,2.7729126E1,1.5832993E1,6.877908E1,4.0227905E1,4.405575E0,2.4696472E1,2.3870106E0,2.0465393E0,4.1363935E0,0E0,5.468809E0,6.3220005E0,7.2207556E0,5.760953E0,1.0059645E1,6.3296947E0,8.588787E0,3.353218E0,3.8898926E0,9.037628E0,0E0,7.5103197E0,5.4379272E0,8.229553E0,5.618576E0,8.816666E0,3.320816E1,1.490914E1,2.4627075E1,1.9596558E1,3.6868095E0,4.4604053E0,9.312012E0,7.948553E0,0E0,0E0,0E0,0E0,0E0,0E0,0E0,0E0,0E0,0E0,0E0,0E0,0E0,0E0,0E0,0E0,0E0,0E0,0E0,0E0,0E0,0E0,0E0,0E0,0E0,0E0,0E0,0E0,0E0,0E0,0E0,0E0,0E0,0E0,0E0,0E0,0E0,0E0,0E0,0E0,0E0,0E0,0E0,0E0,0E0,0E0,0E0,0E0,0E0,0E0,0E0,0E0],"parents":[2147483647,0,0,1,1,2,2,3,3,4,4,5,5,6,6,8,8,9,9,10,10,11,11,12,12,13,13,14,14,15,15,16,16,17,17,18,18,19,19,20,20,21,21,22,22,23,23,24,24,25,25,26,26,27,27,28,28,29,29,30,30,31,31,33,33,34,34,35,35,36,36,37,37,38,38,39,39,40,40,41,41,42,42,44,44,45,45,46,46,47,47,48,48,49,49,50,50,51,51,52,52,53,53,54,54,55,55,56,56],"right_children":[2,4,6,8,10,12,14,-1,16,18,20,22,24,26,28,30,32,34,36,38,40,42,44,46,48,50,52,54,56,58,60,62,-1,64,66,68,70,72,74,76,78,80,82,-1,84,86,88,90,92,94,96,98,100,102,104,106,108,-1,-1,-1,-1,-1,-1,-1,-1,-1,-1,-1,-1,-1,-1,-1,-1,-1,-1,-1,-1,-1,-1,-1,-1,-1,-1,-1,-1,-1,-1,-1,-1,-1,-1,-1,-1,-1,-1,-1,-1,-1,-1,-1,-1,-1,-1,-1,-1,-1,-1,-1,-1],"split_conditions":[-5.0498855E-1,-1.2748206E0,-7.6837224E-1,-1.6597366E0,-4.9293536E-1,2.6484355E-1,5.2926666E-1,-5.583971E-2,3.14966E-1,3.7114378E-2,-3.453825E-1,8.0210817E-1,1.184605E0,6.497596E-1,-1.6742936E0,-5.338976E-1,1.5403641E0,-1.059517E0,-8.899045E-1,7.4638176E-1,8.7274027E-1,-1.5908835E0,-4.6515055E0,-1.5908835E0,-1.4973722E0,4.1961128E-1,-2.7108783E-1,4.821093E-1,2.6484355E-1,1.0681639E0,-1.4928732E0,-1.5851365E0,4.525251E-2,1.1441693E0,-8.899045E-1,-1.2524564E0,1.4971465E-1,-1.8479462E0,7.17415E-1,-8.899045E-1,2.1597948E0,2.180472E0,9.141842E-1,7.8132816E-2,2.3320959E0,6.497596E-1,1.0346757E0,-7.572264E-1,2.7145927E0,-2.7108783E-1,1.3303459E0,4.1961128E-1,3.7114378E-2,5.173414E-1,2.6198192E0,9.165459E-1,2.5743399E0,-3.4164555E-2,2.1216401E-3,-2.821802E-2,-4.5439973E-2,3.0300291E-2,-2.6263358E-2,3.043116E-2,7.685436E-2,7.343191E-3,2.7165992E-2,9.56543E-3,-2.5730724E-2,-1.3567596E-3,2.1422442E-2,7.790247E-2,6.6655123E-4,-2.4464237E-2,-6.26187E-4,-2.683538E-2,-1.1979436E-2,-3.3713173E-2,-5.518933E-2,5.5948757E-2,7.622166E-2,2.5749704E-2,4.211785E-2,1.911738E-2,-1.3475731E-2,6.5258846E-2,8.6720444E-2,5.3638693E-2,6.6579305E-2,3.126028E-2,6.255861E-2,3.8582288E-2,1.0430645E-2,3.5917956E-2,1.9063797E-2,-1.3771986E-3,2.479676E-2,6.1178185E-2,3.7370194E-2,3.9276678E-2,2.1065472E-2,-1.887484E-2,-3.966382E-2,-3.7533478E-3,-3.4619004E-2,-5.394135E-3,1.804127E-2,1.3568192E-2,5.213414E-2],"split_indices":[2,2,24,2,24,2,24,0,22,4,4,4,4,2,22,1,13,1,2,24,24,24,23,24,23,4,1,5,2,26,4,1,0,22,2,24,18,1,23,2,24,22,22,0,4,2,2,26,4,1,5,4,4,1,1,23,2,0,0,0,0,0,0,0,0,0,0,0,0,0,0,0,0,0,0,0,0,0,0,0,0,0,0,0,0,0,0,0,0,0,0,0,0,0,0,0,0,0,0,0,0,0,0,0,0,0,0,0,0],"split_type":[0,0,0,0,0,0,0,0,0,0,0,0,0,0,0,0,0,0,0,0,0,0,0,0,0,0,0,0,0,0,0,0,0,0,0,0,0,0,0,0,0,0,0,0,0,0,0,0,0,0,0,0,0,0,0,0,0,0,0,0,0,0,0,0,0,0,0,0,0,0,0,0,0,0,0,0,0,0,0,0,0,0,0,0,0,0,0,0,0,0,0,0,0,0,0,0,0,0,0,0,0,0,0,0,0,0,0,0,0],"sum_hessian":[2.3881188E4,5.1182705E3,1.8762916E4,1.0779166E3,4.040354E3,4.6368906E3,1.4126025E4,2.4033578E2,8.375808E2,1.0933488E3,2.9470054E3,1.7592008E3,2.8776897E3,1.1410826E4,2.7151992E3,6.54296E2,1.8328476E2,5.697332E2,5.236156E2,1.425601E3,1.5214043E3,1.3735264E3,3.8567435E2,1.9918049E3,8.858848E2,8.356714E3,3.054112E3,4.8977377E2,2.2254255E3,1.4045055E2,5.138455E2,1.7397343E2,9.311327E0,8.112823E1,4.8860498E2,2.0020586E2,3.2340973E2,9.181015E2,5.0749942E2,1.1857253E3,3.3567892E2,2.8250412E2,1.0910223E3,1.11002655E1,3.745741E2,5.466353E2,1.4451696E3,3.15342E2,5.7054285E2,6.8087407E3,1.5479738E3,1.2729492E3,1.781163E3,2.7458505E2,2.151887E2,1.3148474E3,9.1057806E2,1.2607789E2,1.4372653E1,5.835361E1,4.5549188E2,9.8341875E0,1.6413925E2,5.209555E1,2.9032673E1,1.9505998E2,2.93545E2,5.9680374E1,1.4052548E2,1.7489359E2,1.4851614E2,1.2368957E1,9.0573254E2,4.0611108E2,1.01388336E2,4.669639E2,7.187615E2,2.6864102E2,6.703791E1,1.3923824E2,1.4326588E2,3.7516458E2,7.158577E2,3.13503E2,6.107109E1,1.1004497E2,4.3659036E2,7.518236E2,6.93346E2,5.0307682E1,2.6503433E2,4.7259064E2,9.7952194E1,9.934929E2,5.8152476E3,1.3696766E3,1.782971E2,5.8368536E2,6.892638E2,7.2245233E2,1.0587106E3,1.7830516E2,9.62799E1,1.7279716E2,4.2391544E1,1.1776682E3,1.3717915E2,8.699263E2,4.0651833E1],"tree_param":{"num_deleted":"0","num_feature":"28","num_nodes":"109","size_leaf_vector":"1"}},{"base_weights":[-1.3500315E-1,-3.1069377E-1,-1.1880279E-1,-2.5254628E-1,-4.0190974E-1,-9.4820954E-2,-2.0107007E-1,-3.0524725E-1,-1.893687E-1,-3.7414652E-1,-5.549344E-1,-2.7214698E-2,-1.2474052E-1,-3.2345414E-1,-1.6861552E-1,-2.8676194E-1,-4.9652565E-1,-6.2641576E-2,-2.2902676E-1,-4.4543323E-1,-3.026313E-1,-4.1137137E-2,-6.098427E-2,7.5522184E-2,-1.02681495E-1,-2.0772384E-1,-1.0597877E-1,-4.972951E-1,-3.0408326E-1,-2.4868271E-1,-1.3592711E-1,-2.999016E-1,6.0189005E-2,-5.592373E-1,-1.1412024E-2,7.8672014E-2,-1.8813889E-1,-3.3212197E-1,-1.4424637E-1,-2.2857514E-5,-4.6115232E-1,1.0091046E-1,-3.3881125E-1,1.7924985E-1,4.4951927E-2,-3.582177E-1,-8.82992E-2,-1.7172055E-1,-2.9608628E-1,-9.195845E-2,-1.5048897E-1,-4.8180174E-2,-2.012722E-1,-2.7025345E-1,-4.1093865E-1,-1.9354336E-1,-3.313378E-1,-1.2319939E-1,-2.3182014E-1,-2.44226E-2,-4.5275655E-2,2.270614E-2,-3.483939E-2,-2.8967522E-2,-6.1630644E-2,2.1078408E-2,-2.8628968E-2,-1.0808816E-2,-6.15811E-2,-3.3474393E-2,1.3525021E-3,-1.4193917E-2,5.000619E-2,-4.7272433E-2,-3.4110505E-2,-1.135173E-2,4.4365555E-2,-1.2866848E-2,-3.1856764E-2,3.087593E-2,8.517983E-3,4.802193E-3,-1.9496158E-2,-3.3706907E-2,1.9386586E-2,-4.726226E-3,-1.2621731E-2,5.1109884E-2,-1.5054917E-2,-2.7364057E-2,-6.0787164E-3,-8.144457E-3,1.5087689E-2,-1.7969385E-2,-7.5008865E-3,2.841619E-2,-4.1223772E-2,-9.879845E-3,-2.548342E-2,-4.3301485E-2,-2.5690729E-2,-3.6587464E-3,-1.9217687E-2,-3.0336717E-2,-3.5938523E-3,-1.0247398E-2,-5.013654E-2,-1.0117545E-2,-2.957501E-2],"categories":[],"categories_nodes":[],"categories_segments":[],"categories_sizes":[],"default_left":[0,0,0,0,0,0,0,0,0,0,0,0,0,0,0,0,0,0,0,0,0,0,0,0,0,0,0,0,0,0,0,0,0,0,0,0,0,0,0,0,0,0,0,0,0,0,0,0,0,0,0,0,0,0,0,0,0,0,0,0,0,0,0,0,0,0,0,0,0,0,0,0,0,0,0,0,0,0,0,0,0,0,0,0,0,0,0,0,0,0,0,0,0,0,0,0,0,0,0,0,0,0,0,0,0,0,0,0,0],"id":7,"left_children":[1,3,5,7,9,11,13,15,17,19,21,23,25,27,29,31,33,35,37,39,41,-1,-1,43,45,47,49,51,53,55,57,59,61,63,-1,65,67,69,71,-1,73,75,77,79,81,83,85,87,89,91,93,-1,95,97,99,101,103,105,107,-1,-1,-1,-1,-1,-1,-1,-1,-1,-1,-1,-1,-1,-1,-1,-1,-1,-1,-1,-1,-1,-1,-1,-1,-1,-1,-1,-1,-1,-1,-1,-1,-1,-1,-1,-1,-1,-1,-1,-1,-1,-1,-1,-1,-1,-1,-1,-1,-1,-1],"loss_changes":[6.59108E1,1.0328903E1,4.1829315E1,3.9458542E0,3.169365E0,3.3212555E1,1.8982056E1,2.2489624E0,2.7155209E0,3.235527E0,1.2651749E0,3.907325E1,1.7705353E1,3.323906E0,9.879562E0,2.722206E0,1.2516184E0,2.3136845E0,3.5873318E0,2.2266235E0,4.7198925E0,0E0,0E0,6.752221E0,1.0650492E1,6.6466293E0,5.779747E0,1.981327E0,3.2185516E0,4.9631653E0,3.2577744E0,1.6830597E0,2.0799253E0,1.673913E0,0E0,4.2680607E0,2.2089183E0,3.9796257E0,3.7113004E0,0E0,1.7063065E0,2.6228368E0,1.9261589E0,7.0183477E0,5.1562843E0,3.419567E0,5.3939457E0,5.8201027E0,3.4206543E0,6.999359E0,8.379375E0,0E0,2.895048E0,3.0435257E0,2.2544785E0,3.1683884E0,3.132515E0,3.1157722E0,4.07267E0,0E0,0E0,0E0,0E0,0E0,0E0,0E0,0E0,0E0,0E0,0E0,0E0,0E0,0E0,0E0,0E0,0E0,0E0,0E0,0E0,0E0,0E0,0E0,0E0,0E0,0E0,0E0,0E0,0E0,0E0,0E0,0E0,0E0,0E0,0E0,0E0,0E0,0E0,0E0,0E0,0E0,0E0,0E0,0E0,0E0,0E0,0E0,0E0,0E0,0E0],"parents":[2147483647,0,0,1,1,2,2,3,3,4,4,5,5,6,6,7,7,8,8,9,9,10,10,11,11,12,12,13,13,14,14,15,15,16,16,17,17,18,18,19,19,20,20,23,23,24,24,25,25,26,26,27,27,28,28,29,29,30,30,31,31,32,32,33,33,35,35,36,36,37,37,38,38,40,40,41,41,42,42,43,43,44,44,45,45,46,46,47,47,48,48,49,49,50,50,52,52,53,53,54,54,55,55,56,56,57,57,58,58],"right_children":[2,4,6,8,10,12,14,16,18,20,22,24,26,28,30,32,34,36,38,40,42,-1,-1,44,46,48,50,52,54,56,58,60,62,64,-1,66,68,70,72,-1,74,76,78,80,82,84,86,88,90,92,94,-1,96,98,100,102,104,106,108,-1,-1,-1,-1,-1,-1,-1,-1,-1,-1,-1,-1,-1,-1,-1,-1,-1,-1,-1,-1,-1,-1,-1,-1,-1,-1,-1,-1,-1,-1,-1,-1,-1,-1,-1,-1,-1,-1,-1,-1,-1,-1,-1,-1,-1,-1,-1,-1,-1,-1],"split_conditions":[-1.1205047E0,6.497596E-1,6.497596E-1,6.0270584E-1,3.0746617E0,-1.1795597E-1,-5.623895E-1,2.1042118E0,-7.9024553E-1,2.5260326E-1,-3.6612722E-1,-5.0498855E-1,-7.124537E-1,-1.4512566E0,2.1144786E-1,2.5006135E0,1.0225188E0,7.2877336E-1,-2.2164445E0,-4.035008E0,-2.0730726E-1,-4.1137137E-2,-6.098427E-2,-1.2748206E0,-1.4512566E0,1.2153447E0,7.709111E-1,5.116669E-1,1.8045077E0,1.4195918E0,1.208904E0,2.66612E0,1.627559E-1,-1.6553088E0,-1.1412024E-2,-5.338976E-1,9.522456E-1,3.010972E0,1.8613116E0,-2.2857514E-5,-5.623895E-1,1.2495106E0,-1.2143637E0,-1.0068231E0,2.1785824E0,1.2816283E0,3.7006295E-1,-1.8641564E0,2.6027007E0,1.2640359E0,4.821093E-1,-4.8180174E-2,-5.780411E-1,-1.2143637E0,-1.0946325E-2,-2.3567064E-1,8.863451E-1,2.1112883E0,6.9862425E-2,-2.44226E-2,-4.5275655E-2,2.270614E-2,-3.483939E-2,-2.8967522E-2,-6.1630644E-2,2.1078408E-2,-2.8628968E-2,-1.0808816E-2,-6.15811E-2,-3.3474393E-2,1.3525021E-3,-1.4193917E-2,5.000619E-2,-4.7272433E-2,-3.4110505E-2,-1.135173E-2,4.4365555E-2,-1.2866848E-2,-3.1856764E-2,3.087593E-2,8.517983E-3,4.802193E-3,-1.9496158E-2,-3.3706907E-2,1.9386586E-2,-4.726226E-3,-1.2621731E-2,5.1109884E-2,-1.5054917E-2,-2.7364057E-2,-6.0787164E-3,-8.144457E-3,1.5087689E-2,-1.7969385E-2,-7.5008865E-3,2.841619E-2,-4.1223772E-2,-9.879845E-3,-2.548342E-2,-4.3301485E-2,-2.5690729E-2,-3.6587464E-3,-1.9217687E-2,-3.0336717E-2,-3.5938523E-3,-1.0247398E-2,-5.013654E-2,-1.0117545E-2,-2.957501E-2],"split_indices":[23,2,2,6,22,3,3,3,5,18,5,2,22,3,18,13,10,27,23,23,19,0,0,2,3,3,3,23,2,2,11,22,10,25,0,1,18,12,10,0,3,12,5,3,5,27,22,13,5,23,5,0,25,5,23,10,23,19,22,0,0,0,0,0,0,0,0,0,0,0,0,0,0,0,0,0,0,0,0,0,0,0,0,0,0,0,0,0,0,0,0,0,0,0,0,0,0,0,0,0,0,0,0,0,0,0,0,0,0],"split_type":[0,0,0,0,0,0,0,0,0,0,0,0,0,0,0,0,0,0,0,0,0,0,0,0,0,0,0,0,0,0,0,0,0,0,0,0,0,0,0,0,0,0,0,0,0,0,0,0,0,0,0,0,0,0,0,0,0,0,0,0,0,0,0,0,0,0,0,0,0,0,0,0,0,0,0,0,0,0,0,0,0,0,0,0,0,0,0,0,0,0,0,0,0,0,0,0,0,0,0,0,0,0,0,0,0,0,0,0,0],"sum_hessian":[2.3166621E4,1.9554738E3,2.1211148E4,1.1946818E3,7.6079193E2,1.6424135E4,4.787012E3,6.50757E2,5.439248E2,6.443833E2,1.1640859E2,5.03934E3,1.1384795E4,1.00291876E3,3.7840935E3,5.937685E2,5.6988537E1,1.3003069E2,4.138941E2,3.2220142E2,3.2218192E2,8.086821E1,3.5540382E1,2.1337478E3,2.9055923E3,2.098695E3,9.286101E3,1.0015998E2,9.027588E2,1.0964286E3,2.6876648E3,5.7227563E2,2.149285E1,4.842636E1,8.562175E0,6.093734E1,6.9093346E1,1.8640858E2,2.2748552E2,1.1122821E1,3.1107858E2,2.6365467E1,2.9581644E2,4.8521722E2,1.6485305E3,1.545568E2,2.7510354E3,1.4916864E3,6.070086E2,7.062834E3,2.223266E3,8.114852E1,1.9011461E1,6.861914E2,2.1656738E2,6.5818866E2,4.3823993E2,2.3733582E3,3.1430652E2,5.419764E2,3.0299244E1,1.5025936E1,6.4669127E0,2.0968048E1,2.7458313E1,4.342293E1,1.7514406E1,6.2135944E1,6.9574065E0,1.5876169E2,2.764689E1,2.208187E2,6.6668315E0,1.2143686E2,1.8964174E2,1.684715E1,9.518316E0,4.711519E1,2.4870126E2,1.4613832E2,3.3907892E2,1.5826642E3,6.586628E1,1.4534E2,9.216799E0,1.7786093E3,9.724263E2,9.640068E0,1.4820463E3,5.45414E2,6.1594574E1,6.9676924E3,9.5141785E1,1.1280306E3,1.0952356E3,6.498366E0,1.2513096E1,1.08981224E2,5.7721014E2,1.14046104E2,1.0252128E2,1.1611064E2,5.4207806E2,4.0326996E2,3.496996E1,2.3590308E3,1.4327437E1,1.5915842E2,1.551481E2],"tree_param":{"num_deleted":"0","num_feature":"28","num_nodes":"109","size_leaf_vector":"1"}},{"base_weights":[-7.921345E-2,-2.0983152E-1,1.8010606E-1,-4.4596487E-1,-1.1477509E-1,5.947295E-1,3.0694205E-2,-1.356702E-1,-5.090997E-1,3.3961743E-1,-1.5871829E-1,7.3902094E-1,4.2850864E-1,1.3705088E-1,-1.6638848E-1,-3.6037186E-1,5.8968756E-2,-5.947062E-1,-4.4359908E-1,4.2881465E-1,8.595826E-2,-2.0230804E-1,1.5005547E-1,7.94228E-1,3.8320553E-1,5.0307643E-1,1.8690485E-1,5.5612136E-2,3.3515745E-1,1.2894227E-2,-2.4759552E-1,1.2217867E-1,-4.1771767E-1,2.4111316E-1,-1.07157566E-1,-5.9286073E-2,-5.636156E-1,-2.3055221E-1,-4.8238468E-1,2.837541E-1,5.6621146E-1,-1.877954E-1,1.7360505E-1,-1.4056514E-1,-3.763593E-1,2.3153046E-1,-1.6347136E-1,6.7550015E-1,9.679528E-1,-7.1206644E-2,4.519165E-1,2.5960144E-1,5.7883376E-1,8.111493E-2,5.664169E-1,2.2088483E-1,-7.1960494E-2,2.8520292E-1,7.482266E-1,3.4601647E-1,-4.5875367E-2,-3.614459E-1,-1.5238121E-1,-4.7763947E-2,3.9068405E-2,-5.414141E-2,-2.9538449E-2,-6.538778E-3,3.1061944E-2,6.809853E-3,-1.9183416E-2,-4.2867526E-2,-5.3423233E-2,-1.5980482E-2,-4.6854768E-2,-4.9020976E-2,-3.6517873E-2,4.14407E-2,1.5027196E-2,7.99106E-2,4.445089E-2,-5.2117392E-2,-3.2428366E-3,2.4496885E-2,-1.3791881E-2,-2.61693E-2,-9.938826E-3,-3.877647E-2,-2.721018E-2,1.065372E-2,3.4482595E-2,-3.4490395E-3,-3.1499956E-2,6.789707E-2,4.1201968E-2,8.636073E-2,3.7215736E-2,2.80089E-2,-4.4101942E-2,2.476355E-2,6.2100876E-2,3.5756897E-2,6.399528E-3,4.1297127E-2,6.1084837E-2,2.3017894E-2,-1.7485532E-3,7.233432E-2,2.2755403E-2,2.832572E-2,8.113985E-3,3.0921788E-3,-1.9509079E-2,3.8632944E-2,1.3600031E-2,7.4468255E-2,3.4575056E-2,4.1717328E-2,3.6478962E-3,-1.0975038E-2,8.815019E-3,-2.4213338E-2,-3.8402893E-2,1.5686685E-3,-1.8706126E-2],"categories":[],"categories_nodes":[],"categories_segments":[],"categories_sizes":[],"default_left":[0,0,0,0,0,0,0,0,0,0,0,0,0,0,0,0,0,0,0,0,0,0,0,0,0,0,0,0,0,0,0,0,0,0,0,0,0,0,0,0,0,0,0,0,0,0,0,0,0,0,0,0,0,0,0,0,0,0,0,0,0,0,0,0,0,0,0,0,0,0,0,0,0,0,0,0,0,0,0,0,0,0,0,0,0,0,0,0,0,0,0,0,0,0,0,0,0,0,0,0,0,0,0,0,0,0,0,0,0,0,0,0,0,0,0,0,0,0,0,0,0,0,0,0,0],"id":8,"left_children":[1,3,5,7,9,11,13,15,17,19,21,23,25,27,29,31,33,35,37,39,41,43,45,47,49,51,53,55,57,59,61,63,65,67,69,-1,71,73,75,77,79,81,83,85,87,89,91,93,95,97,99,101,103,105,107,109,111,113,115,117,119,121,123,-1,-1,-1,-1,-1,-1,-1,-1,-1,-1,-1,-1,-1,-1,-1,-1,-1,-1,-1,-1,-1,-1,-1,-1,-1,-1,-1,-1,-1,-1,-1,-1,-1,-1,-1,-1,-1,-1,-1,-1,-1,-1,-1,-1,-1,-1,-1,-1,-1,-1,-1,-1,-1,-1,-1,-1,-1,-1,-1,-1,-1,-1],"loss_changes":[7.8819995E2,3.4732428E2,4.8283716E2,8.696869E1,2.2031017E2,4.9438904E1,1.201058E2,3.286949E1,2.0621643E1,2.1979027E1,1.3542029E2,2.1625183E1,1.7244812E1,6.0021904E1,2.9251862E1,9.671181E0,1.2183952E1,4.958313E0,1.7233215E1,1.4284988E1,6.078003E0,9.471448E1,3.1794779E1,1.9607056E1,4.6648216E0,1.3467194E1,9.055973E0,5.5626102E1,2.2299316E1,1.22712755E1,1.4952255E1,8.498942E0,4.7511024E0,7.5704784E0,4.65728E0,0E0,4.6228943E0,4.3717575E0,8.766449E0,7.582205E0,5.97316E0,3.851601E0,7.3609266E0,2.5856766E1,1.0311035E1,1.8197987E1,6.4872894E0,1.3183502E1,9.416962E0,3.489504E0,5.705742E0,5.1203823E0,7.183182E0,3.4260755E0,4.0964212E0,1.6105133E1,2.5337814E1,2.041092E1,4.958557E0,4.067894E0,6.5974555E0,4.2950287E0,8.668709E0,0E0,0E0,0E0,0E0,0E0,0E0,0E0,0E0,0E0,0E0,0E0,0E0,0E0,0E0,0E0,0E0,0E0,0E0,0E0,0E0,0E0,0E0,0E0,0E0,0E0,0E0,0E0,0E0,0E0,0E0,0E0,0E0,0E0,0E0,0E0,0E0,0E0,0E0,0E0,0E0,0E0,0E0,0E0,0E0,0E0,0E0,0E0,0E0,0E0,0E0,0E0,0E0,0E0,0E0,0E0,0E0,0E0,0E0,0E0,0E0,0E0,0E0],"parents":[2147483647,0,0,1,1,2,2,3,3,4,4,5,5,6,6,7,7,8,8,9,9,10,10,11,11,12,12,13,13,14,14,15,15,16,16,17,17,18,18,19,19,20,20,21,21,22,22,23,23,24,24,25,25,26,26,27,27,28,28,29,29,30,30,31,31,32,32,33,33,34,34,36,36,37,37,38,38,39,39,40,40,41,41,42,42,43,43,44,44,45,45,46,46,47,47,48,48,49,49,50,50,51,51,52,52,53,53,54,54,55,55,56,56,57,57,58,58,59,59,60,60,61,61,62,62],"right_children":[2,4,6,8,10,12,14,16,18,20,22,24,26,28,30,32,34,36,38,40,42,44,46,48,50,52,54,56,58,60,62,64,66,68,70,-1,72,74,76,78,80,82,84,86,88,90,92,94,96,98,100,102,104,106,108,110,112,114,116,118,120,122,124,-1,-1,-1,-1,-1,-1,-1,-1,-1,-1,-1,-1,-1,-1,-1,-1,-1,-1,-1,-1,-1,-1,-1,-1,-1,-1,-1,-1,-1,-1,-1,-1,-1,-1,-1,-1,-1,-1,-1,-1,-1,-1,-1,-1,-1,-1,-1,-1,-1,-1,-1,-1,-1,-1,-1,-1,-1,-1,-1,-1,-1,-1],"split_conditions":[3.264776E-1,-5.623895E-1,-5.0498855E-1,-8.899045E-1,-8.899045E-1,-8.899045E-1,2.4092714E-1,-1.0068231E0,-1.0068231E0,9.0622765E-1,5.837544E-1,8.1282043E-1,1.3303459E0,1.6597781E0,2.6484355E-1,-1.6597366E0,-1.7351878E-1,-1.4512566E0,-5.0498855E-1,1.2643361E-1,-2.4496062E-1,2.6484355E-1,2.6484355E-1,1.2153447E0,-1.0667039E0,-4.0433446E-1,2.1042118E0,2.6484355E-1,1.9579669E0,-7.9024553E-1,-1.0097706E0,-1.4512566E0,-1.4512566E0,3.01644E-1,-1.2748206E0,-5.9286073E-2,2.6484355E-1,1.3303459E0,-7.91678E-1,-1.2748206E0,-1.6597366E0,-3.5831672E-1,1.3057705E0,-9.387328E-1,-7.1285087E-1,1.4031624E0,2.5453162E-1,-3.9575762E-1,2.6027007E0,5.4448825E-1,8.091453E-1,1.13981366E-1,1.2153447E0,-7.278839E-1,-1.5785567E-1,4.821093E-1,4.821093E-1,4.821093E-1,2.1516705E0,2.9877496E-1,1.2153447E0,5.7991058E-2,-3.6612722E-1,-4.7763947E-2,3.9068405E-2,-5.414141E-2,-2.9538449E-2,-6.538778E-3,3.1061944E-2,6.809853E-3,-1.9183416E-2,-4.2867526E-2,-5.3423233E-2,-1.5980482E-2,-4.6854768E-2,-4.9020976E-2,-3.6517873E-2,4.14407E-2,1.5027196E-2,7.99106E-2,4.445089E-2,-5.2117392E-2,-3.2428366E-3,2.4496885E-2,-1.3791881E-2,-2.61693E-2,-9.938826E-3,-3.877647E-2,-2.721018E-2,1.065372E-2,3.4482595E-2,-3.4490395E-3,-3.1499956E-2,6.789707E-2,4.1201968E-2,8.636073E-2,3.7215736E-2,2.80089E-2,-4.4101942E-2,2.476355E-2,6.2100876E-2,3.5756897E-2,6.399528E-3,4.1297127E-2,6.1084837E-2,2.3017894E-2,-1.7485532E-3,7.233432E-2,2.2755403E-2,2.832572E-2,8.113985E-3,3.0921788E-3,-1.9509079E-2,3.8632944E-2,1.3600031E-2,7.4468255E-2,3.4575056E-2,4.1717328E-2,3.6478962E-3,-1.0975038E-2,8.815019E-3,-2.4213338E-2,-3.8402893E-2,1.5686685E-3,-1.8706126E-2],"split_indices":[3,3,2,2,2,2,22,3,3,5,24,10,5,3,2,2,22,3,2,24,24,2,2,3,24,24,3,2,24,5,24,3,3,17,2,0,2,5,24,2,2,8,1,24,24,24,1,22,5,27,12,14,3,22,21,5,5,5,15,27,3,5,5,0,0,0,0,0,0,0,0,0,0,0,0,0,0,0,0,0,0,0,0,0,0,0,0,0,0,0,0,0,0,0,0,0,0,0,0,0,0,0,0,0,0,0,0,0,0,0,0,0,0,0,0,0,0,0,0,0,0,0,0,0,0],"split_type":[0,0,0,0,0,0,0,0,0,0,0,0,0,0,0,0,0,0,0,0,0,0,0,0,0,0,0,0,0,0,0,0,0,0,0,0,0,0,0,0,0,0,0,0,0,0,0,0,0,0,0,0,0,0,0,0,0,0,0,0,0,0,0,0,0,0,0,0,0,0,0,0,0,0,0,0,0,0,0,0,0,0,0,0,0,0,0,0,0,0,0,0,0,0,0,0,0,0,0,0,0,0,0,0,0,0,0,0,0,0,0,0,0,0,0,0,0,0,0,0,0,0,0,0,0],"sum_hessian":[2.3269963E4,1.5475344E4,7.79462E3,4.4414395E3,1.1033904E4,2.064648E3,5.729972E3,7.5108295E2,3.6903567E3,9.7282825E2,1.0061075E4,1.1049785E3,9.596694E2,3.721802E3,2.0081703E3,3.4875287E2,4.023301E2,1.5991561E3,2.0912004E3,7.195446E2,2.5328362E2,8.816635E3,1.2444409E3,9.5638135E2,1.4859717E2,7.331173E2,2.2655206E2,2.6377908E3,1.0840112E3,6.258152E2,1.3823551E3,3.692644E1,3.1182642E2,1.9208202E2,2.102481E2,3.7434296E2,1.2248132E3,3.2234775E2,1.7688528E3,3.5027158E2,3.6927304E2,6.12489E1,1.9203471E2,6.50829E3,2.3083447E3,9.879174E2,2.5652344E2,5.684117E2,3.879697E2,1.9400856E1,1.291963E2,1.7419946E2,5.5891785E2,1.7732062E2,4.9231438E1,1.149304E3,1.4884868E3,9.672366E2,1.1677462E2,9.398392E1,5.318313E2,6.2923553E2,7.531195E2,1.2123335E1,2.4803106E1,7.618469E1,2.3564172E2,5.3656853E1,1.3842517E2,8.1161644E1,1.2908644E2,6.305348E2,5.942784E2,2.8442712E2,3.7920605E1,6.4452344E2,1.1243293E3,1.2091751E2,2.2935408E2,3.8994873E1,3.3027817E2,1.5846241E1,4.540266E1,1.4345604E2,4.8578674E1,8.140373E2,5.694253E3,9.6513055E2,1.3432141E3,6.1245905E2,3.7545837E2,1.609718E2,9.555162E1,3.472473E2,2.2116437E2,3.5677512E2,3.119458E1,1.0165842E1,9.235014E0,8.190204E1,4.7294266E1,9.300256E1,8.11969E1,3.3348303E2,2.2543481E2,6.2166622E1,1.15154E2,2.5166098E1,2.4065342E1,6.078921E2,5.4141187E2,8.8105646E2,6.0743036E2,4.126649E2,5.5457166E2,8.51339E1,3.1640717E1,6.358672E1,3.0397194E1,3.421397E2,1.8969159E2,3.3852155E2,2.90714E2,2.1259872E2,5.405208E2],"tree_param":{"num_deleted":"0","num_feature":"28","num_nodes":"125","size_leaf_vector":"1"}},{"base_weights":[1.939873E-1,5.217474E-1,1.1231312E-1,7.4994653E-1,4.3320033E-1,-1.5928574E-1,1.9744152E-1,7.875242E-1,3.6833742E-1,7.6408845E-1,3.9810753E-1,-7.495016E-2,-2.874805E-1,4.2766988E-1,1.4513576E-1,8.881504E-1,6.9966954E-1,5.358079E-1,2.2477464E-1,7.904971E-1,3.1842497E-1,4.4189703E-1,1.9617778E-1,-1.0477481E-1,2.1019906E-1,-2.335007E-1,-4.748383E-1,3.6814055E-1,7.073243E-1,2.1268943E-1,2.135494E-2,9.3294615E-1,7.535553E-1,9.5858043E-1,6.585487E-1,1.61845E-2,6.3816315E-1,-2.942833E-1,3.641948E-1,5.557312E-1,8.357457E-1,-6.481432E-3,5.490107E-2,5.819454E-1,3.747195E-1,1.0901776E-1,3.4729418E-1,-2.7808914E-1,-5.8615603E-2,2.8544208E-1,7.644999E-3,-3.3798563E-1,-1.4512292E-1,-5.283857E-1,-3.4995815E-1,4.5436528E-1,1.7400888E-1,7.818615E-1,5.3889066E-1,2.71278E-1,1.6331068E-1,8.723641E-2,-8.8714145E-2,9.416332E-2,7.7203095E-2,5.6035634E-2,9.43852E-2,5.6967184E-2,8.892877E-2,6.445292E-2,5.0116006E-2,7.491355E-2,3.1359095E-2,6.7048585E-3,-5.560431E-2,-2.738339E-2,4.0071953E-2,5.6311585E-2,-1.3626884E-2,4.2732824E-2,7.389885E-2,4.2257052E-2,5.7507288E-2,4.114443E-2,2.6765672E-2,2.509432E-2,3.621165E-3,3.1844374E-2,-3.702777E-2,-2.5187396E-2,3.6919925E-2,-3.1988516E-3,-2.195511E-2,3.896974E-2,5.465813E-3,-2.0076176E-2,1.861704E-2,-3.0550562E-2,1.2197789E-2,-2.1176266E-2,-8.7601235E-3,-4.6359837E-2,3.1720437E-3,-5.4506217E-3,-3.672165E-2,5.2801553E-2,3.444954E-2,-2.8105656E-2,1.6100397E-2,5.8307093E-2,7.623481E-2,3.290979E-2,6.3679665E-2,2.7679542E-2,1.482114E-2,1.14059895E-2,2.2562092E-2,1.9645479E-2,3.5332313E-3,-1.0533274E-2,8.185415E-3],"categories":[],"categories_nodes":[],"categories_segments":[],"categories_sizes":[],"default_left":[0,0,0,0,0,0,0,0,0,0,0,0,0,0,0,0,0,0,0,0,0,0,0,0,0,0,0,0,0,0,0,0,0,0,0,0,0,0,0,0,0,0,0,0,0,0,0,0,0,0,0,0,0,0,0,0,0,0,0,0,0,0,0,0,0,0,0,0,0,0,0,0,0,0,0,0,0,0,0,0,0,0,0,0,0,0,0,0,0,0,0,0,0,0,0,0,0,0,0,0,0,0,0,0,0,0,0,0,0,0,0,0,0,0,0,0,0,0,0,0,0],"id":9,"left_children":[1,3,5,7,9,11,13,15,17,19,21,23,25,27,29,31,33,35,37,39,41,43,45,47,49,51,53,55,57,59,61,63,65,67,69,-1,71,73,75,77,79,-1,-1,81,83,85,87,89,91,93,95,97,99,101,103,105,107,109,111,113,115,117,119,-1,-1,-1,-1,-1,-1,-1,-1,-1,-1,-1,-1,-1,-1,-1,-1,-1,-1,-1,-1,-1,-1,-1,-1,-1,-1,-1,-1,-1,-1,-1,-1,-1,-1,-1,-1,-1,-1,-1,-1,-1,-1,-1,-1,-1,-1,-1,-1,-1,-1,-1,-1,-1,-1,-1,-1,-1,-1],"loss_changes":[6.440782E2,9.690198E1,4.4535532E2,1.9158081E1,4.007556E1,4.967141E1,1.7656964E2,1.0679565E1,2.8461227E0,3.825058E0,2.7606903E1,2.3575779E1,1.8397034E1,4.5121704E1,9.991603E1,3.3051758E0,6.828064E0,1.9057226E0,4.7191415E0,3.2229462E0,2.4459205E0,2.4107391E1,7.3143654E0,2.0063046E1,3.9808035E0,1.3045242E1,2.6665344E0,3.7430817E1,5.885956E0,2.2338287E1,3.0599777E1,1.7867432E0,4.7003784E0,2.087906E0,3.7831726E0,0E0,2.6905575E0,1.8709071E0,3.765534E0,3.8746548E0,2.7081757E0,0E0,0E0,6.5817566E0,1.1323944E1,4.3481126E0,4.24864E0,6.640568E0,8.296511E0,7.2473583E0,3.6628551E0,6.500122E0,3.3359356E0,2.6151505E0,2.8219128E0,1.2722565E1,5.2227974E0,3.5183105E0,4.585602E0,1.8450195E1,1.2498894E1,1.7309639E1,1.0216098E1,0E0,0E0,0E0,0E0,0E0,0E0,0E0,0E0,0E0,0E0,0E0,0E0,0E0,0E0,0E0,0E0,0E0,0E0,0E0,0E0,0E0,0E0,0E0,0E0,0E0,0E0,0E0,0E0,0E0,0E0,0E0,0E0,0E0,0E0,0E0,0E0,0E0,0E0,0E0,0E0,0E0,0E0,0E0,0E0,0E0,0E0,0E0,0E0,0E0,0E0,0E0,0E0,0E0,0E0,0E0,0E0,0E0,0E0],"parents":[2147483647,0,0,1,1,2,2,3,3,4,4,5,5,6,6,7,7,8,8,9,9,10,10,11,11,12,12,13,13,14,14,15,15,16,16,17,17,18,18,19,19,20,20,21,21,22,22,23,23,24,24,25,25,26,26,27,27,28,28,29,29,30,30,31,31,32,32,33,33,34,34,36,36,37,37,38,38,39,39,40,40,43,43,44,44,45,45,46,46,47,47,48,48,49,49,50,50,51,51,52,52,53,53,54,54,55,55,56,56,57,57,58,58,59,59,60,60,61,61,62,62],"right_children":[2,4,6,8,10,12,14,16,18,20,22,24,26,28,30,32,34,36,38,40,42,44,46,48,50,52,54,56,58,60,62,64,66,68,70,-1,72,74,76,78,80,-1,-1,82,84,86,88,90,92,94,96,98,100,102,104,106,108,110,112,114,116,118,120,-1,-1,-1,-1,-1,-1,-1,-1,-1,-1,-1,-1,-1,-1,-1,-1,-1,-1,-1,-1,-1,-1,-1,-1,-1,-1,-1,-1,-1,-1,-1,-1,-1,-1,-1,-1,-1,-1,-1,-1,-1,-1,-1,-1,-1,-1,-1,-1,-1,-1,-1,-1,-1,-1,-1,-1,-1,-1],"split_conditions":[-5.623895E-1,-9.9015874E-1,-4.4450924E-1,2.3320959E0,-1.4512566E0,7.709111E-1,-9.9015874E-1,-1.0808716E0,-1.0068231E0,1.2328992E0,5.2926666E-1,1.7544641E0,1.8609282E0,2.180472E0,3.264776E-1,1.184605E0,-1.4512566E0,-1.08222E-1,-1.5851365E0,-1.1755046E0,7.2573906E-1,-3.453825E-1,4.821093E-1,-1.4632702E0,9.81716E-1,4.821093E-1,-4.8303783E-1,8.0210817E-1,1.184605E0,-3.1648986E-2,4.1961128E-1,-1.4512566E0,3.0746617E0,-1.08222E-1,3.7114378E-2,1.61845E-2,3.6738724E-1,9.5534587E-1,1.4251089E-1,7.4012136E-1,-1.1936226E0,-6.481432E-3,5.490107E-2,5.7991058E-2,-1.0068231E0,-2.5664046E-1,2.7708306E0,1.1273679E0,1.184605E0,5.4500234E-1,9.884822E-1,1.4419152E0,-5.002622E-3,1.7564625E0,-3.445241E-1,-1.1795597E-1,-1.638482E0,5.4448825E-1,-3.6612722E-1,1.536434E-1,1.4769877E-1,-5.7053393E-1,1.3303459E0,9.416332E-2,7.7203095E-2,5.6035634E-2,9.43852E-2,5.6967184E-2,8.892877E-2,6.445292E-2,5.0116006E-2,7.491355E-2,3.1359095E-2,6.7048585E-3,-5.560431E-2,-2.738339E-2,4.0071953E-2,5.6311585E-2,-1.3626884E-2,4.2732824E-2,7.389885E-2,4.2257052E-2,5.7507288E-2,4.114443E-2,2.6765672E-2,2.509432E-2,3.621165E-3,3.1844374E-2,-3.702777E-2,-2.5187396E-2,3.6919925E-2,-3.1988516E-3,-2.195511E-2,3.896974E-2,5.465813E-3,-2.0076176E-2,1.861704E-2,-3.0550562E-2,1.2197789E-2,-2.1176266E-2,-8.7601235E-3,-4.6359837E-2,3.1720437E-3,-5.4506217E-3,-3.672165E-2,5.2801553E-2,3.444954E-2,-2.8105656E-2,1.6100397E-2,5.8307093E-2,7.623481E-2,3.290979E-2,6.3679665E-2,2.7679542E-2,1.482114E-2,1.14059895E-2,2.2562092E-2,1.9645479E-2,3.5332313E-3,-1.0533274E-2,8.185415E-3],"split_indices":[3,24,22,4,3,3,24,23,3,9,24,5,24,22,3,4,3,19,1,27,11,4,5,22,19,5,23,4,4,16,4,3,22,19,4,0,19,9,9,17,25,0,0,5,3,10,24,10,4,14,24,10,10,10,23,3,5,27,5,23,22,24,5,0,0,0,0,0,0,0,0,0,0,0,0,0,0,0,0,0,0,0,0,0,0,0,0,0,0,0,0,0,0,0,0,0,0,0,0,0,0,0,0,0,0,0,0,0,0,0,0,0,0,0,0,0,0,0,0,0,0],"split_type":[0,0,0,0,0,0,0,0,0,0,0,0,0,0,0,0,0,0,0,0,0,0,0,0,0,0,0,0,0,0,0,0,0,0,0,0,0,0,0,0,0,0,0,0,0,0,0,0,0,0,0,0,0,0,0,0,0,0,0,0,0,0,0,0,0,0,0,0,0,0,0,0,0,0,0,0,0,0,0,0,0,0,0,0,0,0,0,0,0,0,0,0,0,0,0,0,0,0,0,0,0,0,0,0,0,0,0,0,0,0,0,0,0,0,0,0,0,0,0,0,0],"sum_hessian":[2.40616E4,4.7996396E3,1.9261959E4,1.3414946E3,3.4581453E3,4.5964424E3,1.4665517E4,1.2210627E3,1.2043189E2,3.3136502E2,3.1267803E3,2.7728132E3,1.823629E3,2.7147822E3,1.1950734E4,5.687114E2,6.523513E2,5.535343E1,6.507846E1,3.1267657E2,1.8688433E1,2.5692805E3,5.574996E2,2.5104688E3,2.6234457E2,1.4160444E3,4.075846E2,2.238554E3,4.7622812E2,7.7310054E3,4.2197295E3,4.262254E2,1.4248601E2,8.911354E1,5.6323773E2,1.2799573E1,4.255386E1,1.3679287E1,5.139917E1,5.0808544E1,2.6186804E2,8.385055E0,1.0303379E1,8.3252856E2,1.7367521E3,3.538587E2,2.0364087E2,5.276865E2,1.9827821E3,1.91058E2,7.128657E1,6.4853546E2,7.675089E2,2.8485574E2,1.2272885E2,1.549832E3,6.88722E2,3.298072E2,1.4642096E2,3.5351406E3,4.1958647E3,2.64008E3,1.5796492E3,5.5869E1,3.703564E2,1.1246994E2,3.0016062E1,2.0578949E1,6.853459E1,2.3376053E2,3.2947723E2,2.2300632E1,2.0253227E1,6.6335306E0,7.0457563E0,6.8174872E0,4.4581684E1,4.43551E1,6.4534426E0,2.3158072E1,2.3870996E2,4.3453986E2,3.979887E2,6.208244E2,1.1159276E3,9.3039085E1,2.608196E2,1.970177E2,6.6231694E0,5.149851E2,1.27013645E1,1.7935958E3,1.8918628E2,1.0726831E2,8.3789696E1,3.2963593E1,3.8322975E1,6.2181995E2,2.6715555E1,2.2193738E2,5.4557153E2,2.7711035E2,7.7454E0,2.7341127E1,9.5387726E1,3.5786212E2,1.19197E3,1.984857E1,6.688734E2,1.7803136E2,1.5177582E2,8.4875854E1,6.1545105E1,2.2758147E3,1.2593259E3,3.2558604E3,9.4000415E2,6.37925E2,2.0021552E3,1.3285547E3,2.5109459E2],"tree_param":{"num_deleted":"0","num_feature":"28","num_nodes":"121","size_leaf_vector":"1"}},{"base_weights":[-1.2682398E-1,-2.8912947E-1,-1.1047555E-1,-3.2947505E-1,-1.5352102E-1,-8.900953E-2,-1.8471107E-1,-2.750579E-1,-4.4842714E-1,1.7165527E-1,-1.8924402E-1,-3.394974E-2,-1.13696046E-1,-3.1095183E-1,-1.5189348E-1,-5.300128E-2,-2.6598364E-1,-4.8072543E-2,-3.8569558E-1,-1.279212E-1,4.138315E-1,-4.4049945E-1,-1.5208393E-1,5.314385E-2,-9.9098764E-2,-9.504904E-2,-1.8774784E-1,-3.4238678E-1,-7.942938E-2,-2.0802473E-1,-9.44758E-2,-3.2689518E-1,-2.2949028E-1,-1.8024644E-1,-4.406109E-1,-5.0349873E-2,1.0033611E-2,7.611934E-2,2.2977313E-1,-6.591466E-3,-4.6418197E-2,-1.09207526E-1,-3.828882E-1,1.4409317E-1,2.633966E-2,-1.7934524E-1,-2.5659397E-2,-1.073117E-1,-2.8211273E-2,-1.5460242E-1,-2.7120644E-1,-4.6902433E-1,-3.08892E-1,5.332771E-2,-1.2781332E-1,-1.6643621E-1,-2.780033E-1,-9.733543E-2,4.036802E-2,2.1058587E-2,-2.8853692E-2,-1.8475438E-2,-4.6995383E-2,-3.188872E-2,-4.782553E-3,-4.3708786E-2,-1.647709E-2,5.135468E-2,-1.6308695E-2,-6.0174903E-3,-2.7925571E-2,-4.545073E-2,-1.0127906E-2,2.5271494E-2,6.6866134E-3,-7.1628095E-4,9.002123E-3,-4.132619E-2,-1.384871E-2,-2.4714526E-2,-8.4898213E-4,-7.8884E-3,-1.4812556E-2,-6.878736E-4,-1.9221215E-2,-1.2328786E-2,-4.3507673E-2,-2.4095852E-2,2.9149856E-2,-3.255483E-2,-4.966653E-2,2.8376667E-2,-2.7010657E-2,-6.037368E-2,-7.285327E-3,-1.9753607E-2,-1.0726882E-2,-2.8763434E-2,-1.2998405E-2,-4.8864335E-3,-1.182147E-2],"categories":[],"categories_nodes":[],"categories_segments":[],"categories_sizes":[],"default_left":[0,0,0,0,0,0,0,0,0,0,0,0,0,0,0,0,0,0,0,0,0,0,0,0,0,0,0,0,0,0,0,0,0,0,0,0,0,0,0,0,0,0,0,0,0,0,0,0,0,0,0,0,0,0,0,0,0,0,0,0,0,0,0,0,0,0,0,0,0,0,0,0,0,0,0,0,0,0,0,0,0,0,0,0,0,0,0,0,0,0,0,0,0,0,0,0,0,0,0,0,0],"id":10,"left_children":[1,3,5,7,9,11,13,15,17,19,21,23,25,27,29,-1,31,-1,33,35,37,39,41,43,45,47,49,51,53,55,57,59,61,63,65,-1,-1,-1,67,-1,-1,69,71,73,75,77,79,81,83,85,87,89,91,-1,93,95,97,99,-1,-1,-1,-1,-1,-1,-1,-1,-1,-1,-1,-1,-1,-1,-1,-1,-1,-1,-1,-1,-1,-1,-1,-1,-1,-1,-1,-1,-1,-1,-1,-1,-1,-1,-1,-1,-1,-1,-1,-1,-1,-1,-1],"loss_changes":[6.0970245E1,1.1475937E1,3.3262665E1,1.0442078E1,5.6087084E0,2.2011215E1,1.9374466E1,3.4468079E0,3.6373367E0,3.4739747E0,4.02384E0,2.846351E1,1.5426483E1,7.0034637E0,1.1963066E1,0E0,2.3738556E0,0E0,3.687481E0,2.4447513E0,2.2625928E0,2.0810633E0,3.7219257E0,5.2211986E0,1.6900156E1,7.315254E0,6.19458E0,3.554573E0,3.9237854E0,5.44104E0,2.9672222E0,2.7889557E0,2.690689E0,1.6595044E0,4.631607E0,0E0,0E0,0E0,3.0566072E0,0E0,0E0,2.6736293E0,2.314786E0,4.861616E0,4.5796857E0,6.9695587E0,6.2035766E0,7.366188E0,5.497346E0,5.5936356E0,4.6076393E0,1.6916924E0,3.5894852E0,0E0,2.6125007E0,3.1052017E0,5.213669E0,3.0200024E0,0E0,0E0,0E0,0E0,0E0,0E0,0E0,0E0,0E0,0E0,0E0,0E0,0E0,0E0,0E0,0E0,0E0,0E0,0E0,0E0,0E0,0E0,0E0,0E0,0E0,0E0,0E0,0E0,0E0,0E0,0E0,0E0,0E0,0E0,0E0,0E0,0E0,0E0,0E0,0E0,0E0,0E0,0E0],"parents":[2147483647,0,0,1,1,2,2,3,3,4,4,5,5,6,6,7,7,8,8,9,9,10,10,11,11,12,12,13,13,14,14,16,16,18,18,19,19,20,20,21,21,22,22,23,23,24,24,25,25,26,26,27,27,28,28,29,29,30,30,31,31,32,32,33,33,34,34,38,38,41,41,42,42,43,43,44,44,45,45,46,46,47,47,48,48,49,49,50,50,51,51,52,52,54,54,55,55,56,56,57,57],"right_children":[2,4,6,8,10,12,14,16,18,20,22,24,26,28,30,-1,32,-1,34,36,38,40,42,44,46,48,50,52,54,56,58,60,62,64,66,-1,-1,-1,68,-1,-1,70,72,74,76,78,80,82,84,86,88,90,92,-1,94,96,98,100,-1,-1,-1,-1,-1,-1,-1,-1,-1,-1,-1,-1,-1,-1,-1,-1,-1,-1,-1,-1,-1,-1,-1,-1,-1,-1,-1,-1,-1,-1,-1,-1,-1,-1,-1,-1,-1,-1,-1,-1,-1,-1,-1],"split_conditions":[-1.0324801E0,1.184605E0,6.497596E-1,6.497596E-1,-5.0498855E-1,-1.1795597E-1,-5.623895E-1,-1.4512566E0,-5.623895E-1,6.53122E-1,-4.6515055E0,-5.0498855E-1,5.54462E-1,1.9495989E0,4.1961128E-1,-5.300128E-2,-2.1497626E0,-4.8072543E-2,-2.8953861E-2,4.0362892E-1,-6.931931E-2,8.091453E-1,4.821093E-1,-1.2748206E0,3.7114378E-2,9.0622765E-1,1.2153447E0,-2.003201E-1,-6.5873003E-1,1.4195918E0,4.2445803E0,-2.267894E0,2.5486453E0,4.2376086E-1,-1.4030178E0,-5.0349873E-2,1.0033611E-2,7.611934E-2,1.2495106E0,-6.591466E-3,-4.6418197E-2,-1.4206837E0,2.5453162E-1,-1.0068231E0,4.1961128E-1,-1.4512566E0,-1.4512566E0,7.709111E-1,1.2687037E0,2.4255688E0,3.8750556E0,1.4195918E0,-1.547193E-1,5.332771E-2,-1.4512566E0,1.13981366E-1,1.2153447E0,1.4195918E0,4.036802E-2,2.1058587E-2,-2.8853692E-2,-1.8475438E-2,-4.6995383E-2,-3.188872E-2,-4.782553E-3,-4.3708786E-2,-1.647709E-2,5.135468E-2,-1.6308695E-2,-6.0174903E-3,-2.7925571E-2,-4.545073E-2,-1.0127906E-2,2.5271494E-2,6.6866134E-3,-7.1628095E-4,9.002123E-3,-4.132619E-2,-1.384871E-2,-2.4714526E-2,-8.4898213E-4,-7.8884E-3,-1.4812556E-2,-6.878736E-4,-1.9221215E-2,-1.2328786E-2,-4.3507673E-2,-2.4095852E-2,2.9149856E-2,-3.255483E-2,-4.966653E-2,2.8376667E-2,-2.7010657E-2,-6.037368E-2,-7.285327E-3,-1.9753607E-2,-1.0726882E-2,-2.8763434E-2,-1.2998405E-2,-4.8864335E-3,-1.182147E-2],"split_indices":[23,4,2,2,2,3,3,3,3,25,23,2,24,4,4,0,23,0,19,11,21,12,5,2,4,5,3,23,23,2,4,26,3,11,24,0,0,0,12,0,0,24,1,3,4,3,3,3,25,24,5,2,23,0,3,14,3,2,0,0,0,0,0,0,0,0,0,0,0,0,0,0,0,0,0,0,0,0,0,0,0,0,0,0,0,0,0,0,0,0,0,0,0,0,0,0,0,0,0,0,0],"split_type":[0,0,0,0,0,0,0,0,0,0,0,0,0,0,0,0,0,0,0,0,0,0,0,0,0,0,0,0,0,0,0,0,0,0,0,0,0,0,0,0,0,0,0,0,0,0,0,0,0,0,0,0,0,0,0,0,0,0,0,0,0,0,0,0,0,0,0,0,0,0,0,0,0,0,0,0,0,0,0,0,0,0,0,0,0,0,0,0,0,0,0,0,0,0,0,0,0,0,0,0,0],"sum_hessian":[2.2987354E4,2.1031611E3,2.0884191E4,1.6205343E3,4.8262695E2,1.6200522E4,4.6836694E3,1.1123011E3,5.0823312E2,4.7591408E1,4.3503555E2,5.0158726E3,1.118465E4,9.659179E2,3.7177517E3,2.8095404E1,1.0842057E3,1.7785161E2,3.303815E2,2.1167873E1,2.6423534E1,5.5797432E1,3.7923813E2,2.1460378E3,2.8698347E3,8.935494E3,2.2491562E3,8.5020337E2,1.15714554E2,1.879358E3,1.8383937E3,4.0548834E2,6.787174E2,6.994473E1,2.6043677E2,7.407788E0,1.3760086E1,7.199405E0,1.9224129E1,1.2621811E1,4.317562E1,3.2008472E2,5.9153397E1,4.879531E2,1.6580848E3,1.3709432E3,1.4988915E3,7.5494673E3,1.3860266E3,1.6104045E3,6.3875165E2,1.7737395E2,6.728294E2,7.320981E0,1.0839358E2,1.1794065E3,6.9995154E2,1.8293246E3,9.069136E0,8.145912E0,3.9734244E2,6.53561E2,2.5156397E1,2.7049839E1,4.2894894E1,2.0103418E2,5.9402596E1,1.0262757E1,8.96137E0,2.724038E2,4.7680923E1,3.747419E1,2.1679203E1,1.4628822E2,3.4166486E2,1.1526849E3,5.053999E2,7.078539E1,1.3001578E3,8.366356E1,1.4152279E3,6.1877134E3,1.3617539E3,1.2581193E3,1.2790727E2,1.5674142E3,4.2990326E1,6.268529E2,1.1898761E1,1.01202866E2,7.617108E1,8.479908E0,6.643495E2,7.217652E0,1.0117593E2,4.4960883E2,7.2979767E2,4.7359088E2,2.2636066E2,9.326935E2,8.966311E2],"tree_param":{"num_deleted":"0","num_feature":"28","num_nodes":"101","size_leaf_vector":"1"}},{"base_weights":[-7.372167E-2,2.2641696E-1,-1.6104676E-1,3.9442435E-1,7.3140465E-2,1.3787657E-1,-2.1629336E-1,5.105662E-1,2.3451397E-1,3.0958343E-1,1.6201299E-2,3.1870884E-1,4.7320016E-2,-1.559544E-1,-3.9101693E-1,7.854291E-1,4.7014382E-1,8.295196E-2,3.1352335E-1,4.768533E-1,2.3269987E-1,1.0557314E-1,-9.879997E-2,5.5842847E-1,2.5810534E-1,1.2826207E-1,-5.7027142E-2,-1.2463894E-1,-2.986415E-1,-2.945112E-1,-4.5135367E-1,9.047239E-1,5.1299924E-1,5.068273E-1,2.1835776E-1,9.708408E-3,4.9664935E-1,4.5681587E-1,1.739988E-1,-1.5268604E-2,5.209262E-1,2.5550154E-1,-2.5434458E-1,1.9245805E-1,-4.758718E-2,-1.4578734E-1,9.43218E-2,7.181336E-1,3.5613483E-1,3.424065E-1,6.543022E-2,-1.9327171E-2,1.728557E-1,-1.6421123E-1,8.817457E-4,-9.764915E-2,-2.2523975E-1,-3.847586E-1,-2.383031E-1,-2.542016E-1,-4.7150648E-1,-3.9515945E-1,-5.334462E-1,2.7348531E-2,8.1394576E-2,3.1654708E-2,7.8660406E-2,6.849662E-2,4.0268842E-2,2.785434E-2,-2.0682528E-3,1.9168004E-2,-9.251124E-3,2.8179478E-2,8.420431E-2,1.7234555E-2,4.687104E-2,4.143318E-2,1.268857E-2,5.54084E-2,2.193562E-2,-3.2223325E-2,2.3450885E-2,-4.634134E-2,1.6249802E-2,6.807087E-3,2.2978203E-2,-1.6064221E-2,1.6899914E-3,-1.3005227E-2,5.9998166E-2,2.9642036E-2,-4.1115214E-3,8.784657E-2,5.4587793E-2,4.929986E-2,8.099083E-3,3.0974893E-2,-2.7759776E-2,9.78242E-3,-3.148725E-2,-3.6721032E-2,1.2123871E-3,1.2681397E-2,3.4972686E-2,3.045516E-3,-1.8956102E-2,4.3983247E-2,-1.09691E-3,-1.0249616E-2,4.129585E-3,-2.6174081E-2,-1.457594E-2,-2.9657166E-2,-4.1849513E-2,-3.4946162E-2,-1.6265763E-2,-2.2988206E-2,1.8826148E-3,-4.147223E-2,8.305065E-3,-3.974016E-2,-2.4840048E-2,-4.8830915E-2,-3.9365668E-2],"categories":[],"categories_nodes":[],"categories_segments":[],"categories_sizes":[],"default_left":[0,0,0,0,0,0,0,0,0,0,0,0,0,0,0,0,0,0,0,0,0,0,0,0,0,0,0,0,0,0,0,0,0,0,0,0,0,0,0,0,0,0,0,0,0,0,0,0,0,0,0,0,0,0,0,0,0,0,0,0,0,0,0,0,0,0,0,0,0,0,0,0,0,0,0,0,0,0,0,0,0,0,0,0,0,0,0,0,0,0,0,0,0,0,0,0,0,0,0,0,0,0,0,0,0,0,0,0,0,0,0,0,0,0,0,0,0,0,0,0,0,0,0,0,0],"id":11,"left_children":[1,3,5,7,9,11,13,15,17,19,21,23,25,27,29,31,33,35,37,39,41,43,45,47,49,51,53,55,57,59,61,63,65,67,69,71,73,75,77,-1,79,81,83,85,87,89,91,93,95,97,99,101,103,105,107,109,111,113,115,117,119,121,123,-1,-1,-1,-1,-1,-1,-1,-1,-1,-1,-1,-1,-1,-1,-1,-1,-1,-1,-1,-1,-1,-1,-1,-1,-1,-1,-1,-1,-1,-1,-1,-1,-1,-1,-1,-1,-1,-1,-1,-1,-1,-1,-1,-1,-1,-1,-1,-1,-1,-1,-1,-1,-1,-1,-1,-1,-1,-1,-1,-1,-1,-1],"loss_changes":[6.063036E2,1.3422574E2,2.9593756E2,4.6140533E1,3.6686188E1,4.5748344E1,1.5941644E2,1.591629E1,1.2508144E1,6.7556763E0,2.2587076E1,1.3492027E1,1.5737001E1,5.0207672E1,2.2555115E1,5.8936386E0,1.1553436E1,1.0845335E1,1.3708229E1,4.83239E0,4.0297947E0,1.6468845E1,8.721294E0,5.998253E0,1.20676155E1,6.9156857E0,5.0586414E0,2.501236E1,1.0470718E1,1.0610413E1,1.0954071E1,3.7333755E0,3.182703E0,1.0978699E1,4.2402253E0,7.7853823E0,4.303406E0,8.025055E0,2.682972E0,0E0,5.2666664E0,4.36685E0,2.1041353E0,6.851841E0,4.266785E0,4.5293274E0,6.8139687E0,2.4112854E0,4.7923555E0,7.3905945E0,4.8676815E0,3.3878727E0,4.5530376E0,3.3477921E0,3.7761812E0,2.4138268E1,8.627586E0,3.1860886E0,9.644585E0,5.3142242E0,2.4690056E0,1.0443939E1,2.6891174E0,0E0,0E0,0E0,0E0,0E0,0E0,0E0,0E0,0E0,0E0,0E0,0E0,0E0,0E0,0E0,0E0,0E0,0E0,0E0,0E0,0E0,0E0,0E0,0E0,0E0,0E0,0E0,0E0,0E0,0E0,0E0,0E0,0E0,0E0,0E0,0E0,0E0,0E0,0E0,0E0,0E0,0E0,0E0,0E0,0E0,0E0,0E0,0E0,0E0,0E0,0E0,0E0,0E0,0E0,0E0,0E0,0E0,0E0,0E0,0E0,0E0,0E0],"parents":[2147483647,0,0,1,1,2,2,3,3,4,4,5,5,6,6,7,7,8,8,9,9,10,10,11,11,12,12,13,13,14,14,15,15,16,16,17,17,18,18,19,19,20,20,21,21,22,22,23,23,24,24,25,25,26,26,27,27,28,28,29,29,30,30,31,31,32,32,33,33,34,34,35,35,36,36,37,37,38,38,40,40,41,41,42,42,43,43,44,44,45,45,46,46,47,47,48,48,49,49,50,50,51,51,52,52,53,53,54,54,55,55,56,56,57,57,58,58,59,59,60,60,61,61,62,62],"right_children":[2,4,6,8,10,12,14,16,18,20,22,24,26,28,30,32,34,36,38,40,42,44,46,48,50,52,54,56,58,60,62,64,66,68,70,72,74,76,78,-1,80,82,84,86,88,90,92,94,96,98,100,102,104,106,108,110,112,114,116,118,120,122,124,-1,-1,-1,-1,-1,-1,-1,-1,-1,-1,-1,-1,-1,-1,-1,-1,-1,-1,-1,-1,-1,-1,-1,-1,-1,-1,-1,-1,-1,-1,-1,-1,-1,-1,-1,-1,-1,-1,-1,-1,-1,-1,-1,-1,-1,-1,-1,-1,-1,-1,-1,-1,-1,-1,-1,-1,-1,-1,-1,-1,-1,-1],"split_conditions":[-5.0498855E-1,-3.9575762E-1,-6.1528385E-1,-8.899045E-1,-1.2748206E0,1.4098255E-1,7.75684E-1,-6.475511E-1,-7.278794E-1,-3.6612722E-1,4.3897894E-1,-2.1477773E0,2.6484355E-1,1.0346757E0,2.6484355E-1,1.3303459E0,1.7544641E0,1.1798866E0,-7.944344E-1,-1.4928732E0,2.6027007E0,4.821093E-1,4.0249243E-1,4.821093E-1,2.6484355E-1,-7.278794E-1,-3.453825E-1,4.821093E-1,3.6194643E-1,1.8553843E0,1.5181701E0,-2.0158675E0,1.4771423E0,-1.6597366E0,7.17415E-1,5.7991058E-2,1.4872663E0,2.8811908E-1,-1.3973658E0,-1.5268604E-2,6.766656E-1,-3.8250235E-1,4.954996E-1,-7.784971E-1,-7.278794E-1,3.0970893E0,-8.899045E-1,-2.6489136E0,-1.5665665E0,1.6894861E0,1.0742972E0,-4.0164608E-1,1.3637999E0,-3.6612722E-1,-1.6742936E0,8.0210817E-1,-3.453825E-1,6.53122E-1,-3.453825E-1,1.583482E0,2.7145927E0,8.0210817E-1,1.184605E0,2.7348531E-2,8.1394576E-2,3.1654708E-2,7.8660406E-2,6.849662E-2,4.0268842E-2,2.785434E-2,-2.0682528E-3,1.9168004E-2,-9.251124E-3,2.8179478E-2,8.420431E-2,1.7234555E-2,4.687104E-2,4.143318E-2,1.268857E-2,5.54084E-2,2.193562E-2,-3.2223325E-2,2.3450885E-2,-4.634134E-2,1.6249802E-2,6.807087E-3,2.2978203E-2,-1.6064221E-2,1.6899914E-3,-1.3005227E-2,5.9998166E-2,2.9642036E-2,-4.1115214E-3,8.784657E-2,5.4587793E-2,4.929986E-2,8.099083E-3,3.0974893E-2,-2.7759776E-2,9.78242E-3,-3.148725E-2,-3.6721032E-2,1.2123871E-3,1.2681397E-2,3.4972686E-2,3.045516E-3,-1.8956102E-2,4.3983247E-2,-1.09691E-3,-1.0249616E-2,4.129585E-3,-2.6174081E-2,-1.457594E-2,-2.9657166E-2,-4.1849513E-2,-3.4946162E-2,-1.6265763E-2,-2.2988206E-2,1.8826148E-3,-4.147223E-2,8.305065E-3,-3.974016E-2,-2.4840048E-2,-4.8830915E-2,-3.9365668E-2],"split_indices":[2,22,22,2,2,23,22,23,4,5,22,22,2,2,2,5,5,19,22,4,5,5,0,5,2,4,4,5,23,22,22,8,19,2,23,5,18,19,21,0,22,22,7,0,4,4,2,22,23,6,9,11,18,5,22,4,4,25,4,0,4,4,4,0,0,0,0,0,0,0,0,0,0,0,0,0,0,0,0,0,0,0,0,0,0,0,0,0,0,0,0,0,0,0,0,0,0,0,0,0,0,0,0,0,0,0,0,0,0,0,0,0,0,0,0,0,0,0,0,0,0,0,0,0,0],"split_type":[0,0,0,0,0,0,0,0,0,0,0,0,0,0,0,0,0,0,0,0,0,0,0,0,0,0,0,0,0,0,0,0,0,0,0,0,0,0,0,0,0,0,0,0,0,0,0,0,0,0,0,0,0,0,0,0,0,0,0,0,0,0,0,0,0,0,0,0,0,0,0,0,0,0,0,0,0,0,0,0,0,0,0,0,0,0,0,0,0,0,0,0,0,0,0,0,0,0,0,0,0,0,0,0,0,0,0,0,0,0,0,0,0,0,0,0,0,0,0,0,0,0,0,0,0],"sum_hessian":[2.3132934E4,5.2134434E3,1.791949E4,2.4869907E3,2.7264526E3,2.7950632E3,1.5124427E4,1.4403948E3,1.0465961E3,5.289119E2,2.1975408E3,9.324017E2,1.8626615E3,1.1242391E4,3.882036E3,1.8440715E2,1.2559875E3,3.589208E2,6.8767523E2,1.6625452E2,3.6265738E2,1.2368623E3,9.606784E2,1.879006E2,7.4450104E2,1.0492994E3,8.1336206E2,9.2194795E3,2.0229109E3,1.4938627E3,2.3881733E3,1.2804434E2,5.636281E1,1.0960308E3,1.5995679E2,3.0508484E2,5.383596E1,3.3900723E2,3.48668E2,1.0371095E1,1.5588342E2,3.4657178E2,1.6085613E1,7.8942706E2,4.474352E2,7.729421E2,1.8773636E2,1.0479221E2,8.310838E1,5.176661E2,2.2683498E2,2.431625E2,8.061369E2,2.8565045E2,5.277116E2,7.2697686E3,1.9497107E3,8.3293884E2,1.189972E3,1.2170945E3,2.7676822E2,1.4182593E3,9.699141E2,1.0426761E1,1.17617584E2,4.2091328E1,1.4271481E1,1.11956856E2,9.840739E2,1.106219E2,4.9334877E1,1.08361305E2,1.9672354E2,4.0404785E1,1.3431173E1,9.1379776E1,2.4762746E2,2.5593805E1,3.230742E2,1.0424303E2,5.16404E1,1.0433527E1,3.3613824E2,9.821476E0,6.264137E0,3.2202585E2,4.6740118E2,1.4499055E2,3.0244467E2,7.6678296E2,6.159106E0,6.768055E1,1.2005581E2,2.0455183E1,8.4337036E1,4.469047E1,3.8417915E1,5.0175046E2,1.59156065E1,2.0383688E2,2.299809E1,1.843247E1,2.2473004E2,7.3270917E2,7.342776E1,6.4327675E1,2.2132278E2,1.38067875E1,5.1390485E2,6.2921895E3,9.7757935E2,7.735045E2,1.1762062E3,6.212096E2,2.117293E2,2.5619144E2,9.3378064E2,1.151645E3,6.544945E1,2.6953094E2,7.2372723E0,8.381327E2,5.801266E2,6.2027325E2,3.4964084E2],"tree_param":{"num_deleted":"0","num_feature":"28","num_nodes":"125","size_leaf_vector":"1"}},{"base_weights":[1.8027088E-1,-1.5823631E-1,2.703784E-1,1.4784756E-1,-2.7305904E-1,5.36006E-1,1.5265773E-1,-2.3227672E-1,2.4911562E-1,-5.419897E-1,-2.0529743E-1,3.786192E-1,6.4586055E-1,-7.657358E-2,2.0816258E-1,-5.0295115E-2,-1.3113722E-1,4.151408E-1,1.0755103E-1,-5.6273833E-2,-5.0825256E-1,-3.330433E-2,-2.5515333E-1,5.7968223E-1,3.1146276E-1,8.224349E-1,5.829434E-1,-2.1152674E-1,-1.7687757E-2,1.6317712E-1,4.2366612E-1,4.2683324E-1,-2.1686323E-1,4.6431237E-1,8.6222E-2,2.5347164E-1,-2.6114825E-2,-5.453651E-1,-3.258817E-1,8.4600314E-2,-1.5318118E-1,-3.542018E-1,-1.851249E-1,8.108318E-1,5.122787E-1,2.1459049E-1,4.325761E-1,9.0880036E-1,7.3761034E-1,6.648609E-1,4.7202703E-1,-1.7235745E-1,-4.5409E-1,7.7119194E-2,-1.2570383E-1,-8.720749E-2,1.9095735E-1,3.521399E-1,6.1795634E-1,8.27722E-2,1.23784635E-2,-1.7529639E-3,-2.9638715E-2,5.7668615E-2,3.266786E-2,-5.5201594E-2,1.594093E-2,6.232048E-3,3.1861205E-2,-1.1553465E-2,1.559142E-2,-4.7243938E-2,-8.601028E-3,-3.1506285E-2,4.8929024E-3,2.6490524E-2,1.35048995E-5,-2.8476175E-2,-4.7577056E-3,-1.688221E-2,-3.40719E-2,-2.0613806E-2,-5.135916E-3,6.2074076E-2,8.867453E-2,-2.7494367E-2,4.464215E-2,1.2623457E-2,4.0799323E-2,2.9900588E-2,4.9864765E-2,8.087441E-2,6.6613145E-2,7.7796265E-2,5.838902E-2,4.8403926E-2,6.412413E-2,5.2986458E-2,3.412674E-2,-1.8638737E-2,6.8501392E-3,-4.6432737E-2,-1.6352328E-2,1.4503754E-3,2.0799633E-2,-1.251473E-2,5.0056733E-2,-1.7341144E-2,8.5629564E-4,1.8705914E-2,2.624908E-3,6.313308E-2,2.7042307E-2,6.495207E-2,4.2744916E-2],"categories":[],"categories_nodes":[],"categories_segments":[],"categories_sizes":[],"default_left":[0,0,0,0,0,0,0,0,0,0,0,0,0,0,0,0,0,0,0,0,0,0,0,0,0,0,0,0,0,0,0,0,0,0,0,0,0,0,0,0,0,0,0,0,0,0,0,0,0,0,0,0,0,0,0,0,0,0,0,0,0,0,0,0,0,0,0,0,0,0,0,0,0,0,0,0,0,0,0,0,0,0,0,0,0,0,0,0,0,0,0,0,0,0,0,0,0,0,0,0,0,0,0,0,0,0,0,0,0,0,0,0,0,0,0],"id":12,"left_children":[1,3,5,7,9,11,13,15,17,19,21,23,25,27,29,-1,31,33,35,-1,37,39,41,43,45,47,49,51,53,55,57,59,61,63,65,67,69,71,73,75,77,79,81,83,85,87,89,91,93,95,97,99,101,103,105,107,109,111,113,-1,-1,-1,-1,-1,-1,-1,-1,-1,-1,-1,-1,-1,-1,-1,-1,-1,-1,-1,-1,-1,-1,-1,-1,-1,-1,-1,-1,-1,-1,-1,-1,-1,-1,-1,-1,-1,-1,-1,-1,-1,-1,-1,-1,-1,-1,-1,-1,-1,-1,-1,-1,-1,-1,-1,-1],"loss_changes":[7.3744604E2,1.7863629E2,5.9702734E2,5.337072E1,6.730713E1,1.0130591E2,1.6835025E2,1.051989E1,2.5699905E1,2.9005127E0,2.529963E1,3.2489014E1,3.825952E1,2.0480337E1,1.03227264E2,0E0,1.0873528E1,8.111649E0,1.1545439E1,0E0,3.8655853E0,9.387148E0,1.5840164E1,9.306183E0,2.1161743E1,6.5224E0,2.3054993E1,7.399948E0,1.8393919E1,6.1305344E1,2.5494537E1,4.5644913E0,5.0590267E0,7.45179E0,4.848421E0,6.126482E0,7.066092E0,1.9767761E0,1.683279E0,6.3768883E0,5.7850122E0,6.7459793E0,9.514366E0,2.434906E0,4.6889114E0,1.7589355E1,9.9409485E0,2.1968994E0,4.0688477E0,1.2355652E1,1.151297E1,7.9420853E0,2.5479412E0,9.585991E0,1.2714919E1,9.976835E0,3.6457306E1,1.8024551E1,8.218872E0,0E0,0E0,0E0,0E0,0E0,0E0,0E0,0E0,0E0,0E0,0E0,0E0,0E0,0E0,0E0,0E0,0E0,0E0,0E0,0E0,0E0,0E0,0E0,0E0,0E0,0E0,0E0,0E0,0E0,0E0,0E0,0E0,0E0,0E0,0E0,0E0,0E0,0E0,0E0,0E0,0E0,0E0,0E0,0E0,0E0,0E0,0E0,0E0,0E0,0E0,0E0,0E0,0E0,0E0,0E0,0E0],"parents":[2147483647,0,0,1,1,2,2,3,3,4,4,5,5,6,6,7,7,8,8,9,9,10,10,11,11,12,12,13,13,14,14,16,16,17,17,18,18,20,20,21,21,22,22,23,23,24,24,25,25,26,26,27,27,28,28,29,29,30,30,31,31,32,32,33,33,34,34,35,35,36,36,37,37,38,38,39,39,40,40,41,41,42,42,43,43,44,44,45,45,46,46,47,47,48,48,49,49,50,50,51,51,52,52,53,53,54,54,55,55,56,56,57,57,58,58],"right_children":[2,4,6,8,10,12,14,16,18,20,22,24,26,28,30,-1,32,34,36,-1,38,40,42,44,46,48,50,52,54,56,58,60,62,64,66,68,70,72,74,76,78,80,82,84,86,88,90,92,94,96,98,100,102,104,106,108,110,112,114,-1,-1,-1,-1,-1,-1,-1,-1,-1,-1,-1,-1,-1,-1,-1,-1,-1,-1,-1,-1,-1,-1,-1,-1,-1,-1,-1,-1,-1,-1,-1,-1,-1,-1,-1,-1,-1,-1,-1,-1,-1,-1,-1,-1,-1,-1,-1,-1,-1,-1,-1,-1,-1,-1,-1,-1],"split_conditions":[-5.0498855E-1,-5.623895E-1,-1.1795597E-1,-1.2748206E0,-1.2748206E0,2.6484355E-1,-4.4450924E-1,-1.6597366E0,-1.0068231E0,-1.6597366E0,-5.576278E-1,-1.0068231E0,-1.0068231E0,1.1964904E-1,9.361582E-1,-5.0295115E-2,-1.4512566E0,6.3869035E-1,-1.6306639E-1,-5.6273833E-2,4.2867804E-1,-5.4229915E-1,-8.899045E-1,-1.4512566E0,5.7991058E-2,1.4971465E-1,2.0542456E-1,2.1042118E0,7.709111E-1,-1.20072484E-1,1.4195918E0,9.3257185E-3,2.5292426E-1,-1.5107219E-1,-1.8479462E0,-8.899045E-1,4.821093E-1,3.671058E0,1.7544641E0,-1.2524564E0,-8.899045E-1,-1.1795597E-1,9.0622765E-1,5.7991058E-2,-2.0158675E0,1.0573754E0,3.7006295E-1,-1.7371356E-1,-1.4512566E0,1.0346757E0,1.2913686E-1,6.497596E-1,1.7544641E0,5.173414E-1,2.5743399E0,-8.744283E-2,1.2153447E0,-2.0117462E0,-1.5646904E0,8.27722E-2,1.23784635E-2,-1.7529639E-3,-2.9638715E-2,5.7668615E-2,3.266786E-2,-5.5201594E-2,1.594093E-2,6.232048E-3,3.1861205E-2,-1.1553465E-2,1.559142E-2,-4.7243938E-2,-8.601028E-3,-3.1506285E-2,4.8929024E-3,2.6490524E-2,1.35048995E-5,-2.8476175E-2,-4.7577056E-3,-1.688221E-2,-3.40719E-2,-2.0613806E-2,-5.135916E-3,6.2074076E-2,8.867453E-2,-2.7494367E-2,4.464215E-2,1.2623457E-2,4.0799323E-2,2.9900588E-2,4.9864765E-2,8.087441E-2,6.6613145E-2,7.7796265E-2,5.838902E-2,4.8403926E-2,6.412413E-2,5.2986458E-2,3.412674E-2,-1.8638737E-2,6.8501392E-3,-4.6432737E-2,-1.6352328E-2,1.4503754E-3,2.0799633E-2,-1.251473E-2,5.0056733E-2,-1.7341144E-2,8.5629564E-4,1.8705914E-2,2.624908E-3,6.313308E-2,2.7042307E-2,6.495207E-2,4.2744916E-2],"split_indices":[2,3,3,2,2,2,22,2,3,2,24,3,3,23,22,0,3,0,24,0,22,0,2,3,5,18,23,3,3,2,2,17,17,15,1,2,5,1,5,24,2,3,5,5,8,22,22,24,3,2,18,2,5,1,2,22,3,24,24,0,0,0,0,0,0,0,0,0,0,0,0,0,0,0,0,0,0,0,0,0,0,0,0,0,0,0,0,0,0,0,0,0,0,0,0,0,0,0,0,0,0,0,0,0,0,0,0,0,0,0,0,0,0,0,0],"split_type":[0,0,0,0,0,0,0,0,0,0,0,0,0,0,0,0,0,0,0,0,0,0,0,0,0,0,0,0,0,0,0,0,0,0,0,0,0,0,0,0,0,0,0,0,0,0,0,0,0,0,0,0,0,0,0,0,0,0,0,0,0,0,0,0,0,0,0,0,0,0,0,0,0,0,0,0,0,0,0,0,0,0,0,0,0,0,0,0,0,0,0,0,0,0,0,0,0,0,0,0,0,0,0,0,0,0,0,0,0,0,0,0,0,0,0],"sum_hessian":[2.4176639E4,5.0824995E3,1.9094139E4,1.3863513E3,3.6961482E3,5.863341E3,1.3230798E4,2.9150458E2,1.0948467E3,7.436519E2,2.9524963E3,2.4105188E3,3.452822E3,2.5789192E3,1.0651879E4,6.399852E1,2.2750607E2,5.036652E2,5.911815E2,1.638971E2,5.797548E2,6.637983E2,2.288698E3,6.0325806E2,1.8072609E3,9.067468E2,2.5460752E3,7.8310406E2,1.7958151E3,8.812617E3,1.8392611E3,3.0188025E1,1.9731804E2,4.3798996E2,6.567524E1,2.8284048E2,3.0834103E2,4.813962E2,9.8358574E1,3.3439923E2,3.2939905E2,9.4752356E2,1.3411744E3,1.3591737E2,4.6734067E2,1.0044448E3,8.02816E2,4.4879248E2,4.5795435E2,1.4640775E3,1.0819977E3,6.7448987E2,1.0861425E2,9.56088E2,8.39727E2,8.798872E2,7.9327305E3,1.3446414E3,4.9461972E2,1.0180005E1,2.0008018E1,7.925131E1,1.1806673E2,1.20097305E2,3.1789267E2,7.8452883E0,5.7829952E1,1.1363676E2,1.6920374E2,2.0256326E2,1.0577777E2,4.712447E2,1.0151527E1,8.835328E1,1.0005293E1,9.0597725E1,2.4380151E2,1.1483577E2,2.145633E2,2.158601E2,7.3166345E2,9.20602E2,4.2057245E2,1.0057949E2,3.5337875E1,6.5196695E0,4.60821E2,8.0325085E2,2.0119398E2,5.2425104E2,2.785649E2,3.3858856E2,1.1020391E2,1.03966606E2,3.5398773E2,6.9968695E2,7.643905E2,3.478121E2,7.3418555E2,5.6986316E2,1.0462669E2,8.038026E1,2.8233988E1,7.0355444E2,2.5253355E2,8.155364E2,2.419063E1,4.0074554E2,4.791417E2,6.7262925E3,1.2064381E3,1.0949491E2,1.2351465E3,2.1968294E2,2.7493677E2],"tree_param":{"num_deleted":"0",