{"learner":{"attributes":{"best_iteration":"249","best_score":"0.9048161909596033"},"feature_names":["home_shots","away_shots","home_shots_on_target","away_shots_on_target","home_corners","away_corners","home_is_win_avg_5","home_is_win_form_3","home_goal_diff_avg_5","home_shots_avg_5","home_shots_on_target_avg_5","home_corners_avg_5","home_attack_strength_5","home_defense_strength_5","away_is_win_avg_5","away_is_win_form_3","away_goal_diff_avg_5","away_shots_avg_5","away_shots_on_target_avg_5","away_corners_avg_5","away_attack_strength_5","away_defense_strength_5","home_prob_implied","draw_prob_implied","away_prob_implied","form_diff","strength_diff","total_avg_goals"],"feature_types":["float","float","float","float","float","float","float","float","float","float","float","float","float","float","float","float","float","float","float","float","float","float","float","float","float","float","float","float"],"gradient_booster":{"model":{"gbtree_model_param":{"num_parallel_tree":"1","num_trees":"750"},"iteration_indptr":[0,3,6,9,12,15,18,21,24,27,30,33,36,39,42,45,48,51,54,57,60,63,66,69,72,75,78,81,84,87,90,93,96,99,102,105,108,111,114,117,120,123,126,129,132,135,138,141,144,147,150,153,156,159,162,165,168,171,174,177,180,183,186,189,192,195,198,201,204,207,210,213,216,219,222,225,228,231,234,237,240,243,246,249,252,255,258,261,264,267,270,273,276,279,282,285,288,291,294,297,300,303,306,309,312,315,318,321,324,327,330,333,336,339,342,345,348,351,354,357,360,363,366,369,372,375,378,381,384,387,390,393,396,399,402,405,408,411,414,417,420,423,426,429,432,435,438,441,444,447,450,453,456,459,462,465,468,471,474,477,480,483,486,489,492,495,498,501,504,507,510,513,516,519,522,525,528,531,534,537,540,543,546,549,552,555,558,561,564,567,570,573,576,579,582,585,588,591,594,597,600,603,606,609,612,615,618,621,624,627,630,633,636,639,642,645,648,651,654,657,660,663,666,669,672,675,678,681,684,687,690,693,696,699,702,705,708,711,714,717,720,723,726,729,732,735,738,741,744,747,750],"tree_info":[0,1,2,0,1,2,0,1,2,0,1,2,0,1,2,0,1,2,0,1,2,0,1,2,0,1,2,0,1,2,0,1,2,0,1,2,0,1,2,0,1,2,0,1,2,0,1,2,0,1,2,0,1,2,0,1,2,0,1,2,0,1,2,0,1,2,0,1,2,0,1,2,0,1,2,0,1,2,0,1,2,0,1,2,0,1,2,0,1,2,0,1,2,0,1,2,0,1,2,0,1,2,0,1,2,0,1,2,0,1,2,0,1,2,0,1,2,0,1,2,0,1,2,0,1,2,0,1,2,0,1,2,0,1,2,0,1,2,0,1,2,0,1,2,0,1,2,0,1,2,0,1,2,0,1,2,0,1,2,0,1,2,0,1,2,0,1,2,0,1,2,0,1,2,0,1,2,0,1,2,0,1,2,0,1,2,0,1,2,0,1,2,0,1,2,0,1,2,0,1,2,0,1,2,0,1,2,0,1,2,0,1,2,0,1,2,0,1,2,0,1,2,0,1,2,0,1,2,0,1,2,0,1,2,0,1,2,0,1,2,0,1,2,0,1,2,0,1,2,0,1,2,0,1,2,0,1,2,0,1,2,0,1,2,0,1,2,0,1,2,0,1,2,0,1,2,0,1,2,0,1,2,0,1,2,0,1,2,0,1,2,0,1,2,0,1,2,0,1,2,0,1,2,0,1,2,0,1,2,0,1,2,0,1,2,0,1,2,0,1,2,0,1,2,0,1,2,0,1,2,0,1,2,0,1,2,0,1,2,0,1,2,0,1,2,0,1,2,0,1,2,0,1,2,0,1,2,0,1,2,0,1,2,0,1,2,0,1,2,0,1,2,0,1,2,0,1,2,0,1,2,0,1,2,0,1,2,0,1,2,0,1,2,0,1,2,0,1,2,0,1,2,0,1,2,0,1,2,0,1,2,0,1,2,0,1,2,0,1,2,0,1,2,0,1,2,0,1,2,0,1,2,0,1,2,0,1,2,0,1,2,0,1,2,0,1,2,0,1,2,0,1,2,0,1,2,0,1,2,0,1,2,0,1,2,0,1,2,0,1,2,0,1,2,0,1,2,0,1,2,0,1,2,0,1,2,0,1,2,0,1,2,0,1,2,0,1,2,0,1,2,0,1,2,0,1,2,0,1,2,0,1,2,0,1,2,0,1,2,0,1,2,0,1,2,0,1,2,0,1,2,0,1,2,0,1,2,0,1,2,0,1,2,0,1,2,0,1,2,0,1,2,0,1,2,0,1,2,0,1,2,0,1,2,0,1,2,0,1,2,0,1,2,0,1,2,0,1,2,0,1,2,0,1,2,0,1,2,0,1,2,0,1,2,0,1,2,0,1,2,0,1,2,0,1,2,0,1,2,0,1,2,0,1,2,0,1,2,0,1,2,0,1,2,0,1,2,0,1,2,0,1,2,0,1,2,0,1,2,0,1,2,0,1,2,0,1,2,0,1,2,0,1,2,0,1,2,0,1,2,0,1,2,0,1,2,0,1,2,0,1,2,0,1,2,0,1,2,0,1,2,0,1,2,0,1,2,0,1,2,0,1,2,0,1,2,0,1,2,0,1,2,0,1,2,0,1,2,0,1,2,0,1,2,0,1,2,0,1,2,0,1,2,0,1,2,0,1,2,0,1,2,0,1,2,0,1,2,0,1,2,0,1,2,0,1,2,0,1,2],"trees":[{"base_weights":[2.4433918E-1,-1.6634361E-1,3.6094663E-1,1.8363033E-1,-2.9280943E-1,7.079466E-1,2.1233201E-1,-2.4408995E-1,3.0826497E-1,-5.8919764E-1,-2.1181999E-1,5.0056696E-1,8.5589945E-1,1.5493056E-1,4.5956945E-1,-3.294849E-2,-1.4090566E-1,4.9526364E-1,1.4949849E-1,-3.9857592E-2,-5.5136436E-1,-3.3402824E-1,-1.2524903E-1,6.237525E-1,3.0895963E-1,1.1342056E0,7.600242E-1,2.2591053E-1,-5.4674245E-2,6.20187E-1,2.9914585E-1,9.181107E-3,-1.6980771E-2,4.2837165E-2,2.2929283E-2,1.1669381E-2,-1.4950711E-2,-2.6734618E-2,-3.5333034E-2,-1.2232413E-2,-2.4288462E-2,2.2401102E-3,-1.0853223E-2,5.0966866E-2,3.0620929E-2,3.2711353E-2,1.1217269E-2,7.073049E-2,5.7911787E-2,5.0484642E-2,3.4330074E-2,6.451698E-3,1.6489197E-2,-8.470165E-3,3.319052E-3,3.824789E-2,2.089034E-2,2.304269E-2,5.7085934E-3],"categories":[],"categories_nodes":[],"categories_segments":[],"categories_sizes":[],"default_left":[0,0,0,0,0,0,0,0,0,0,0,0,0,0,0,0,0,0,0,0,0,0,0,0,0,0,0,0,0,0,0,0,0,0,0,0,0,0,0,0,0,0,0,0,0,0,0,0,0,0,0,0,0,0,0,0,0,0,0],"id":0,"left_children":[1,3,5,7,9,11,13,15,17,19,21,23,25,27,29,-1,31,33,35,-1,37,39,41,43,45,47,49,51,53,55,57,-1,-1,-1,-1,-1,-1,-1,-1,-1,-1,-1,-1,-1,-1,-1,-1,-1,-1,-1,-1,-1,-1,-1,-1,-1,-1,-1,-1],"loss_changes":[8.2925E2,1.6949414E2,6.954885E2,5.4197006E1,6.75123E1,1.240437E2,1.3400314E2,8.302331E0,2.3364624E1,2.9494476E0,2.3371223E1,3.9732574E1,6.289563E1,1.1401883E2,4.5827667E1,0E0,9.027992E0,8.134506E0,1.0953174E1,0E0,2.7579803E0,1.0834976E1,1.5171988E1,2.1454987E1,1.9750828E1,7.5216675E0,3.7255493E1,4.50325E1,2.18491E1,1.5230194E1,2.0426086E1,0E0,0E0,0E0,0E0,0E0,0E0,0E0,0E0,0E0,0E0,0E0,0E0,0E0,0E0,0E0,0E0,0E0,0E0,0E0,0E0,0E0,0E0,0E0,0E0,0E0,0E0,0E0,0E0],"parents":[2147483647,0,0,1,1,2,2,3,3,4,4,5,5,6,6,7,7,8,8,9,9,10,10,11,11,12,12,13,13,14,14,16,16,17,17,18,18,20,20,21,21,22,22,23,23,24,24,25,25,26,26,27,27,28,28,29,29,30,30],"right_children":[2,4,6,8,10,12,14,16,18,20,22,24,26,28,30,-1,32,34,36,-1,38,40,42,44,46,48,50,52,54,56,58,-1,-1,-1,-1,-1,-1,-1,-1,-1,-1,-1,-1,-1,-1,-1,-1,-1,-1,-1,-1,-1,-1,-1,-1,-1,-1,-1,-1],"split_conditions":[-5.0498855E-1,-5.623895E-1,-1.1795597E-1,-1.2748206E0,-1.2748206E0,2.6484355E-1,1.0346757E0,-1.6597366E0,-1.0068231E0,-1.6597366E0,-8.899045E-1,4.1961128E-1,-1.0068231E0,7.709111E-1,1.7581463E-1,-3.294849E-2,2.0420456E-1,-1.4512566E0,1.184605E0,-3.9857592E-2,-3.453825E-1,3.264776E-1,-7.278794E-1,-2.4726379E-1,-1.0068231E0,4.6826065E-2,-4.147392E-2,3.7540436E-2,2.6484355E-1,1.5671021E0,1.2153447E0,9.181107E-3,-1.6980771E-2,4.2837165E-2,2.2929283E-2,1.1669381E-2,-1.4950711E-2,-2.6734618E-2,-3.5333034E-2,-1.2232413E-2,-2.4288462E-2,2.2401102E-3,-1.0853223E-2,5.0966866E-2,3.0620929E-2,3.2711353E-2,1.1217269E-2,7.073049E-2,5.7911787E-2,5.0484642E-2,3.4330074E-2,6.451698E-3,1.6489197E-2,-8.470165E-3,3.319052E-3,3.824789E-2,2.089034E-2,2.304269E-2,5.7085934E-3],"split_indices":[2,3,3,2,2,2,2,2,3,2,2,4,3,3,23,0,17,3,4,0,4,3,4,23,3,18,23,25,2,4,3,0,0,0,0,0,0,0,0,0,0,0,0,0,0,0,0,0,0,0,0,0,0,0,0,0,0,0,0],"split_type":[0,0,0,0,0,0,0,0,0,0,0,0,0,0,0,0,0,0,0,0,0,0,0,0,0,0,0,0,0,0,0,0,0,0,0,0,0,0,0,0,0,0,0,0,0,0,0,0,0,0,0,0,0,0,0,0,0,0,0],"sum_hessian":[1.7315998E4,3.829333E3,1.3486666E4,1.0164444E3,2.8128887E3,4.0439998E3,9.442666E3,2.2933331E2,7.871111E2,6.0355554E2,2.2093333E3,1.6839999E3,2.3599998E3,7.663555E3,1.779111E3,5.1999996E1,1.7733333E2,3.613333E2,4.2577774E2,1.351111E2,4.6844443E2,9.1599994E2,1.2933333E3,1.0248888E3,6.591111E2,6.044444E2,1.7555554E3,5.7248887E3,1.9386665E3,8.8888885E2,8.9022217E2,6.2222218E1,1.1511111E2,8.133333E1,2.7999997E2,3.7155554E2,5.4222218E1,2.622222E2,2.0622221E2,4.4044443E2,4.7555554E2,3.8711108E2,9.0622217E2,1.9688887E2,8.2799994E2,1.8044443E2,4.7866663E2,2.2977777E2,3.7466666E2,8.417777E2,9.137777E2,2.271111E3,3.4537776E3,1.0435555E3,8.951111E2,6.884444E2,2.0044443E2,5.573333E2,3.3288885E2],"tree_param":{"num_deleted":"0","num_feature":"28","num_nodes":"59","size_leaf_vector":"1"}},{"base_weights":[-1.5183444E-1,-1.0643871E-1,-2.3855644E-1,-1.8756978E-2,-1.4317836E-1,-3.609005E-1,-2.0145048E-1,6.86158E-2,-1.0427572E-1,-2.7339387E-1,-1.2539232E-1,-3.3702023E-2,-3.445915E-1,-3.2043344E-1,-1.7069241E-1,4.700052E-2,6.416109E-2,-4.9886186E-2,-1.8527536E-1,-2.464528E-1,-2.6553335E-2,-1.1340099E-1,-2.015566E-1,-3.2799628E-2,-3.3440647E-1,-3.0276956E-2,-2.9523164E-1,-1.3850097E-1,-2.4628949E-1,4.7982866E-3,-4.500689E-3,-2.0378532E-2,-2.244299E-3,-2.4176443E-2,-9.200208E-3,-2.1399133E-2,-1.1699734E-2,-7.0423684E-3,-3.4509873E-4,-2.1915425E-2,-8.210531E-3,-2.5988689E-2,-1.7681697E-2,-1.457906E-2,-2.6094375E-2,-8.024472E-3,5.49237E-3,-1.8276418E-2,-1.159278E-2],"categories":[],"categories_nodes":[],"categories_segments":[],"categories_sizes":[],"default_left":[0,0,0,0,0,0,0,0,0,0,0,0,0,0,0,0,0,0,0,0,0,0,0,0,0,0,0,0,0,0,0,0,0,0,0,0,0,0,0,0,0,0,0,0,0,0,0,0,0],"id":1,"left_children":[1,3,5,7,9,11,13,15,17,19,21,-1,23,25,27,-1,29,31,33,35,-1,37,39,-1,41,-1,43,45,47,-1,-1,-1,-1,-1,-1,-1,-1,-1,-1,-1,-1,-1,-1,-1,-1,-1,-1,-1,-1],"loss_changes":[6.821509E1,3.6640915E1,2.7022156E1,2.5097311E1,1.8561295E1,5.580719E0,1.6714462E1,5.7703E0,7.4772167E0,5.3405685E0,6.4390793E0,0E0,3.263855E0,5.33992E0,8.831558E0,0E0,5.408933E0,3.020088E0,3.2676067E0,4.1852646E0,0E0,9.011124E0,9.919434E0,0E0,2.521988E0,0E0,4.733101E0,3.898159E0,3.3467789E0,0E0,0E0,0E0,0E0,0E0,0E0,0E0,0E0,0E0,0E0,0E0,0E0,0E0,0E0,0E0,0E0,0E0,0E0,0E0,0E0],"parents":[2147483647,0,0,1,1,2,2,3,3,4,4,5,5,6,6,7,7,8,8,9,9,10,10,12,12,13,13,14,14,16,16,17,17,18,18,19,19,21,21,22,22,24,24,26,26,27,27,28,28],"right_children":[2,4,6,8,10,12,14,16,18,20,22,-1,24,26,28,-1,30,32,34,36,-1,38,40,-1,42,-1,44,46,48,-1,-1,-1,-1,-1,-1,-1,-1,-1,-1,-1,-1,-1,-1,-1,-1,-1,-1,-1,-1],"split_conditions":[2.6484355E-1,-1.1795597E-1,-3.0960047E-1,-5.0498855E-1,-1.1376278E0,-4.6515055E0,-5.623895E-1,-9.696144E-1,3.7006295E-1,8.3639437E-1,1.2153447E0,-3.3702023E-2,-1.4512566E0,-1.4512566E0,1.4195918E0,4.700052E-2,1.2587272E0,-1.8479462E0,-1.4512566E0,-2.1477773E0,-2.6553335E-2,9.0622765E-1,-8.899045E-1,-3.2799628E-2,-8.4583163E-1,-3.0276956E-2,1.8045077E0,2.6198192E0,1.5548486E-1,4.7982866E-3,-4.500689E-3,-2.0378532E-2,-2.244299E-3,-2.4176443E-2,-9.200208E-3,-2.1399133E-2,-1.1699734E-2,-7.0423684E-3,-3.4509873E-4,-2.1915425E-2,-8.210531E-3,-2.5988689E-2,-1.7681697E-2,-1.457906E-2,-2.6094375E-2,-8.024472E-3,5.49237E-3,-1.8276418E-2,-1.159278E-2],"split_indices":[2,3,23,2,22,23,3,10,22,9,3,0,3,3,2,0,21,1,3,22,0,5,2,0,8,0,2,1,17,0,0,0,0,0,0,0,0,0,0,0,0,0,0,0,0,0,0,0,0],"split_type":[0,0,0,0,0,0,0,0,0,0,0,0,0,0,0,0,0,0,0,0,0,0,0,0,0,0,0,0,0,0,0,0,0,0,0,0,0,0,0,0,0,0,0,0,0,0,0,0,0],"sum_hessian":[1.7327998E4,1.1374222E4,5.9537773E3,3.3586665E3,8.015555E3,1.3853333E3,4.5684443E3,1.6613333E3,1.6973333E3,9.631111E2,7.052444E3,8.533333E1,1.2999999E3,9.3822217E2,3.630222E3,9.333333E0,1.6519999E3,1.0155555E3,6.817777E2,8.5199994E2,1.1111111E2,6.093333E3,9.591111E2,5.1111107E1,1.2488888E3,9.377777E1,8.444444E2,2.5462222E3,1.0839999E3,1.4306666E3,2.2133331E2,2.8888887E1,9.866666E2,4.7999996E1,6.337777E2,1.7066666E2,6.813333E2,5.3982217E3,6.951111E2,2.0622221E2,7.5288885E2,1.2488888E2,1.1239999E3,7.151111E2,1.2933333E2,2.479111E3,6.711111E1,3.3111108E2,7.5288885E2],"tree_param":{"num_deleted":"0","num_feature":"28","num_nodes":"49","size_leaf_vector":"1"}},{"base_weights":[-9.401177E-2,-2.3306322E-1,1.874679E-1,-4.7346267E-1,-1.3497104E-1,5.153493E-1,4.2472407E-2,-5.8791095E-1,-3.818582E-1,2.0492758E-1,-1.9867392E-1,4.551406E-1,8.834604E-1,-2.0234257E-1,1.2778807E-1,-3.9531335E-2,-5.473413E-1,-5.678091E-1,-2.998247E-1,4.2164567E-1,9.446602E-2,-3.962572E-1,-1.5342414E-1,6.2936425E-1,3.6647066E-1,7.5357264E-1,1.157387E0,-1.04412496E-1,-3.055498E-1,2.2974803E-1,-2.5789426E-3,-3.1704854E-2,-1.9139662E-2,-1.03059895E-2,-3.1905357E-2,-2.2739459E-4,-1.8943805E-2,1.8884012E-2,3.868227E-2,7.496692E-3,-8.759435E-3,-3.732254E-2,-1.9979205E-2,-7.0192018E-3,-1.6494153E-2,4.1076276E-2,2.8523402E-2,1.3801163E-2,2.6597833E-2,5.1529113E-2,3.127793E-2,7.831361E-2,5.7424366E-2,1.8047171E-3,-1.29291825E-2,1.5340229E-3,-1.8349487E-2,8.059496E-3,2.0667931E-2,-4.904099E-3,4.8602787E-3],"categories":[],"categories_nodes":[],"categories_segments":[],"categories_sizes":[],"default_left":[0,0,0,0,0,0,0,0,0,0,0,0,0,0,0,0,0,0,0,0,0,0,0,0,0,0,0,0,0,0,0,0,0,0,0,0,0,0,0,0,0,0,0,0,0,0,0,0,0,0,0,0,0,0,0,0,0,0,0,0,0],"id":2,"left_children":[1,3,5,7,9,11,13,15,17,19,21,23,25,27,29,-1,31,33,35,37,39,41,43,45,47,49,51,53,55,57,59,-1,-1,-1,-1,-1,-1,-1,-1,-1,-1,-1,-1,-1,-1,-1,-1,-1,-1,-1,-1,-1,-1,-1,-1,-1,-1,-1,-1,-1,-1],"loss_changes":[6.779323E2,2.7338226E2,2.7227673E2,3.520215E1,1.7828766E2,3.8884827E1,8.294703E1,7.6054077E0,2.8453735E1,3.1108635E1,6.1991394E1,2.3297333E1,8.700775E0,1.0370144E1,3.9145355E1,0E0,5.7520447E0,1.8368378E0,1.6217064E1,9.770752E0,8.9086E0,1.26840515E1,2.1717758E1,6.5064697E0,1.3349564E1,5.554535E0,2.3149261E0,9.319108E0,4.310356E0,1.9964752E1,1.004556E1,0E0,0E0,0E0,0E0,0E0,0E0,0E0,0E0,0E0,0E0,0E0,0E0,0E0,0E0,0E0,0E0,0E0,0E0,0E0,0E0,0E0,0E0,0E0,0E0,0E0,0E0,0E0,0E0,0E0,0E0],"parents":[2147483647,0,0,1,1,2,2,3,3,4,4,5,5,6,6,7,7,8,8,9,9,10,10,11,11,12,12,13,13,14,14,16,16,17,17,18,18,19,19,20,20,21,21,22,22,23,23,24,24,25,25,26,26,27,27,28,28,29,29,30,30],"right_children":[2,4,6,8,10,12,14,16,18,20,22,24,26,28,30,-1,32,34,36,38,40,42,44,46,48,50,52,54,56,58,60,-1,-1,-1,-1,-1,-1,-1,-1,-1,-1,-1,-1,-1,-1,-1,-1,-1,-1,-1,-1,-1,-1,-1,-1,-1,-1,-1,-1,-1,-1],"split_conditions":[3.264776E-1,-5.623895E-1,-5.0725436E-1,-1.0068231E0,-5.513891E-1,2.2871027E0,-8.393308E-1,-1.4512566E0,-8.2824785E-1,1.1964904E-1,-9.127145E-1,5.7991058E-2,2.1042118E0,7.0797133E-1,4.821093E-1,-3.9531335E-2,5.2926666E-1,-2.53994E-1,-9.473024E-1,2.4255688E0,1.3303459E0,-1.9590143E0,4.821093E-1,-9.473024E-1,1.2153447E0,9.0622765E-1,7.887669E-2,5.7991058E-2,-2.824174E-1,1.2153447E0,1.2153447E0,-3.1704854E-2,-1.9139662E-2,-1.03059895E-2,-3.1905357E-2,-2.2739459E-4,-1.8943805E-2,1.8884012E-2,3.868227E-2,7.496692E-3,-8.759435E-3,-3.732254E-2,-1.9979205E-2,-7.0192018E-3,-1.6494153E-2,4.1076276E-2,2.8523402E-2,1.3801163E-2,2.6597833E-2,5.1529113E-2,3.127793E-2,7.831361E-2,5.7424366E-2,1.8047171E-3,-1.29291825E-2,1.5340229E-3,-1.8349487E-2,8.059496E-3,2.0667931E-2,-4.904099E-3,4.8602787E-3],"split_indices":[3,3,22,3,22,24,24,3,24,23,24,5,3,10,5,0,24,9,22,24,5,24,5,22,3,5,10,5,18,3,3,0,0,0,0,0,0,0,0,0,0,0,0,0,0,0,0,0,0,0,0,0,0,0,0,0,0,0,0,0,0],"split_type":[0,0,0,0,0,0,0,0,0,0,0,0,0,0,0,0,0,0,0,0,0,0,0,0,0,0,0,0,0,0,0,0,0,0,0,0,0,0,0,0,0,0,0,0,0,0,0,0,0,0,0,0,0,0,0,0,0,0,0,0,0],"sum_hessian":[1.7320443E4,1.1593333E4,5.727111E3,3.3595554E3,8.233777E3,1.7559999E3,3.9711108E3,1.4933333E3,1.8662222E3,1.2995554E3,6.9342217E3,1.5093333E3,2.4666666E2,1.0262222E3,2.9448887E3,3.6311108E2,1.1302222E3,5.711111E2,1.2951111E3,4.3866663E2,8.6088885E2,1.2919999E3,5.6422217E3,5.0888885E2,1.0004444E3,1.6755554E2,7.911111E1,5.266666E2,4.995555E2,1.6524443E3,1.2924443E3,1.00399994E3,1.2622221E2,1.2444444E1,5.586666E2,1.6222221E2,1.1328888E3,3.3999997E2,9.8666664E1,7.4088885E2,1.1999999E2,1.4577777E2,1.1462222E3,4.7639995E3,8.7822217E2,2.5599998E2,2.5288887E2,4.933333E2,5.0711108E2,8.622221E1,8.133333E1,2.4888887E1,5.4222218E1,2.5555554E2,2.7111108E2,3.5999996E1,4.6355554E2,1.0417777E3,6.106666E2,6.6222217E2,6.3022217E2],"tree_param":{"num_deleted":"0","num_feature":"28","num_nodes":"61","size_leaf_vector":"1"}},{"base_weights":[2.3123369E-1,-1.7368853E-1,3.4362087E-1,-4.8282206E-1,-9.071062E-2,2.233509E-1,6.4014083E-1,-3.7713785E-2,-4.2341647E-1,-2.1447061E-1,8.906103E-2,3.623975E-2,2.8761512E-1,9.022723E-1,5.590635E-1,-5.077812E-1,-2.4859159E-1,-1.0525085E-1,-3.2187662E-1,1.9903927E-1,-3.2279313E-2,-1.907048E-1,9.760118E-2,1.9948149E-1,4.3968132E-1,1.009661E0,6.584389E-1,4.6081254E-1,6.9790167E-1,-2.2126209E-2,-3.163214E-2,-3.4750118E-3,-2.1040449E-2,2.7117704E-4,-1.3802978E-2,-1.4413625E-2,-2.6224025E-2,1.7029956E-2,3.3647635E-3,1.2356262E-2,-5.2485196E-3,1.8818507E-3,-1.4996029E-2,4.247242E-4,1.202058E-2,1.332363E-2,-3.2284874E-3,3.4794625E-2,2.0698309E-2,4.7632564E-2,6.3920766E-2,3.1476144E-2,5.55401E-2,2.9273087E-2,1.3355004E-2,4.4396408E-2,2.4956536E-2],"categories":[],"categories_nodes":[],"categories_segments":[],"categories_sizes":[],"default_left":[0,0,0,0,0,0,0,0,0,0,0,0,0,0,0,0,0,0,0,0,0,0,0,0,0,0,0,0,0,0,0,0,0,0,0,0,0,0,0,0,0,0,0,0,0,0,0,0,0,0,0,0,0,0,0,0,0],"id":3,"left_children":[1,3,5,7,9,11,13,-1,15,17,19,21,23,25,27,29,31,33,35,37,39,41,43,45,47,49,51,53,55,-1,-1,-1,-1,-1,-1,-1,-1,-1,-1,-1,-1,-1,-1,-1,-1,-1,-1,-1,-1,-1,-1,-1,-1,-1,-1,-1,-1],"loss_changes":[7.929948E2,9.710537E1,4.8640808E2,9.41449E0,6.640761E1,1.1668356E2,8.360242E1,0E0,9.084801E0,2.0734535E1,1.6241705E1,3.454977E1,9.679639E1,2.4282166E1,4.0979675E1,2.838028E0,4.90543E0,1.3910497E1,8.313309E0,9.5808525E0,9.24467E0,9.511341E0,2.0990147E1,4.8538086E1,3.291217E1,1.386853E1,8.766785E0,2.6250214E1,3.1980469E1,0E0,0E0,0E0,0E0,0E0,0E0,0E0,0E0,0E0,0E0,0E0,0E0,0E0,0E0,0E0,0E0,0E0,0E0,0E0,0E0,0E0,0E0,0E0,0E0,0E0,0E0,0E0,0E0],"parents":[2147483647,0,0,1,1,2,2,3,3,4,4,5,5,6,6,8,8,9,9,10,10,11,11,12,12,13,13,14,14,15,15,16,16,17,17,18,18,19,19,20,20,21,21,22,22,23,23,24,24,25,25,26,26,27,27,28,28],"right_children":[2,4,6,8,10,12,14,-1,16,18,20,22,24,26,28,30,32,34,36,38,40,42,44,46,48,50,52,54,56,-1,-1,-1,-1,-1,-1,-1,-1,-1,-1,-1,-1,-1,-1,-1,-1,-1,-1,-1,-1,-1,-1,-1,-1,-1,-1,-1,-1],"split_conditions":[-5.0498855E-1,-1.2748206E0,4.8492792E-1,-1.6597366E0,-8.744283E-2,-4.8653382E-1,-1.5646904E0,-3.7713785E-2,-6.552382E-2,-3.453825E-1,3.7114378E-2,-1.4632702E0,2.6484355E-1,1.184605E0,6.497596E-1,1.4251089E-1,-3.453825E-1,7.4638176E-1,8.7274027E-1,-5.8970934E-1,-1.2524564E0,-7.278794E-1,2.6484355E-1,4.1961128E-1,-3.453825E-1,6.497596E-1,3.0746617E0,8.0210817E-1,1.184605E0,-2.2126209E-2,-3.163214E-2,-3.4750118E-3,-2.1040449E-2,2.7117704E-4,-1.3802978E-2,-1.4413625E-2,-2.6224025E-2,1.7029956E-2,3.3647635E-3,1.2356262E-2,-5.2485196E-3,1.8818507E-3,-1.4996029E-2,4.247242E-4,1.202058E-2,1.332363E-2,-3.2284874E-3,3.4794625E-2,2.0698309E-2,4.7632564E-2,6.3920766E-2,3.1476144E-2,5.55401E-2,2.9273087E-2,1.3355004E-2,4.4396408E-2,2.4956536E-2],"split_indices":[2,2,22,2,22,22,24,0,22,4,4,22,2,4,2,9,4,24,24,24,24,4,2,4,4,2,22,4,4,0,0,0,0,0,0,0,0,0,0,0,0,0,0,0,0,0,0,0,0,0,0,0,0,0,0,0,0],"split_type":[0,0,0,0,0,0,0,0,0,0,0,0,0,0,0,0,0,0,0,0,0,0,0,0,0,0,0,0,0,0,0,0,0,0,0,0,0,0,0,0,0,0,0,0,0,0,0,0,0,0,0,0,0,0,0,0,0],"sum_hessian":[1.7425162E4,3.785663E3,1.3639498E4,8.0102313E2,2.98464E3,9.703763E3,3.9357358E3,1.8438177E2,6.1664136E2,1.7676921E3,1.2169476E3,2.4808074E3,7.2229556E3,9.2953577E2,3.0062E3,4.1581213E2,2.0082924E2,8.765345E2,8.9115765E2,6.383312E2,5.786165E2,5.279606E2,1.9528467E3,4.572856E3,2.6500996E3,6.451266E2,2.8440915E2,1.7606436E3,1.2455565E3,1.5417908E2,2.6163306E2,8.3258446E1,1.1757079E2,4.9678168E2,3.797528E2,6.342648E2,2.5689285E2,3.5751642E2,2.8081473E2,1.1372002E2,4.6489648E2,1.3883252E2,3.8912808E2,1.1144087E3,8.3843805E2,3.9431152E3,6.2974066E2,6.84943E2,1.9651566E3,3.180155E2,3.2711108E2,2.2576526E2,5.8643913E1,1.3446134E3,4.1603018E2,8.765179E2,3.690386E2],"tree_param":{"num_deleted":"0","num_feature":"28","num_nodes":"57","size_leaf_vector":"1"}},{"base_weights":[-1.4521313E-1,-1.11461185E-1,-2.5155193E-1,-9.390596E-2,-2.3759095E-1,-3.6192635E-1,-1.9536223E-1,-3.905669E-2,-1.3412702E-1,-4.2003205E-1,-1.9259143E-1,-3.943504E-1,-1.5176952E-1,-2.3705362E-1,-7.831897E-2,5.9316736E-3,-1.5666243E-1,-2.8066143E-1,-1.15632914E-1,6.402679E-3,-4.403328E-1,-2.4346401E-1,-7.491837E-2,-3.206358E-2,-3.5451907E-1,-2.0259312E-1,2.88803E-1,-2.7691646E-2,-2.1439448E-1,-3.86706E-2,-2.5221378E-1,-9.690563E-3,1.0607002E-3,-1.4863361E-2,-5.916648E-3,1.1901808E-2,-1.6088132E-2,-7.108919E-3,2.4429653E-3,-1.7535068E-2,-2.9813927E-2,-1.6454449E-2,-6.38312E-3,-5.631405E-3,3.7366148E-2,-1.6694082E-2,-2.4292383E-2,8.982276E-3,-1.39204785E-2,3.9445717E-2,-2.5059141E-2,-1.9870102E-2,-1.023097E-2,-2.9907984E-4,-9.663707E-3,-8.768603E-3,-2.7592521E-2],"categories":[],"categories_nodes":[],"categories_segments":[],"categories_sizes":[],"default_left":[0,0,0,0,0,0,0,0,0,0,0,0,0,0,0,0,0,0,0,0,0,0,0,0,0,0,0,0,0,0,0,0,0,0,0,0,0,0,0,0,0,0,0,0,0,0,0,0,0,0,0,0,0,0,0,0,0],"id":4,"left_children":[1,3,5,7,9,11,13,15,17,19,21,23,25,27,29,31,33,35,37,-1,39,41,43,-1,45,47,49,-1,51,53,55,-1,-1,-1,-1,-1,-1,-1,-1,-1,-1,-1,-1,-1,-1,-1,-1,-1,-1,-1,-1,-1,-1,-1,-1,-1,-1],"loss_changes":[6.1972504E1,2.9020676E1,2.5794434E1,2.5382957E1,1.3139603E1,9.556885E0,1.3451317E1,2.5755852E1,1.7986702E1,3.4492416E0,7.689026E0,8.929169E0,4.208521E0,1.2109764E1,4.9924836E0,8.428384E0,7.4959564E0,3.6646805E0,1.2025253E1,0E0,3.6883392E0,6.174515E0,7.800258E0,0E0,4.4539566E0,3.0035262E0,6.13941E0,0E0,8.000359E0,2.666404E0,3.098546E0,0E0,0E0,0E0,0E0,0E0,0E0,0E0,0E0,0E0,0E0,0E0,0E0,0E0,0E0,0E0,0E0,0E0,0E0,0E0,0E0,0E0,0E0,0E0,0E0,0E0,0E0],"parents":[2147483647,0,0,1,1,2,2,3,3,4,4,5,5,6,6,7,7,8,8,9,9,10,10,11,11,12,12,13,13,14,14,15,15,16,16,17,17,18,18,20,20,21,21,22,22,24,24,25,25,26,26,28,28,29,29,30,30],"right_children":[2,4,6,8,10,12,14,16,18,20,22,24,26,28,30,32,34,36,38,-1,40,42,44,-1,46,48,50,-1,52,54,56,-1,-1,-1,-1,-1,-1,-1,-1,-1,-1,-1,-1,-1,-1,-1,-1,-1,-1,-1,-1,-1,-1,-1,-1,-1,-1],"split_conditions":[6.497596E-1,1.2153447E0,1.4971465E-1,-1.20072484E-1,-8.899045E-1,1.9495989E0,1.184605E0,3.264776E-1,-6.3290316E-1,-1.1116081E0,5.1691532E-2,-1.4840853E0,3.4795864E0,-1.5908835E0,1.2495106E0,-1.3500457E0,-6.924709E-1,-1.638482E0,1.184605E0,6.402679E-3,6.3293797E-1,1.3303459E0,1.5104525E0,-3.206358E-2,1.4195918E0,-7.9536065E-2,5.64608E-1,-2.7691646E-2,-5.623895E-1,5.016635E-1,2.5743399E0,-9.690563E-3,1.0607002E-3,-1.4863361E-2,-5.916648E-3,1.1901808E-2,-1.6088132E-2,-7.108919E-3,2.4429653E-3,-1.7535068E-2,-2.9813927E-2,-1.6454449E-2,-6.38312E-3,-5.631405E-3,3.7366148E-2,-1.6694082E-2,-2.4292383E-2,8.982276E-3,-1.39204785E-2,3.9445717E-2,-2.5059141E-2,-1.9870102E-2,-1.023097E-2,-2.9907984E-4,-9.663707E-3,-8.768603E-3,-2.7592521E-2],"split_indices":[2,3,18,2,2,4,4,3,23,24,22,24,4,24,12,24,22,5,4,0,17,5,9,0,2,11,26,0,3,26,2,0,0,0,0,0,0,0,0,0,0,0,0,0,0,0,0,0,0,0,0,0,0,0,0,0,0],"split_type":[0,0,0,0,0,0,0,0,0,0,0,0,0,0,0,0,0,0,0,0,0,0,0,0,0,0,0,0,0,0,0,0,0,0,0,0,0,0,0,0,0,0,0,0,0,0,0,0,0,0,0,0,0,0,0,0,0],"sum_hessian":[1.7267285E4,1.3107234E4,4.160052E3,1.1505949E4,1.6012843E3,1.4032101E3,2.7568418E3,4.8678555E3,6.6380938E3,3.1666794E2,1.2846163E3,1.2155844E3,1.8762576E2,2.0326935E3,7.2414844E2,3.5210247E3,1.346831E3,7.4376227E2,5.8943315E3,1.1547145E1,3.0512082E2,8.9680963E2,3.8780667E2,2.1534177E2,1.00024255E3,1.6826396E2,1.9361805E1,1.61021E2,1.8716725E3,5.897864E2,1.3436205E2,2.3975085E2,3.2812737E3,4.148954E2,9.319356E2,1.4564339E1,7.2919794E2,5.458086E3,4.3624582E2,1.3522887E2,1.6989194E2,6.317958E2,2.6501385E2,3.745011E2,1.3305587E1,6.143092E2,3.8593335E2,1.9841425E1,1.4842253E2,1.2323408E1,7.0383973E0,3.1805243E2,1.55362E3,4.7385895E2,1.1592747E2,9.7388E1,3.697404E1],"tree_param":{"num_deleted":"0","num_feature":"28","num_nodes":"57","size_leaf_vector":"1"}},{"base_weights":[-8.18272E-2,2.539107E-1,-1.8469924E-1,6.101908E-1,1.5365808E-1,1.0672126E-1,-2.4694937E-1,3.4314868E-1,7.0042014E-1,4.327749E-1,8.063424E-2,4.0822393E-1,3.6100164E-2,-1.7500746E-1,-4.3216485E-1,-1.8749703E-2,3.9180133E-1,7.601772E-1,3.999639E-1,-8.1266254E-2,4.81556E-1,1.5654886E-1,-6.417576E-2,-2.3751017E-1,4.3858272E-1,-4.0948406E-2,2.1547532E-1,-3.584395E-1,-1.3086914E-1,-3.767966E-1,-5.661531E-1,2.35E-2,-2.6505744E-2,2.269101E-2,4.5295388E-2,3.0951392E-2,4.0550428E-3,-1.7825278E-2,3.4741343E-3,4.240993E-2,2.2510527E-2,1.203187E-2,1.7811208E-3,-1.9599494E-2,-1.326832E-3,-2.7462395E-2,1.04521215E-2,2.5936948E-2,-4.869374E-3,1.5134973E-3,-1.26250135E-2,2.352642E-2,6.2657106E-3,-1.5633987E-2,-2.5515744E-2,2.110693E-3,-8.478413E-3,-1.54589E-2,-2.4593145E-2,-2.7548863E-2,-3.4334697E-2],"categories":[],"categories_nodes":[],"categories_segments":[],"categories_sizes":[],"default_left":[0,0,0,0,0,0,0,0,0,0,0,0,0,0,0,0,0,0,0,0,0,0,0,0,0,0,0,0,0,0,0,0,0,0,0,0,0,0,0,0,0,0,0,0,0,0,0,0,0,0,0,0,0,0,0,0,0,0,0,0,0],"id":5,"left_children":[1,3,5,7,9,11,13,15,17,19,21,23,25,27,29,-1,31,33,35,37,39,41,43,45,47,49,51,53,55,57,59,-1,-1,-1,-1,-1,-1,-1,-1,-1,-1,-1,-1,-1,-1,-1,-1,-1,-1,-1,-1,-1,-1,-1,-1,-1,-1,-1,-1,-1,-1],"loss_changes":[5.9701526E2,1.4480032E2,2.4003409E2,2.1429108E1,6.448716E1,4.958784E1,1.4526776E2,7.4760666E0,1.1918213E1,1.6455894E1,2.757218E1,8.673798E0,2.608123E1,6.3573944E1,2.2608032E1,0E0,5.9908676E0,1.1235168E1,5.743088E0,1.9757531E0,1.275116E1,1.2437023E1,1.0052915E1,2.202089E0,6.6487045E0,1.68656E1,1.214632E1,1.1853088E1,2.3821503E1,1.4185944E1,3.2736511E0,0E0,0E0,0E0,0E0,0E0,0E0,0E0,0E0,0E0,0E0,0E0,0E0,0E0,0E0,0E0,0E0,0E0,0E0,0E0,0E0,0E0,0E0,0E0,0E0,0E0,0E0,0E0,0E0,0E0,0E0],"parents":[2147483647,0,0,1,1,2,2,3,3,4,4,5,5,6,6,7,7,8,8,9,9,10,10,11,11,12,12,13,13,14,14,16,16,17,17,18,18,19,19,20,20,21,21,22,22,23,23,24,24,25,25,26,26,27,27,28,28,29,29,30,30],"right_children":[2,4,6,8,10,12,14,16,18,20,22,24,26,28,30,-1,32,34,36,38,40,42,44,46,48,50,52,54,56,58,60,-1,-1,-1,-1,-1,-1,-1,-1,-1,-1,-1,-1,-1,-1,-1,-1,-1,-1,-1,-1,-1,-1,-1,-1,-1,-1,-1,-1,-1,-1],"split_conditions":[-4.4450924E-1,-8.899045E-1,-5.0498855E-1,-2.7108783E-1,-1.4632702E0,-1.2748206E0,7.421259E-1,-1.5851365E0,1.7544641E0,-5.338976E-1,2.6484355E-1,-1.5851365E0,5.173414E-1,-5.338976E-1,1.6985412E0,-1.8749703E-2,2.1785824E0,2.0420456E-1,6.134668E-1,-1.3082154E-1,-2.2658124E0,8.004815E-1,-7.967073E-1,4.954996E-1,2.1785824E0,7.75684E-1,5.7991058E-2,6.497596E-1,-1.20072484E-1,2.6484355E-1,6.497596E-1,2.35E-2,-2.6505744E-2,2.269101E-2,4.5295388E-2,3.0951392E-2,4.0550428E-3,-1.7825278E-2,3.4741343E-3,4.240993E-2,2.2510527E-2,1.203187E-2,1.7811208E-3,-1.9599494E-2,-1.326832E-3,-2.7462395E-2,1.04521215E-2,2.5936948E-2,-4.869374E-3,1.5134973E-3,-1.26250135E-2,2.352642E-2,6.2657106E-3,-1.5633987E-2,-2.5515744E-2,2.110693E-3,-8.478413E-3,-1.54589E-2,-2.4593145E-2,-2.7548863E-2,-3.4334697E-2],"split_indices":[22,2,2,1,22,2,22,1,5,1,2,1,1,1,22,0,5,17,23,10,22,23,1,7,5,22,5,2,2,2,2,0,0,0,0,0,0,0,0,0,0,0,0,0,0,0,0,0,0,0,0,0,0,0,0,0,0,0,0,0,0],"split_type":[0,0,0,0,0,0,0,0,0,0,0,0,0,0,0,0,0,0,0,0,0,0,0,0,0,0,0,0,0,0,0,0,0,0,0,0,0,0,0,0,0,0,0,0,0,0,0,0,0,0,0,0,0,0,0,0,0,0,0,0,0],"sum_hessian":[1.7285518E4,4.0541323E3,1.3231385E4,8.9016907E2,3.1639631E3,2.328866E3,1.0902519E4,2.2492278E2,6.652463E2,6.5602264E2,2.5079404E3,4.4188678E2,1.8869791E3,7.852575E3,3.0499438E3,1.4945201E1,2.0997757E2,5.54771E2,1.1047533E2,5.6853767E1,5.991689E2,1.6453707E3,8.6256976E2,1.9814476E1,4.220723E2,1.3200403E3,5.6693884E2,1.5229185E3,6.3296567E3,2.1583772E3,8.915665E2,2.0242963E2,7.5479493E0,7.885163E1,4.7591934E2,7.425525E1,3.6220078E1,2.124139E1,3.5612377E1,1.2479854E2,4.7437036E2,1.10526E3,5.401108E2,1.0500393E2,7.5756586E2,1.2325316E1,7.4891586E0,3.994058E2,2.26665E1,9.671232E2,3.529171E2,1.8594257E2,3.8099628E2,8.74169E2,6.487494E2,7.369733E2,5.5926836E3,8.8204895E2,1.2763282E3,3.932477E2,4.9831882E2],"tree_param":{"num_deleted":"0","num_feature":"28","num_nodes":"61","size_leaf_vector":"1"}},{"base_weights":[2.1863478E-1,-7.208351E-2,3.624188E-1,-3.1485417E-1,6.037535E-2,6.6248035E-1,2.616364E-1,-4.660134E-1,-2.1561076E-1,2.648892E-1,-4.4753764E-2,5.7663083E-1,8.6584073E-1,7.650292E-2,3.1553912E-1,-3.7069183E-2,-4.058086E-1,2.8413817E-1,-2.5287265E-1,3.5088176E-1,1.08924285E-1,-2.1559004E-1,2.0872658E-2,7.4024165E-1,5.0356215E-1,9.127384E-1,4.922993E-1,-2.0633306E-1,1.2215747E-1,5.540776E-1,2.6955757E-1,-2.6636861E-2,-1.3639013E-2,2.7037328E-2,-2.0151802E-3,-7.692088E-3,-1.9900642E-2,3.674787E-2,1.7188564E-2,-1.0562923E-3,1.4362991E-2,-4.4044405E-3,-1.6431201E-2,1.2101344E-2,-2.79353E-3,3.6350563E-2,5.0936043E-2,2.3416834E-2,3.539406E-2,4.2378817E-2,5.610927E-2,1.03776585E-2,3.7690226E-2,-1.5858525E-2,5.7829E-4,2.295947E-3,1.53526915E-2,3.9448507E-2,2.3365054E-2,1.26700625E-2,2.4568537E-2],"categories":[],"categories_nodes":[],"categories_segments":[],"categories_sizes":[],"default_left":[0,0,0,0,0,0,0,0,0,0,0,0,0,0,0,0,0,0,0,0,0,0,0,0,0,0,0,0,0,0,0,0,0,0,0,0,0,0,0,0,0,0,0,0,0,0,0,0,0,0,0,0,0,0,0,0,0,0,0,0,0],"id":6,"left_children":[1,3,5,7,9,11,13,15,17,19,21,23,25,27,29,-1,31,33,35,37,39,41,43,45,47,49,51,53,55,57,59,-1,-1,-1,-1,-1,-1,-1,-1,-1,-1,-1,-1,-1,-1,-1,-1,-1,-1,-1,-1,-1,-1,-1,-1,-1,-1,-1,-1,-1,-1],"loss_changes":[7.293357E2,1.8567291E2,3.530204E2,3.0567627E1,8.032059E1,5.1197144E1,8.720703E1,9.873459E0,2.2921814E1,1.7007515E1,2.7664047E1,2.4642517E1,1.5219177E1,2.5450556E1,7.422473E1,0E0,7.4778976E0,5.593655E0,1.3902039E1,1.0319771E1,8.687117E0,7.5617256E0,2.5141478E1,9.527985E0,1.5589294E1,1.1408691E1,5.5823536E0,4.757291E0,2.1241753E1,2.2858368E1,4.0233887E1,0E0,0E0,0E0,0E0,0E0,0E0,0E0,0E0,0E0,0E0,0E0,0E0,0E0,0E0,0E0,0E0,0E0,0E0,0E0,0E0,0E0,0E0,0E0,0E0,0E0,0E0,0E0,0E0,0E0,0E0],"parents":[2147483647,0,0,1,1,2,2,3,3,4,4,5,5,6,6,7,7,8,8,9,9,10,10,11,11,12,12,13,13,14,14,16,16,17,17,18,18,19,19,20,20,21,21,22,22,23,23,24,24,25,25,26,26,27,27,28,28,29,29,30,30],"right_children":[2,4,6,8,10,12,14,16,18,20,22,24,26,28,30,-1,32,34,36,38,40,42,44,46,48,50,52,54,56,58,60,-1,-1,-1,-1,-1,-1,-1,-1,-1,-1,-1,-1,-1,-1,-1,-1,-1,-1,-1,-1,-1,-1,-1,-1,-1,-1,-1,-1,-1,-1],"split_conditions":[-1.20072484E-1,-8.899045E-1,-7.6837224E-1,-1.2748206E0,-3.9351952E-1,1.6985412E0,-4.4450924E-1,-1.6597366E0,-1.2524564E0,4.1961128E-1,-8.244787E-1,3.7114378E-2,2.3320959E0,-1.6742936E0,-3.453825E-1,-3.7069183E-2,-1.1773702E-2,4.1961128E-1,-3.453825E-1,-1.1205047E0,6.2507963E-1,-7.278794E-1,-7.278794E-1,1.0346757E0,1.0346757E0,6.497596E-1,1.4195918E0,4.0362892E-1,4.821093E-1,-8.2781045E-3,1.0346757E0,-2.6636861E-2,-1.3639013E-2,2.7037328E-2,-2.0151802E-3,-7.692088E-3,-1.9900642E-2,3.674787E-2,1.7188564E-2,-1.0562923E-3,1.4362991E-2,-4.4044405E-3,-1.6431201E-2,1.2101344E-2,-2.79353E-3,3.6350563E-2,5.0936043E-2,2.3416834E-2,3.539406E-2,4.2378817E-2,5.610927E-2,1.03776585E-2,3.7690226E-2,-1.5858525E-2,5.7829E-4,2.295947E-3,1.53526915E-2,3.9448507E-2,2.3365054E-2,1.26700625E-2,2.4568537E-2],"split_indices":[2,2,24,2,24,22,22,2,24,4,22,4,4,22,4,0,22,4,4,23,11,4,4,2,2,2,2,11,5,1,2,0,0,0,0,0,0,0,0,0,0,0,0,0,0,0,0,0,0,0,0,0,0,0,0,0,0,0,0,0,0],"split_type":[0,0,0,0,0,0,0,0,0,0,0,0,0,0,0,0,0,0,0,0,0,0,0,0,0,0,0,0,0,0,0,0,0,0,0,0,0,0,0,0,0,0,0,0,0,0,0,0,0,0,0,0,0,0,0,0,0,0,0,0,0],"sum_hessian":[1.7447809E4,5.7737837E3,1.1674024E4,2.0381454E3,3.7356384E3,2.9350215E3,8.739003E3,8.0765686E2,1.2304885E3,1.2682668E3,2.4673713E3,2.0640288E3,8.7099274E2,1.9706971E3,6.768306E3,1.8415752E2,6.234993E2,8.53391E1,1.1451494E3,8.174476E2,4.5081937E2,6.847221E2,1.7826493E3,6.3696106E2,1.4270677E3,7.7372253E2,9.727021E1,2.7384888E2,1.6968483E3,1.0936714E3,5.674635E3,4.2336658E2,2.0013277E2,5.209937E1,3.323973E1,5.535611E2,5.915883E2,9.3365524E1,7.2408203E2,2.4366187E2,2.0715749E2,2.559923E2,4.2872983E2,4.72591E2,1.3100583E3,4.3494342E2,2.0201762E2,8.955911E2,5.314767E2,3.1453067E2,4.5919186E2,3.722949E1,6.004072E1,1.9993724E2,7.3911644E1,1.1163647E3,5.804836E2,4.969744E2,5.96697E2,4.5999043E3,1.0747305E3],"tree_param":{"num_deleted":"0","num_feature":"28","num_nodes":"61","size_leaf_vector":"1"}},{"base_weights":[-1.379423E-1,-3.123051E-1,-1.1998928E-1,-3.5366213E-1,-1.7278317E-1,-9.513262E-2,-2.041734E-1,-2.987852E-1,-4.731333E-1,1.2703894E-1,-2.2656652E-1,-2.5174322E-2,-1.2592146E-1,-2.9293436E-1,-1.5497975E-1,-3.627717E-2,-2.881325E-1,-2.8546414E-1,-5.2549374E-1,5.1554674E-1,-1.1289637E-1,-1.740173E-1,-4.5926383E-1,8.2509905E-2,-1.0498869E-1,-2.1893753E-1,-1.0491984E-1,-3.5393158E-1,-2.0041344E-1,-2.306949E-1,-1.0916114E-1,-1.5361125E-2,-3.1355385E-2,-3.1043459E-2,-7.5794808E-3,-1.8060433E-2,-3.4123432E-2,4.8474353E-2,-2.0736582E-3,2.0606833E-2,-2.3100847E-2,-1.5737161E-2,-1.5521182E-3,-9.026295E-3,-3.158207E-2,1.3198383E-2,1.932235E-3,-8.149989E-3,4.8962543E-3,-1.00182565E-2,-1.7267179E-2,-5.0115604E-3,-8.374019E-3,-2.3033325E-2,-1.0089748E-2,-9.140504E-3,-2.2316502E-2,-1.3158374E-2,2.8714305E-2,-9.67217E-3,-3.264561E-3],"categories":[],"categories_nodes":[],"categories_segments":[],"categories_sizes":[],"default_left":[0,0,0,0,0,0,0,0,0,0,0,0,0,0,0,0,0,0,0,0,0,0,0,0,0,0,0,0,0,0,0,0,0,0,0,0,0,0,0,0,0,0,0,0,0,0,0,0,0,0,0,0,0,0,0,0,0,0,0,0,0],"id":7,"left_children":[1,3,5,7,9,11,13,15,17,19,21,23,25,27,29,-1,31,33,35,37,39,41,43,45,47,49,51,53,55,57,59,-1,-1,-1,-1,-1,-1,-1,-1,-1,-1,-1,-1,-1,-1,-1,-1,-1,-1,-1,-1,-1,-1,-1,-1,-1,-1,-1,-1,-1,-1],"loss_changes":[5.392218E1,9.273514E0,3.2681046E1,8.119019E0,5.934477E0,2.597297E1,1.5542038E1,3.2112503E0,3.8211517E0,5.226238E0,3.80719E0,3.1674644E1,1.6355148E1,7.1579666E0,7.9453506E0,0E0,2.4385605E0,3.4821591E0,5.5038834E0,4.2633686E0,5.1370883E0,4.096495E0,1.8823652E0,1.1641929E1,1.7284914E1,5.440033E0,4.556587E0,8.149094E0,3.6057892E0,4.523964E0,4.69499E0,0E0,0E0,0E0,0E0,0E0,0E0,0E0,0E0,0E0,0E0,0E0,0E0,0E0,0E0,0E0,0E0,0E0,0E0,0E0,0E0,0E0,0E0,0E0,0E0,0E0,0E0,0E0,0E0,0E0,0E0],"parents":[2147483647,0,0,1,1,2,2,3,3,4,4,5,5,6,6,7,7,8,8,9,9,10,10,11,11,12,12,13,13,14,14,16,16,17,17,18,18,19,19,20,20,21,21,22,22,23,23,24,24,25,25,26,26,27,27,28,28,29,29,30,30],"right_children":[2,4,6,8,10,12,14,16,18,20,22,24,26,28,30,-1,32,34,36,38,40,42,44,46,48,50,52,54,56,58,60,-1,-1,-1,-1,-1,-1,-1,-1,-1,-1,-1,-1,-1,-1,-1,-1,-1,-1,-1,-1,-1,-1,-1,-1,-1,-1,-1,-1,-1,-1],"split_conditions":[-1.0324801E0,1.184605E0,6.497596E-1,6.497596E-1,-1.20072484E-1,-1.1795597E-1,-1.1795597E-1,-1.4512566E0,-2.8953861E-2,-7.967073E-1,1.3296953E0,-5.0498855E-1,-7.124537E-1,8.0210817E-1,3.7114378E-2,-3.627717E-2,2.5486453E0,-5.623895E-1,1.7940111E0,9.270578E-1,-1.5107219E-1,1.0015488E0,-2.8953861E-2,-1.2748206E0,1.184605E0,1.2153447E0,7.709111E-1,6.134668E-1,1.2495106E0,4.3263793E0,3.6738724E-1,-1.5361125E-2,-3.1355385E-2,-3.1043459E-2,-7.5794808E-3,-1.8060433E-2,-3.4123432E-2,4.8474353E-2,-2.0736582E-3,2.0606833E-2,-2.3100847E-2,-1.5737161E-2,-1.5521182E-3,-9.026295E-3,-3.158207E-2,1.3198383E-2,1.932235E-3,-8.149989E-3,4.8962543E-3,-1.00182565E-2,-1.7267179E-2,-5.0115604E-3,-8.374019E-3,-2.3033325E-2,-1.0089748E-2,-9.140504E-3,-2.2316502E-2,-1.3158374E-2,2.8714305E-2,-9.67217E-3,-3.264561E-3],"split_indices":[23,4,2,2,2,3,3,3,19,1,11,2,22,4,4,0,3,3,22,11,15,10,19,2,4,3,3,23,12,3,19,0,0,0,0,0,0,0,0,0,0,0,0,0,0,0,0,0,0,0,0,0,0,0,0,0,0,0,0,0,0],"split_type":[0,0,0,0,0,0,0,0,0,0,0,0,0,0,0,0,0,0,0,0,0,0,0,0,0,0,0,0,0,0,0,0,0,0,0,0,0,0,0,0,0,0,0,0,0,0,0,0,0,0,0,0,0,0,0,0,0,0,0,0,0],"sum_hessian":[1.7226672E4,1.6080013E3,1.5618671E4,1.2402333E3,3.6776807E2,1.2058426E4,3.5602444E3,8.5008044E2,3.9015283E2,5.591873E1,3.1184933E2,3.6851672E3,8.373259E3,1.2693988E3,2.2908457E3,2.4508823E1,8.2557166E2,8.523573E1,3.0491708E2,2.1309834E1,3.46089E1,2.5452802E2,5.732131E1,1.5686998E3,2.1164673E3,1.5421647E3,6.831094E3,7.648759E2,5.0452283E2,8.635186E2,1.427327E3,7.9523157E2,3.034007E1,2.979074E1,5.5444992E1,9.560804E1,2.0930905E2,1.2875355E1,8.434479E0,1.3334818E1,2.127408E1,1.4497426E2,1.0955376E2,1.5703093E1,4.1618217E1,3.6693512E2,1.2017648E3,1.7373008E3,3.791666E2,1.0949341E3,4.4723068E2,5.211594E3,1.6194999E3,5.6161273E2,2.0326323E2,4.2979318E2,7.472963E1,8.556176E2,7.9010034E0,6.189569E2,8.083701E2],"tree_param":{"num_deleted":"0","num_feature":"28","num_nodes":"61","size_leaf_vector":"1"}},{"base_weights":[-7.960354E-2,-2.1797596E-1,1.9771768E-1,-4.5356014E-1,-1.2161472E-1,6.297222E-1,4.311234E-2,-1.2761179E-1,-5.206715E-1,3.4788203E-1,-1.6728202E-1,7.7477795E-1,4.6316496E-1,-2.548034E-1,1.2070973E-1,-3.7099746E-1,8.556516E-2,-6.065938E-1,-4.5456195E-1,4.591085E-1,4.983542E-2,-2.1444094E-1,1.7009558E-1,8.3410573E-1,3.9123183E-1,5.983921E-1,3.1220278E-1,-4.774685E-2,-3.3277804E-1,4.413053E-2,3.142674E-1,1.0427546E-2,-2.429041E-2,4.6915203E-2,1.7642386E-3,-3.457057E-2,-2.3561865E-2,-2.0280173E-2,-3.0193098E-2,1.5893467E-2,3.467152E-2,1.4062106E-2,-5.3284653E-3,-8.566921E-3,-2.1043861E-2,1.4030307E-2,-8.281174E-3,3.4491677E-2,5.188057E-2,1.1293863E-2,3.6901098E-2,1.48244295E-2,3.8842842E-2,1.1821802E-2,3.8487744E-2,1.5743347E-2,-5.9300424E-3,-1.0166098E-2,-2.2737592E-2,1.1375494E-2,-4.2108083E-3,2.9573992E-2,1.1283463E-2],"categories":[],"categories_nodes":[],"categories_segments":[],"categories_sizes":[],"default_left":[0,0,0,0,0,0,0,0,0,0,0,0,0,0,0,0,0,0,0,0,0,0,0,0,0,0,0,0,0,0,0,0,0,0,0,0,0,0,0,0,0,0,0,0,0,0,0,0,0,0,0,0,0,0,0,0,0,0,0,0,0,0,0],"id":8,"left_children":[1,3,5,7,9,11,13,15,17,19,21,23,25,27,29,31,33,35,37,39,41,43,45,47,49,51,53,55,57,59,61,-1,-1,-1,-1,-1,-1,-1,-1,-1,-1,-1,-1,-1,-1,-1,-1,-1,-1,-1,-1,-1,-1,-1,-1,-1,-1,-1,-1,-1,-1,-1,-1],"loss_changes":[6.5879333E2,2.5999536E2,3.8168378E2,7.2721924E1,1.7428595E2,3.63562E1,9.7296135E1,2.946206E1,1.5635803E1,2.3885986E1,1.1786754E2,1.828595E1,1.4300308E1,1.4040321E1,4.9491337E1,1.005299E1,1.2382893E1,3.8433838E0,1.2470398E1,1.5072044E1,5.845519E0,6.4277435E1,2.4203403E1,1.5098511E1,5.5541916E0,1.2601822E1,1.2516731E1,4.695423E0,7.3350983E0,4.6394222E1,2.2982811E1,0E0,0E0,0E0,0E0,0E0,0E0,0E0,0E0,0E0,0E0,0E0,0E0,0E0,0E0,0E0,0E0,0E0,0E0,0E0,0E0,0E0,0E0,0E0,0E0,0E0,0E0,0E0,0E0,0E0,0E0,0E0,0E0],"parents":[2147483647,0,0,1,1,2,2,3,3,4,4,5,5,6,6,7,7,8,8,9,9,10,10,11,11,12,12,13,13,14,14,15,15,16,16,17,17,18,18,19,19,20,20,21,21,22,22,23,23,24,24,25,25,26,26,27,27,28,28,29,29,30,30],"right_children":[2,4,6,8,10,12,14,16,18,20,22,24,26,28,30,32,34,36,38,40,42,44,46,48,50,52,54,56,58,60,62,-1,-1,-1,-1,-1,-1,-1,-1,-1,-1,-1,-1,-1,-1,-1,-1,-1,-1,-1,-1,-1,-1,-1,-1,-1,-1,-1,-1,-1,-1,-1,-1],"split_conditions":[3.264776E-1,-5.623895E-1,-5.0498855E-1,-8.899045E-1,-8.899045E-1,-8.899045E-1,-8.302464E-1,-1.0068231E0,-1.0068231E0,9.0622765E-1,5.837544E-1,8.1282043E-1,4.821093E-1,2.6484355E-1,1.6597781E0,-1.6597366E0,-1.5102898E0,5.2926666E-1,2.6484355E-1,1.2643361E-1,-1.2748206E0,2.6484355E-1,2.6484355E-1,7.709111E-1,5.147168E-1,-4.0433446E-1,2.1042118E0,-7.9024553E-1,-3.6612722E-1,2.6484355E-1,-6.2499076E-1,1.0427546E-2,-2.429041E-2,4.6915203E-2,1.7642386E-3,-3.457057E-2,-2.3561865E-2,-2.0280173E-2,-3.0193098E-2,1.5893467E-2,3.467152E-2,1.4062106E-2,-5.3284653E-3,-8.566921E-3,-2.1043861E-2,1.4030307E-2,-8.281174E-3,3.4491677E-2,5.188057E-2,1.1293863E-2,3.6901098E-2,1.48244295E-2,3.8842842E-2,1.1821802E-2,3.8487744E-2,1.5743347E-2,-5.9300424E-3,-1.0166098E-2,-2.2737592E-2,1.1375494E-2,-4.2108083E-3,2.9573992E-2,1.1283463E-2],"split_indices":[3,3,2,2,2,2,24,3,3,5,24,10,5,2,3,2,22,24,2,24,2,2,2,3,24,24,3,5,5,2,22,0,0,0,0,0,0,0,0,0,0,0,0,0,0,0,0,0,0,0,0,0,0,0,0,0,0,0,0,0,0,0,0],"split_type":[0,0,0,0,0,0,0,0,0,0,0,0,0,0,0,0,0,0,0,0,0,0,0,0,0,0,0,0,0,0,0,0,0,0,0,0,0,0,0,0,0,0,0,0,0,0,0,0,0,0,0,0,0,0,0,0,0,0,0,0,0,0,0],"sum_hessian":[1.7167682E4,1.1453069E4,5.7146133E3,3.3246423E3,8.128427E3,1.5060552E3,4.208558E3,5.6769696E2,2.7569453E3,7.205007E2,7.4079263E3,8.048107E2,7.012445E2,8.69629E2,3.3389292E3,2.6503632E2,3.0266064E2,1.1985094E3,1.5584359E3,5.246576E2,1.9584306E2,6.499459E3,9.0846686E2,6.9690576E2,1.0790499E2,3.6975867E2,3.314858E2,2.3794028E2,6.316888E2,2.392479E3,9.464501E2,2.8612785E1,2.3642352E2,1.9841217E1,2.8281943E2,1.0908683E3,1.0764106E2,7.904666E2,7.679693E2,2.5865622E2,2.6600137E2,8.165603E1,1.14187035E2,4.777708E3,1.7217513E3,7.206494E2,1.8781747E2,2.2868346E2,4.682223E2,6.43159E1,4.358909E1,8.803108E1,2.817276E2,2.6368533E2,6.780049E1,3.602949E1,2.019108E2,2.168493E2,4.1483948E2,1.02136444E3,1.3711146E3,3.1634656E2,6.301035E2],"tree_param":{"num_deleted":"0","num_feature":"28","num_nodes":"63","size_leaf_vector":"1"}},{"base_weights":[2.1106943E-1,1.2610978E-1,5.655004E-1,2.3560232E-1,-8.86918E-2,7.791606E-1,4.6418244E-1,4.4734266E-1,1.6205704E-1,-2.5638434E-1,1.8510759E-2,8.415125E-1,5.2370906E-1,4.1188174E-1,7.653227E-1,7.945796E-1,4.1126084E-1,-6.118219E-2,2.1957533E-1,-2.0049436E-1,-4.5935005E-1,9.5508106E-2,-8.6245485E-2,5.516142E-2,7.472532E-1,5.8520507E-2,4.4065192E-1,4.9040923E-1,2.2275145E-1,6.085701E-1,8.790212E-1,4.5739718E-2,1.6725605E-2,8.653116E-3,2.557143E-2,-5.5537517E-3,2.059751E-2,1.0925754E-2,2.1876179E-2,-1.6026413E-2,-6.45687E-3,-2.6440384E-2,2.6924568E-3,3.231952E-3,1.5777756E-2,-8.028209E-3,5.36346E-3,5.653125E-2,3.9124005E-2,3.5497542E-2,1.503855E-2,3.21409E-2,1.9435272E-2,3.232758E-2,1.0536032E-2,3.7871547E-2,5.7655494E-3,5.034533E-2,2.6512055E-2],"categories":[],"categories_nodes":[],"categories_segments":[],"categories_sizes":[],"default_left":[0,0,0,0,0,0,0,0,0,0,0,0,0,0,0,0,0,0,0,0,0,0,0,0,0,0,0,0,0,0,0,0,0,0,0,0,0,0,0,0,0,0,0,0,0,0,0,0,0,0,0,0,0,0,0,0,0,0,0],"id":9,"left_children":[1,3,5,7,9,11,13,15,17,19,21,23,25,27,29,31,33,35,37,39,41,43,45,-1,47,-1,49,51,53,55,57,-1,-1,-1,-1,-1,-1,-1,-1,-1,-1,-1,-1,-1,-1,-1,-1,-1,-1,-1,-1,-1,-1,-1,-1,-1,-1,-1,-1],"loss_changes":[5.304437E2,3.3420203E2,7.370154E1,1.4656256E2,8.624959E1,1.7409119E1,3.6364716E1,3.0369781E1,8.970137E1,2.1215904E1,2.3608292E1,1.2781006E1,9.488781E0,2.9233124E1,6.0438538E0,3.527771E0,2.8360107E1,2.426577E1,2.1673218E1,1.094582E1,3.7404175E0,1.1867052E1,1.3343664E1,0E0,6.0210876E0,0E0,6.2991905E0,1.745578E1,6.7614956E0,5.4755363E0,2.3622284E0,0E0,0E0,0E0,0E0,0E0,0E0,0E0,0E0,0E0,0E0,0E0,0E0,0E0,0E0,0E0,0E0,0E0,0E0,0E0,0E0,0E0,0E0,0E0,0E0,0E0,0E0,0E0,0E0],"parents":[2147483647,0,0,1,1,2,2,3,3,4,4,5,5,6,6,7,7,8,8,9,9,10,10,11,11,12,12,13,13,14,14,15,15,16,16,17,17,18,18,19,19,20,20,21,21,22,22,24,24,26,26,27,27,28,28,29,29,30,30],"right_children":[2,4,6,8,10,12,14,16,18,20,22,24,26,28,30,32,34,36,38,40,42,44,46,-1,48,-1,50,52,54,56,58,-1,-1,-1,-1,-1,-1,-1,-1,-1,-1,-1,-1,-1,-1,-1,-1,-1,-1,-1,-1,-1,-1,-1,-1,-1,-1,-1,-1],"split_conditions":[8.4873646E-1,3.264776E-1,-5.623895E-1,-5.623895E-1,-4.4450924E-1,1.5671021E0,2.180472E0,-1.4512566E0,-5.0317883E-1,1.8609282E0,1.2153447E0,-1.2386633E0,-2.1836038E0,8.0210817E-1,-3.6612722E-1,1.2328992E0,-7.124537E-1,1.7544641E0,1.2017311E0,4.821093E-1,1.2725496E0,1.3303459E0,1.3303459E0,5.516142E-2,-1.4512566E0,5.8520507E-2,-1.0068231E0,3.264776E-1,-1.4226617E0,1.7014095E0,2.0655596E0,4.5739718E-2,1.6725605E-2,8.653116E-3,2.557143E-2,-5.5537517E-3,2.059751E-2,1.0925754E-2,2.1876179E-2,-1.6026413E-2,-6.45687E-3,-2.6440384E-2,2.6924568E-3,3.231952E-3,1.5777756E-2,-8.028209E-3,5.36346E-3,5.653125E-2,3.9124005E-2,3.5497542E-2,1.503855E-2,3.21409E-2,1.9435272E-2,3.232758E-2,1.0536032E-2,3.7871547E-2,5.7655494E-3,5.034533E-2,2.6512055E-2],"split_indices":[22,3,3,3,22,4,22,3,22,24,3,23,24,4,5,9,22,5,8,5,9,5,5,0,3,0,3,3,20,21,9,0,0,0,0,0,0,0,0,0,0,0,0,0,0,0,0,0,0,0,0,0,0,0,0,0,0,0,0],"split_type":[0,0,0,0,0,0,0,0,0,0,0,0,0,0,0,0,0,0,0,0,0,0,0,0,0,0,0,0,0,0,0,0,0,0,0,0,0,0,0,0,0,0,0,0,0,0,0,0,0,0,0,0,0,0,0,0,0,0,0],"sum_hessian":[1.7615621E4,1.4209599E4,3.4060215E3,9.411957E3,4.7976416E3,1.0954087E3,2.3106128E3,2.4262395E3,6.9857173E3,1.8709174E3,2.9267244E3,8.8032697E2,2.1508173E2,1.9688804E3,3.4173254E2,2.2820341E2,2.1980361E3,1.4311503E3,5.554567E3,1.4671053E3,4.0381213E2,1.6868634E3,1.2398608E3,3.328145E2,5.4751245E2,2.884079E1,1.8624094E2,1.3911335E3,5.777468E2,1.4390665E2,1.9782588E2,2.1439516E2,1.3808258E1,3.6412692E2,1.8339093E3,1.3126539E3,1.18496414E2,4.9303657E3,6.2420135E2,7.117686E2,7.553367E2,3.8983514E2,1.3976976E1,1.4105471E3,2.7631625E2,9.386719E2,3.0118896E2,7.040066E1,4.7711182E2,8.5070656E1,1.0117027E2,8.446416E2,5.4649194E2,4.750225E1,5.3024457E2,1.2514997E2,1.8756681E1,1.8378398E2,1.4041911E1],"tree_param":{"num_deleted":"0","num_feature":"28","num_nodes":"59","size_leaf_vector":"1"}},{"base_weights":[-1.3413584E-1,-3.1079233E-1,-1.1774666E-1,-3.4432855E-1,-1.4658888E-1,-9.5054485E-2,-1.9574858E-1,-2.9358876E-1,-4.4321993E-1,3.6417764E-1,-1.9329138E-1,-3.4009792E-2,-1.22110195E-1,-3.2866168E-1,-1.6026741E-1,-2.7095973E-1,-4.1508535E-1,-3.0246329E-2,-3.873889E-1,4.1950542E-2,-6.0547353E-3,-1.5123338E-1,-2.6862241E-2,5.4270495E-2,-9.852046E-2,-1.0049134E-1,-2.057066E-1,-3.589941E-1,-1.1852035E-1,-1.944005E-1,-6.044664E-2,-1.4337929E-2,-3.0066151E-2,-2.7448045E-2,-1.2387978E-2,-2.3399796E-2,-9.8594045E-3,1.6863478E-2,-1.0230378E-2,9.461723E-3,1.1091732E-3,-2.2682142E-2,-4.43511E-3,-6.3934475E-3,-1.0526801E-3,-9.637572E-3,-1.5677528E-2,-2.4715327E-2,-1.600379E-2,-1.0268747E-2,1.4464938E-2,-9.077487E-3,-1.5752517E-2,2.2648335E-2,-3.9720275E-3],"categories":[],"categories_nodes":[],"categories_segments":[],"categories_sizes":[],"default_left":[0,0,0,0,0,0,0,0,0,0,0,0,0,0,0,0,0,0,0,0,0,0,0,0,0,0,0,0,0,0,0,0,0,0,0,0,0,0,0,0,0,0,0,0,0,0,0,0,0,0,0,0,0,0,0],"id":10,"left_children":[1,3,5,7,9,11,13,15,17,19,21,23,25,27,29,31,33,-1,35,-1,-1,37,-1,39,41,43,45,47,49,51,53,-1,-1,-1,-1,-1,-1,-1,-1,-1,-1,-1,-1,-1,-1,-1,-1,-1,-1,-1,-1,-1,-1,-1,-1],"loss_changes":[4.9407227E1,7.9737396E0,2.7641495E1,6.0247345E0,5.871441E0,1.998079E1,1.6592407E1,2.1765442E0,2.3279343E0,3.8519425E0,2.7597198E0,2.1159966E1,1.5147804E1,4.72229E0,9.464188E0,2.1748161E0,1.9151707E0,0E0,1.947773E0,0E0,0E0,3.0190434E0,0E0,6.26371E0,1.2296827E1,8.133461E0,4.2156906E0,3.9490433E0,2.3860292E0,5.6751556E0,3.7579625E0,0E0,0E0,0E0,0E0,0E0,0E0,0E0,0E0,0E0,0E0,0E0,0E0,0E0,0E0,0E0,0E0,0E0,0E0,0E0,0E0,0E0,0E0,0E0,0E0],"parents":[2147483647,0,0,1,1,2,2,3,3,4,4,5,5,6,6,7,7,8,8,9,9,10,10,11,11,12,12,13,13,14,14,15,15,16,16,18,18,21,21,23,23,24,24,25,25,26,26,27,27,28,28,29,29,30,30],"right_children":[2,4,6,8,10,12,14,16,18,20,22,24,26,28,30,32,34,-1,36,-1,-1,38,-1,40,42,44,46,48,50,52,54,-1,-1,-1,-1,-1,-1,-1,-1,-1,-1,-1,-1,-1,-1,-1,-1,-1,-1,-1,-1,-1,-1,-1,-1],"split_conditions":[-1.1205047E0,1.5671021E0,6.497596E-1,6.497596E-1,-5.0498855E-1,-1.1795597E-1,-5.623895E-1,1.0277172E0,-5.623895E-1,4.8628962E-1,4.821093E-1,-5.0498855E-1,5.54462E-1,1.9495989E0,1.184605E0,2.5486453E0,-1.4973722E0,-3.0246329E-2,-1.2640389E0,4.1950542E-2,-6.0547353E-3,-5.705055E-1,-2.6862241E-2,-1.2748206E0,-1.4512566E0,9.0622765E-1,1.2153447E0,1.4971465E-1,1.2687037E0,1.8045077E0,-8.9101064E-1,-1.4337929E-2,-3.0066151E-2,-2.7448045E-2,-1.2387978E-2,-2.3399796E-2,-9.8594045E-3,1.6863478E-2,-1.0230378E-2,9.461723E-3,1.1091732E-3,-2.2682142E-2,-4.43511E-3,-6.3934475E-3,-1.0526801E-3,-9.637572E-3,-1.5677528E-2,-2.4715327E-2,-1.600379E-2,-1.0268747E-2,1.4464938E-2,-9.077487E-3,-1.5752517E-2,2.2648335E-2,-3.9720275E-3],"split_indices":[23,4,2,2,2,3,3,11,3,19,5,2,24,4,4,3,23,0,23,0,0,18,0,2,3,5,3,18,25,2,23,0,0,0,0,0,0,0,0,0,0,0,0,0,0,0,0,0,0,0,0,0,0,0,0],"split_type":[0,0,0,0,0,0,0,0,0,0,0,0,0,0,0,0,0,0,0,0,0,0,0,0,0,0,0,0,0,0,0,0,0,0,0,0,0,0,0,0,0,0,0,0,0,0,0,0,0,0,0,0,0,0,0],"sum_hessian":[1.7065955E4,1.448727E3,1.5617229E4,1.2029436E3,2.4578342E2,1.2097924E4,3.5193042E3,7.952634E2,4.0768024E2,2.0539305E1,2.2524411E2,3.715346E3,8.382578E3,7.4137067E2,2.7779333E3,6.706459E2,1.2461756E2,1.4294127E2,2.6473895E2,1.1187605E1,9.3517E0,1.9699701E2,2.8247107E1,1.5686815E3,2.1466646E3,6.660345E3,1.7222329E3,6.478012E2,9.356947E1,2.0700178E3,7.0791565E2,6.4251917E2,2.8126667E1,8.75526E1,3.7064957E1,2.2649033E2,3.824862E1,1.34551935E1,1.8354181E2,3.559058E2,1.2127758E3,1.1982162E2,2.0268429E3,5.625484E3,1.0348617E3,1.2230897E3,4.9914313E2,2.876888E2,3.6011243E2,7.958514E1,1.3984334E1,1.5475482E3,5.2246954E2,1.65575E1,6.9135815E2],"tree_param":{"num_deleted":"0","num_feature":"28","num_nodes":"55","size_leaf_vector":"1"}},{"base_weights":[-8.073317E-2,-3.5190785E-1,4.9350586E-2,1.8969342E-2,-4.2522776E-1,3.796556E-1,-8.407889E-2,-3.8323084E-1,1.7649794E-1,-5.145893E-1,-3.0145466E-1,6.2274235E-1,2.504265E-1,2.3774108E-1,-1.4548399E-1,-3.669284E-2,-2.841098E-1,2.9696012E-1,1.8346902E-2,-5.974915E-1,-4.5018902E-1,-1.2414864E-1,-3.9158088E-1,4.6181822E-1,8.0566955E-1,3.3857602E-1,5.50416E-3,4.9145535E-1,1.4436164E-1,-1.0790159E-1,-3.4673035E-1,2.2313466E-2,-1.9508319E-2,1.85405E-2,-2.7626764E-3,-4.052775E-3,2.1004923E-2,-3.910187E-2,-3.129904E-2,-1.3622836E-2,-2.6942804E-2,6.4689794E-4,-1.4935577E-2,-2.7117914E-2,-1.8110089E-2,3.3100255E-2,1.5640201E-2,4.920633E-2,2.5023133E-2,6.625708E-3,2.3228781E-2,1.62513E-2,-2.4850143E-3,3.354251E-2,1.5868176E-2,1.2968831E-2,-2.4101941E-3,-7.84621E-3,4.0577976E-3,-2.253519E-2,-1.2040189E-2],"categories":[],"categories_nodes":[],"categories_segments":[],"categories_sizes":[],"default_left":[0,0,0,0,0,0,0,0,0,0,0,0,0,0,0,0,0,0,0,0,0,0,0,0,0,0,0,0,0,0,0,0,0,0,0,0,0,0,0,0,0,0,0,0,0,0,0,0,0,0,0,0,0,0,0,0,0,0,0,0,0],"id":11,"left_children":[1,3,5,7,9,11,13,15,17,19,21,23,25,27,29,-1,31,33,35,37,39,41,43,45,47,49,51,53,55,57,59,-1,-1,-1,-1,-1,-1,-1,-1,-1,-1,-1,-1,-1,-1,-1,-1,-1,-1,-1,-1,-1,-1,-1,-1,-1,-1,-1,-1,-1,-1],"loss_changes":[6.029522E2,1.5068274E2,5.0910452E2,5.7962093E1,5.1159058E1,1.0439621E2,1.6259717E2,7.116539E0,1.252298E1,1.4319702E1,3.0997208E1,3.3924866E1,4.6854233E1,3.1228844E1,5.2255753E1,0E0,8.934255E0,4.9094734E0,9.400058E0,4.072357E0,1.1244385E1,1.2935127E1,8.1310425E0,1.4961487E1,1.5828949E1,2.8286469E1,8.338472E0,8.294891E0,1.6278831E1,3.567813E1,8.466904E0,0E0,0E0,0E0,0E0,0E0,0E0,0E0,0E0,0E0,0E0,0E0,0E0,0E0,0E0,0E0,0E0,0E0,0E0,0E0,0E0,0E0,0E0,0E0,0E0,0E0,0E0,0E0,0E0,0E0,0E0],"parents":[2147483647,0,0,1,1,2,2,3,3,4,4,5,5,6,6,7,7,8,8,9,9,10,10,11,11,12,12,13,13,14,14,16,16,17,17,18,18,19,19,20,20,21,21,22,22,23,23,24,24,25,25,26,26,27,27,28,28,29,29,30,30],"right_children":[2,4,6,8,10,12,14,16,18,20,22,24,26,28,30,-1,32,34,36,38,40,42,44,46,48,50,52,54,56,58,60,-1,-1,-1,-1,-1,-1,-1,-1,-1,-1,-1,-1,-1,-1,-1,-1,-1,-1,-1,-1,-1,-1,-1,-1,-1,-1,-1,-1,-1,-1],"split_conditions":[-1.1795597E-1,-8.899045E-1,-1.20072484E-1,-1.0068231E0,-5.623895E-1,-8.899045E-1,-5.513891E-1,-1.4512566E0,-7.9216E-2,-1.0068231E0,-1.20072484E-1,7.709111E-1,2.4092714E-1,-1.4632702E0,9.361582E-1,-3.669284E-2,-1.6597366E0,1.7544641E0,1.6629454E-1,-1.4512566E0,-5.0498855E-1,5.7991058E-2,3.7114378E-2,4.821093E-1,1.9747233E-1,3.264776E-1,-7.9024553E-1,4.821093E-1,6.497596E-1,1.2153447E0,8.0210817E-1,2.2313466E-2,-1.9508319E-2,1.85405E-2,-2.7626764E-3,-4.052775E-3,2.1004923E-2,-3.910187E-2,-3.129904E-2,-1.3622836E-2,-2.6942804E-2,6.4689794E-4,-1.4935577E-2,-2.7117914E-2,-1.8110089E-2,3.3100255E-2,1.5640201E-2,4.920633E-2,2.5023133E-2,6.625708E-3,2.3228781E-2,1.62513E-2,-2.4850143E-3,3.354251E-2,1.5868176E-2,1.2968831E-2,-2.4101941E-3,-7.84621E-3,4.0577976E-3,-2.253519E-2,-1.2040189E-2],"split_indices":[3,2,2,3,3,2,22,3,22,3,2,3,22,22,22,0,2,5,0,3,2,5,4,5,22,3,5,5,2,3,4,0,0,0,0,0,0,0,0,0,0,0,0,0,0,0,0,0,0,0,0,0,0,0,0,0,0,0,0,0,0],"split_type":[0,0,0,0,0,0,0,0,0,0,0,0,0,0,0,0,0,0,0,0,0,0,0,0,0,0,0,0,0,0,0,0,0,0,0,0,0,0,0,0,0,0,0,0,0,0,0,0,0,0,0,0,0,0,0,0,0,0,0,0,0],"sum_hessian":[1.7092566E4,5.54118E3,1.1551386E4,9.1464764E2,4.6265327E3,3.3236113E3,8.227774E3,2.5737958E2,6.5726807E2,2.6865881E3,1.9399447E3,1.1534902E3,2.1701208E3,1.3183151E3,6.90946E3,6.724258E1,1.9013701E2,3.7304428E2,2.8422375E2,1.1742429E3,1.5123452E3,6.5384503E2,1.2860997E3,6.138204E2,5.396699E2,1.5957598E3,5.7436115E2,3.5456583E2,9.637492E2,5.822295E3,1.0871647E3,1.7139534E1,1.7299748E2,3.362827E2,3.6761562E1,2.2678984E2,5.7433933E1,2.675482E2,9.066947E2,2.2926965E2,1.2830756E3,3.3833347E2,3.1551157E2,5.094099E2,7.766898E2,3.4890906E2,2.6491132E2,4.368857E2,1.0278421E2,4.3100134E2,1.1647584E3,8.545487E1,4.889063E2,2.2739813E2,1.271677E2,6.518849E2,3.118643E2,4.906561E3,9.1573395E2,7.4118335E2,3.4598138E2],"tree_param":{"num_deleted":"0","num_feature":"28","num_nodes":"61","size_leaf_vector":"1"}},{"base_weights":[1.9823988E-1,-1.6596109E-1,2.9634562E-1,1.610418E-1,-2.8622144E-1,5.812873E-1,1.7056409E-1,-2.218726E-1,2.5949147E-1,-5.5184156E-1,-2.1758601E-1,4.60712E-1,7.531091E-1,1.2119567E-1,4.8359454E-1,1.4878684E-2,-3.846886E-1,4.3694845E-1,1.04654595E-1,-4.722342E-1,-3.4269497E-2,-3.745378E-1,-1.6290353E-1,6.9191897E-1,3.824046E-1,8.5408646E-1,5.972632E-1,-6.94569E-2,1.7790624E-1,8.099562E-1,4.2539632E-1,-2.5257656E-2,8.195434E-3,-3.5750538E-2,-1.7424716E-2,1.5813276E-2,3.1175312E-2,1.6768059E-2,-3.0472553E-3,-3.5825808E-2,-2.3290826E-2,-2.2868153E-2,-1.009639E-2,-1.1673787E-2,3.0054369E-3,4.3622293E-2,2.7723603E-2,1.6462836E-2,2.7189469E-2,4.010613E-2,5.0119296E-2,4.3876924E-2,2.6754655E-2,-1.1896927E-2,-3.3127383E-4,-4.885258E-3,1.14737665E-2,1.7856786E-2,4.7587637E-2,5.3861374E-3,2.561771E-2],"categories":[],"categories_nodes":[],"categories_segments":[],"categories_sizes":[],"default_left":[0,0,0,0,0,0,0,0,0,0,0,0,0,0,0,0,0,0,0,0,0,0,0,0,0,0,0,0,0,0,0,0,0,0,0,0,0,0,0,0,0,0,0,0,0,0,0,0,0,0,0,0,0,0,0,0,0,0,0,0,0],"id":12,"left_children":[1,3,5,7,9,11,13,15,17,19,21,23,25,27,29,31,33,35,37,39,-1,41,43,45,47,49,51,53,55,57,59,-1,-1,-1,-1,-1,-1,-1,-1,-1,-1,-1,-1,-1,-1,-1,-1,-1,-1,-1,-1,-1,-1,-1,-1,-1,-1,-1,-1,-1,-1],"loss_changes":[6.3261945E2,1.4776144E2,4.9989734E2,3.809205E1,5.0070694E1,8.8463135E1,1.4953699E2,7.967458E0,2.2079819E1,2.9881287E0,1.8731247E1,4.54256E1,2.7671143E1,9.037462E1,2.5006287E1,5.294111E0,2.2182083E0,7.133934E0,1.3591579E1,2.3049355E0,0E0,4.167282E0,1.686383E1,1.1617249E1,1.7324097E1,7.032593E0,1.5388214E1,1.7689365E1,5.0298553E1,4.793442E0,1.3694885E1,0E0,0E0,0E0,0E0,0E0,0E0,0E0,0E0,0E0,0E0,0E0,0E0,0E0,0E0,0E0,0E0,0E0,0E0,0E0,0E0,0E0,0E0,0E0,0E0,0E0,0E0,0E0,0E0,0E0,0E0],"parents":[2147483647,0,0,1,1,2,2,3,3,4,4,5,5,6,6,7,7,8,8,9,9,10,10,11,11,12,12,13,13,14,14,15,15,16,16,17,17,18,18,19,19,21,21,22,22,23,23,24,24,25,25,26,26,27,27,28,28,29,29,30,30],"right_children":[2,4,6,8,10,12,14,16,18,20,22,24,26,28,30,32,34,36,38,40,-1,42,44,46,48,50,52,54,56,58,60,-1,-1,-1,-1,-1,-1,-1,-1,-1,-1,-1,-1,-1,-1,-1,-1,-1,-1,-1,-1,-1,-1,-1,-1,-1,-1,-1,-1,-1,-1],"split_conditions":[-5.0498855E-1,-5.623895E-1,-1.1795597E-1,-1.2748206E0,-1.2748206E0,6.497596E-1,9.361582E-1,2.5292426E-1,-1.0068231E0,3.264776E-1,-8.1721526E-1,-1.0068231E0,1.8961675E-1,-4.4450924E-1,-1.8974876E0,-1.6597366E0,-1.6597366E0,-8.899045E-1,-2.0714952E-1,-1.6597366E0,-3.4269497E-2,1.7544641E0,1.3303459E0,1.2409662E-2,5.7991058E-2,1.0346757E0,1.4971465E-1,1.1964904E-1,-1.20072484E-1,-2.08233E0,-1.20072484E-1,-2.5257656E-2,8.195434E-3,-3.5750538E-2,-1.7424716E-2,1.5813276E-2,3.1175312E-2,1.6768059E-2,-3.0472553E-3,-3.5825808E-2,-2.3290826E-2,-2.2868153E-2,-1.009639E-2,-1.1673787E-2,3.0054369E-3,4.3622293E-2,2.7723603E-2,1.6462836E-2,2.7189469E-2,4.010613E-2,5.0119296E-2,4.3876924E-2,2.6754655E-2,-1.1896927E-2,-3.3127383E-4,-4.885258E-3,1.14737665E-2,1.7856786E-2,4.7587637E-2,5.3861374E-3,2.561771E-2],"split_indices":[2,3,3,2,2,2,22,17,3,3,22,3,23,22,24,2,2,2,24,2,0,5,5,24,5,2,18,23,2,16,2,0,0,0,0,0,0,0,0,0,0,0,0,0,0,0,0,0,0,0,0,0,0,0,0,0,0,0,0,0,0],"split_type":[0,0,0,0,0,0,0,0,0,0,0,0,0,0,0,0,0,0,0,0,0,0,0,0,0,0,0,0,0,0,0,0,0,0,0,0,0,0,0,0,0,0,0,0,0,0,0,0,0,0,0,0,0,0,0,0,0,0,0,0,0],"sum_hessian":[1.7705234E4,3.757201E3,1.3948034E4,1.01022986E3,2.7469712E3,4.2714023E3,9.676631E3,2.0659135E2,8.036385E2,5.639276E2,2.1830435E3,2.5102065E3,1.7611959E3,8.358523E3,1.3181075E3,8.4215385E1,1.2237597E2,3.743897E2,4.2924878E2,2.58339E2,3.0558862E2,5.639226E2,1.619121E3,6.349053E2,1.8753013E3,1.0684861E3,6.9270984E2,1.916274E3,6.4422495E3,1.993022E2,1.1188053E3,1.850931E1,6.570607E1,2.570826E1,9.666771E1,1.7033989E2,2.0404984E2,1.9149046E2,2.3775833E2,5.8584698E1,1.997543E2,4.6969604E2,9.422653E1,1.326306E3,2.9281494E2,4.2248166E2,2.1242361E2,1.0522728E3,8.2302844E2,3.027243E2,7.657618E2,2.5518329E2,4.3752655E2,5.821848E2,1.3340894E3,6.3955615E2,5.8026934E3,1.8463099E1,1.808391E2,1.1427721E2,1.00452814E3],"tree_param":{"num_deleted":"0","num_feature":"28","num_nodes":"61","size_leaf_vector":"1"}},{"base_weights":[-1.2846045E-1,-9.049329E-2,-2.0240712E-1,-8.423322E-3,-1.2557201E-1,-3.998689E-1,-1.7813663E-1,1.293451E-1,-6.066793E-2,-2.1487187E-1,-1.0389943E-1,-4.6687105E-1,-2.7383885E-1,-2.5338584E-1,-1.4004587E-1,3.715868E-1,1.05699316E-1,-8.43097E-2,1.4868626E-1,-1.4895126E-1,-2.5877318E-1,-4.5506425E-2,-1.2340163E-1,-4.9945208E-1,-2.83888E-1,-4.2938977E-1,-1.9864525E-1,-2.6792938E-1,1.2580186E-1,-1.695214E-1,-4.2944085E-2,5.4909352E-2,1.595542E-2,5.199428E-3,3.5757516E-2,-3.167301E-3,-1.3443885E-2,1.2601002E-2,-2.1606227E-3,-1.0781172E-2,2.0232475E-4,-1.742894E-2,-1.012993E-2,-2.9012598E-3,1.5875988E-2,-7.6144016E-3,-1.8567975E-3,-1.908607E-2,-2.9498229E-2,9.676464E-3,-1.9977614E-2,-1.4091845E-2,-3.1553183E-2,2.6500896E-2,-1.3713326E-2,-2.5165416E-2,-1.3313354E-2,-3.4235038E-3,3.0722357E-2,-9.803177E-3,8.924302E-3,1.50416335E-2,-3.5915861E-3],"categories":[],"categories_nodes":[],"categories_segments":[],"categories_sizes":[],"default_left":[0,0,0,0,0,0,0,0,0,0,0,0,0,0,0,0,0,0,0,0,0,0,0,0,0,0,0,0,0,0,0,0,0,0,0,0,0,0,0,0,0,0,0,0,0,0,0,0,0,0,0,0,0,0,0,0,0,0,0,0,0,0,0],"id":13,"left_children":[1,3,5,7,9,11,13,15,17,19,21,23,25,27,29,31,33,35,37,39,41,43,45,47,49,51,53,55,57,59,61,-1,-1,-1,-1,-1,-1,-1,-1,-1,-1,-1,-1,-1,-1,-1,-1,-1,-1,-1,-1,-1,-1,-1,-1,-1,-1,-1,-1,-1,-1,-1,-1],"loss_changes":[4.7572357E1,3.223374E1,2.754367E1,2.4132753E1,1.5178696E1,5.301239E0,1.4670868E1,5.2769756E0,1.2033242E1,4.4295425E0,7.1877365E0,2.435379E0,2.5491543E0,9.490784E0,9.728226E0,4.2127666E0,5.3425655E0,9.382779E0,3.6552353E0,4.279498E0,3.8996162E0,3.6229646E0,6.008217E0,1.7813721E0,2.2036986E0,1.7354717E0,4.9117403E0,8.481255E0,5.1248274E0,6.5091324E0,5.4634013E0,0E0,0E0,0E0,0E0,0E0,0E0,0E0,0E0,0E0,0E0,0E0,0E0,0E0,0E0,0E0,0E0,0E0,0E0,0E0,0E0,0E0,0E0,0E0,0E0,0E0,0E0,0E0,0E0,0E0,0E0,0E0,0E0],"parents":[2147483647,0,0,1,1,2,2,3,3,4,4,5,5,6,6,7,7,8,8,9,9,10,10,11,11,12,12,13,13,14,14,15,15,16,16,17,17,18,18,19,19,20,20,21,21,22,22,23,23,24,24,25,25,26,26,27,27,28,28,29,29,30,30],"right_children":[2,4,6,8,10,12,14,16,18,20,22,24,26,28,30,32,34,36,38,40,42,44,46,48,50,52,54,56,58,60,62,-1,-1,-1,-1,-1,-1,-1,-1,-1,-1,-1,-1,-1,-1,-1,-1,-1,-1,-1,-1,-1,-1,-1,-1,-1,-1,-1,-1,-1,-1,-1,-1],"split_conditions":[2.6484355E-1,-1.1795597E-1,-1.2640389E0,-8.899045E-1,-7.124537E-1,1.184605E0,1.4971465E-1,-1.6597366E0,1.5671021E0,3.264776E-1,-5.120015E-1,7.801511E-1,-5.6062527E-2,2.7145927E0,1.184605E0,-1.4512566E0,1.3472841E0,1.104761E0,5.4069126E-1,4.821093E-1,-5.0498855E-1,2.6027007E0,9.0622765E-1,-2.0730726E-1,-2.8953861E-2,9.5534587E-1,-8.81137E-2,-1.0068231E0,5.3061906E-2,2.1869087E0,-6.475511E-1,5.4909352E-2,1.595542E-2,5.199428E-3,3.5757516E-2,-3.167301E-3,-1.3443885E-2,1.2601002E-2,-2.1606227E-3,-1.0781172E-2,2.0232475E-4,-1.742894E-2,-1.012993E-2,-2.9012598E-3,1.5875988E-2,-7.6144016E-3,-1.8567975E-3,-1.908607E-2,-2.9498229E-2,9.676464E-3,-1.9977614E-2,-1.4091845E-2,-3.1553183E-2,2.6500896E-2,-1.3713326E-2,-2.5165416E-2,-1.3313354E-2,-3.4235038E-3,3.0722357E-2,-9.803177E-3,8.924302E-3,1.50416335E-2,-3.5915861E-3],"split_indices":[2,3,23,2,22,4,18,2,4,3,21,1,18,4,4,3,0,22,18,5,2,5,5,19,19,9,17,3,27,18,23,0,0,0,0,0,0,0,0,0,0,0,0,0,0,0,0,0,0,0,0,0,0,0,0,0,0,0,0,0,0,0,0],"split_type":[0,0,0,0,0,0,0,0,0,0,0,0,0,0,0,0,0,0,0,0,0,0,0,0,0,0,0,0,0,0,0,0,0,0,0,0,0,0,0,0,0,0,0,0,0,0,0,0,0,0,0,0,0,0,0,0,0,0,0,0,0,0,0],"sum_hessian":[1.6944959E4,1.1196456E4,5.748504E3,3.3526736E3,7.8437827E3,6.2907E2,5.1194336E3,9.217901E2,2.4308835E3,1.5317096E3,6.312073E3,4.1055817E2,2.1851186E2,1.7203433E3,3.3990903E3,8.1858055E1,8.39932E2,2.1842737E3,2.4660979E2,6.1245935E2,9.192503E2,1.580395E3,4.731678E3,3.4837253E2,6.218562E1,7.1068665E1,1.4744319E2,1.6568232E3,6.352001E1,2.6075063E3,7.91584E2,9.586175E0,7.227188E1,8.220995E2,1.7832556E1,1.8654591E3,3.1881464E2,1.7360594E2,7.300384E1,4.7110794E2,1.4135141E2,5.2840027E2,3.9085004E2,1.5483333E3,3.2061813E1,4.0886948E3,6.429831E2,6.1957638E1,2.8641492E2,8.917522E0,5.3268097E1,3.1779293E1,3.9289368E1,9.902633E0,1.3754056E2,2.1235901E2,1.4444642E3,4.4248573E1,1.927144E1,2.549386E3,5.812048E1,5.1507137E1,7.4007684E2],"tree_param":{"num_deleted":"0","num_feature":"28","num_nodes":"63","size_leaf_vector":"1"}},{"base_weights":[-7.482752E-2,-3.3361763E-1,4.892908E-2,-9.4014384E-2,-4.3554318E-1,3.6698213E-1,-8.077061E-2,-4.2993173E-1,2.7391814E-2,-5.20321E-1,-3.1635588E-1,5.9526527E-1,2.4023947E-1,1.9083594E-1,-1.4440723E-1,-3.5313673E-2,-3.6932623E-1,-1.330186E-1,1.5091673E-1,-5.456975E-1,-2.982445E-1,-2.022316E-1,-4.042877E-1,4.3884122E-1,7.706209E-1,6.716929E-2,3.490883E-1,4.24151E-1,1.2300413E-1,-3.123967E-1,-9.8076075E-2,1.2974531E-2,-2.2432571E-2,1.9030284E-2,-1.0111501E-2,1.4876186E-2,-8.597139E-4,-3.3801097E-2,-2.7432196E-2,-1.8916786E-2,8.617083E-3,1.5638854E-2,-1.29159335E-2,-2.7567659E-2,-1.7975148E-2,3.4720518E-2,1.7722867E-2,4.469698E-2,1.21241305E-2,-8.047374E-3,9.6535E-3,1.0279012E-2,2.3338692E-2,2.8842784E-2,1.3946323E-2,1.081862E-2,-7.762434E-4,-1.9524766E-2,-4.917061E-3,-7.4015236E-3,5.9103696E-3],"categories":[],"categories_nodes":[],"categories_segments":[],"categories_sizes":[],"default_left":[0,0,0,0,0,0,0,0,0,0,0,0,0,0,0,0,0,0,0,0,0,0,0,0,0,0,0,0,0,0,0,0,0,0,0,0,0,0,0,0,0,0,0,0,0,0,0,0,0,0,0,0,0,0,0,0,0,0,0,0,0],"id":14,"left_children":[1,3,5,7,9,11,13,15,17,19,21,23,25,27,29,-1,31,33,35,37,39,41,43,45,47,49,51,53,55,57,59,-1,-1,-1,-1,-1,-1,-1,-1,-1,-1,-1,-1,-1,-1,-1,-1,-1,-1,-1,-1,-1,-1,-1,-1,-1,-1,-1,-1,-1,-1],"loss_changes":[5.4755774E2,1.3507086E2,4.7711145E2,6.732305E1,3.9192932E1,9.692157E1,1.420035E2,5.500656E0,2.4029388E1,1.2762634E1,1.617984E1,3.277484E1,4.0583504E1,2.4677162E1,5.180356E1,0E0,7.357582E0,1.2485647E1,1.3431187E1,6.595459E0,4.5924377E0,1.0576115E1,6.77742E0,1.4117264E1,1.1397858E1,1.8954382E1,1.5654358E1,5.8454704E0,1.1988895E1,1.2950027E1,3.8058647E1,0E0,0E0,0E0,0E0,0E0,0E0,0E0,0E0,0E0,0E0,0E0,0E0,0E0,0E0,0E0,0E0,0E0,0E0,0E0,0E0,0E0,0E0,0E0,0E0,0E0,0E0,0E0,0E0,0E0,0E0],"parents":[2147483647,0,0,1,1,2,2,3,3,4,4,5,5,6,6,7,7,8,8,9,9,10,10,11,11,12,12,13,13,14,14,16,16,17,17,18,18,19,19,20,20,21,21,22,22,23,23,24,24,25,25,26,26,27,27,28,28,29,29,30,30],"right_children":[2,4,6,8,10,12,14,16,18,20,22,24,26,28,30,-1,32,34,36,38,40,42,44,46,48,50,52,54,56,58,60,-1,-1,-1,-1,-1,-1,-1,-1,-1,-1,-1,-1,-1,-1,-1,-1,-1,-1,-1,-1,-1,-1,-1,-1,-1,-1,-1,-1,-1,-1],"split_conditions":[-1.1795597E-1,-5.0498855E-1,-1.20072484E-1,-1.0068231E0,-5.623895E-1,-8.899045E-1,-4.4450924E-1,-1.4512566E0,-1.7371356E-1,5.2926666E-1,2.6484355E-1,7.709111E-1,-6.1627377E-2,-1.4632702E0,-8.2824785E-1,-3.5313673E-2,-1.6597366E0,-1.2143637E0,-8.899045E-1,-1.0068231E0,1.5671021E0,-1.2350978E0,-7.7286236E-2,-1.2748206E0,2.6027007E0,3.264776E-1,-7.278794E-1,4.821093E-1,6.497596E-1,1.5671021E0,1.2153447E0,1.2974531E-2,-2.2432571E-2,1.9030284E-2,-1.0111501E-2,1.4876186E-2,-8.597139E-4,-3.3801097E-2,-2.7432196E-2,-1.8916786E-2,8.617083E-3,1.5638854E-2,-1.29159335E-2,-2.7567659E-2,-1.7975148E-2,3.4720518E-2,1.7722867E-2,4.469698E-2,1.21241305E-2,-8.047374E-3,9.6535E-3,1.0279012E-2,2.3338692E-2,2.8842784E-2,1.3946323E-2,1.081862E-2,-7.762434E-4,-1.9524766E-2,-4.917061E-3,-7.4015236E-3,5.9103696E-3],"split_indices":[3,2,2,3,3,2,22,3,24,24,2,3,24,22,24,0,2,5,2,3,4,22,23,2,5,3,4,5,2,4,3,0,0,0,0,0,0,0,0,0,0,0,0,0,0,0,0,0,0,0,0,0,0,0,0,0,0,0,0,0,0],"split_type":[0,0,0,0,0,0,0,0,0,0,0,0,0,0,0,0,0,0,0,0,0,0,0,0,0,0,0,0,0,0,0,0,0,0,0,0,0,0,0,0,0,0,0,0,0,0,0,0,0,0,0,0,0,0,0,0,0,0,0,0,0],"sum_hessian":[1.7096627E4,5.530832E3,1.1565795E4,1.6506687E3,3.8801633E3,3.3501943E3,8.215601E3,4.38144E2,1.2125247E3,2.267201E3,1.6129624E3,1.1958855E3,2.1543088E3,1.5594696E3,6.656131E3,9.869786E1,3.3944617E2,5.2750085E2,6.850238E2,2.0345795E3,2.3262149E2,7.02067E2,9.108954E2,6.32229E2,5.6365656E2,8.318343E2,1.3224746E3,3.5115573E2,1.2083138E3,1.4387892E3,5.217342E3,1.9002474E1,3.2044366E2,4.9673595E1,4.7782724E2,4.0112558E2,2.838982E2,8.8765356E2,1.1469259E3,2.1232603E2,2.0295467E1,4.223277E1,6.598343E2,4.1836136E2,4.9253403E2,2.4434546E2,3.8788354E2,5.284543E2,3.5202244E1,2.7888486E2,5.5294946E2,4.0633185E2,9.161427E2,2.2468884E2,1.2646689E2,7.905512E2,4.177627E2,1.2191884E3,2.1960081E2,4.4446377E3,7.727042E2],"tree_param":{"num_deleted":"0","num_feature":"28","num_nodes":"61","size_leaf_vector":"1"}},{"base_weights":[1.9066386E-1,-7.027657E-2,3.1622264E-1,2.4747719E-1,-1.8607894E-1,6.1027265E-1,1.9896859E-1,-2.3781675E-1,3.2672033E-1,-3.9583415E-1,-7.955837E-2,8.085491E-1,5.3793424E-1,-6.176803E-2,2.5556314E-1,2.466064E-1,-3.2203814E-1,4.4536117E-1,1.9361718E-1,-5.478775E-1,-3.024693E-1,-1.7785367E-1,5.9817348E-2,5.577207E-2,7.5372213E-1,6.2374395E-1,3.8315365E-1,-1.63487E-2,-2.8586596E-1,4.908216E-1,2.0967424E-1,-2.1717608E-2,2.7589832E-2,-3.6690537E-2,-1.2664598E-2,3.3556096E-2,1.51330745E-2,3.2214664E-2,8.101149E-3,-2.5257833E-2,-3.4453843E-2,1.3307211E-2,-1.8557379E-2,-5.492587E-3,-1.7358178E-2,6.752247E-3,-9.522479E-3,5.3449247E-2,3.811303E-2,2.7674478E-2,4.2960186E-2,1.38928015E-2,3.0127348E-2,8.001463E-3,-4.1162553E-3,-1.7700791E-2,3.7496882E-3,3.0962225E-2,1.4789156E-2,9.47673E-3,2.0980647E-2],"categories":[],"categories_nodes":[],"categories_segments":[],"categories_sizes":[],"default_left":[0,0,0,0,0,0,0,0,0,0,0,0,0,0,0,0,0,0,0,0,0,0,0,0,0,0,0,0,0,0,0,0,0,0,0,0,0,0,0,0,0,0,0,0,0,0,0,0,0,0,0,0,0,0,0,0,0,0,0,0,0],"id":15,"left_children":[1,3,5,7,9,11,13,15,17,19,21,23,25,27,29,31,33,35,37,39,41,43,45,-1,47,49,51,53,55,57,59,-1,-1,-1,-1,-1,-1,-1,-1,-1,-1,-1,-1,-1,-1,-1,-1,-1,-1,-1,-1,-1,-1,-1,-1,-1,-1,-1,-1,-1,-1],"loss_changes":[5.820954E2,2.123855E2,4.1355664E2,5.9293793E1,9.451311E1,4.900598E1,1.265448E2,8.8382225E0,2.0920715E1,2.0209152E1,3.84374E1,9.893005E0,3.3257874E1,1.5567249E1,7.605939E1,5.181568E0,5.847744E0,1.9358261E1,1.1463516E1,3.6717987E0,1.5686653E1,1.7552414E1,1.6717976E1,0E0,9.8497925E0,3.0358276E1,1.9018036E1,1.1867841E1,3.08679E0,1.7588501E1,3.8426117E1,0E0,0E0,0E0,0E0,0E0,0E0,0E0,0E0,0E0,0E0,0E0,0E0,0E0,0E0,0E0,0E0,0E0,0E0,0E0,0E0,0E0,0E0,0E0,0E0,0E0,0E0,0E0,0E0,0E0,0E0],"parents":[2147483647,0,0,1,1,2,2,3,3,4,4,5,5,6,6,7,7,8,8,9,9,10,10,11,11,12,12,13,13,14,14,15,15,16,16,17,17,18,18,19,19,20,20,21,21,22,22,24,24,25,25,26,26,27,27,28,28,29,29,30,30],"right_children":[2,4,6,8,10,12,14,16,18,20,22,24,26,28,30,32,34,36,38,40,42,44,46,-1,48,50,52,54,56,58,60,-1,-1,-1,-1,-1,-1,-1,-1,-1,-1,-1,-1,-1,-1,-1,-1,-1,-1,-1,-1,-1,-1,-1,-1,-1,-1,-1,-1,-1,-1],"split_conditions":[-1.20072484E-1,-5.623895E-1,-1.1795597E-1,-1.2748206E0,-8.899045E-1,-1.0068231E0,-4.4450924E-1,-1.4512566E0,3.7114378E-2,-1.2748206E0,-8.744283E-2,-1.0808716E0,8.0210817E-1,1.750095E0,-1.0097706E0,-1.6597366E0,-1.6597366E0,-1.0122669E-1,-1.4512566E0,3.264776E-1,-1.2524564E0,3.7114378E-2,8.0210817E-1,5.577207E-2,-1.4512566E0,3.7006295E-1,1.0346757E0,-3.453825E-1,1.7632352E0,1.184605E0,1.0346757E0,-2.1717608E-2,2.7589832E-2,-3.6690537E-2,-1.2664598E-2,3.3556096E-2,1.51330745E-2,3.2214664E-2,8.101149E-3,-2.5257833E-2,-3.4453843E-2,1.3307211E-2,-1.8557379E-2,-5.492587E-3,-1.7358178E-2,6.752247E-3,-9.522479E-3,5.3449247E-2,3.811303E-2,2.7674478E-2,4.2960186E-2,1.38928015E-2,3.0127348E-2,8.001463E-3,-4.1162553E-3,-1.7700791E-2,3.7496882E-3,3.0962225E-2,1.4789156E-2,9.47673E-3,2.0980647E-2],"split_indices":[2,3,3,2,2,3,22,3,4,2,22,23,4,24,24,2,2,24,3,3,24,4,4,0,3,22,2,4,17,4,2,0,0,0,0,0,0,0,0,0,0,0,0,0,0,0,0,0,0,0,0,0,0,0,0,0,0,0,0,0,0],"split_type":[0,0,0,0,0,0,0,0,0,0,0,0,0,0,0,0,0,0,0,0,0,0,0,0,0,0,0,0,0,0,0,0,0,0,0,0,0,0,0,0,0,0,0,0,0,0,0,0,0,0,0,0,0,0,0,0,0,0,0,0,0],"sum_hessian":[1.7766506E4,5.771669E3,1.1994836E4,1.541579E3,4.23009E3,3.419365E3,8.575471E3,2.1636354E2,1.3252155E3,1.4245968E3,2.8054932E3,9.137888E2,2.5055762E3,1.5293945E3,7.0460767E3,3.2019577E1,1.8434396E2,7.005615E2,6.2465393E2,5.418166E2,8.827802E2,1.6451908E3,1.1603025E3,1.971852E2,7.1660364E2,1.6117534E3,8.9382275E2,1.27174E3,2.5765457E2,1.1499187E3,5.8961577E3,9.035983E0,2.2983595E1,3.9509888E1,1.4483408E2,3.620489E2,3.3851263E2,6.7716805E1,5.5693713E2,2.430883E2,2.9872827E2,5.0149166E1,8.3263104E2,1.0415736E3,6.036172E2,9.1504706E2,2.4525545E2,1.6868475E2,5.479189E2,8.8876904E2,7.229844E2,4.9091864E2,4.029041E2,3.3696738E2,9.347726E2,2.3515286E2,2.2501707E1,8.8047217E2,2.6944653E2,4.803705E3,1.0924529E3],"tree_param":{"num_deleted":"0","num_feature":"28","num_nodes":"61","size_leaf_vector":"1"}},{"base_weights":[-1.2801298E-1,-2.4080564E-1,-1.0371566E-1,-1.242441E-1,-2.9117444E-1,-8.2712E-2,-1.7812513E-1,-3.8533557E-2,-2.5473526E-1,-4.2236274E-1,-2.624849E-1,-2.887533E-2,-1.05973996E-1,-4.1668022E-1,-1.580184E-1,-7.276625E-2,2.3732395E-1,-2.7743706E-1,2.0176085E-2,5.565841E-3,-4.3446955E-1,-5.1631E-1,-2.4705654E-1,9.8420784E-2,-6.9662414E-2,-8.895443E-2,-1.7886573E-1,-6.598347E-2,-2.6070151E-2,-1.8628071E-1,-6.9071926E-2,4.434254E-4,-1.1738424E-2,-1.4808555E-2,2.3662735E-2,-1.6252529E-2,2.3268495E-2,-2.9170182E-2,-2.0896465E-2,-3.1134022E-2,-4.101283E-3,-1.4258928E-2,3.7134336E-3,1.2144897E-2,1.9425648E-3,-7.269622E-3,2.2942808E-3,-5.466664E-3,2.8257563E-3,-7.95201E-3,-1.4991357E-2,1.3748281E-2,-3.472927E-2,-1.1873891E-2,-5.5812495E-3,3.5883702E-4,-9.050727E-3],"categories":[],"categories_nodes":[],"categories_segments":[],"categories_sizes":[],"default_left":[0,0,0,0,0,0,0,0,0,0,0,0,0,0,0,0,0,0,0,0,0,0,0,0,0,0,0,0,0,0,0,0,0,0,0,0,0,0,0,0,0,0,0,0,0,0,0,0,0,0,0,0,0,0,0,0,0],"id":16,"left_children":[1,3,5,7,9,11,13,15,17,19,21,23,25,27,29,31,33,35,-1,-1,37,39,41,43,45,47,49,51,-1,53,55,-1,-1,-1,-1,-1,-1,-1,-1,-1,-1,-1,-1,-1,-1,-1,-1,-1,-1,-1,-1,-1,-1,-1,-1,-1,-1],"loss_changes":[4.648236E1,1.7646118E1,2.1809525E1,1.01459255E1,7.890167E0,1.3629913E1,1.4729256E1,5.1734166E0,5.0642586E0,2.3875046E0,6.7343674E0,1.705088E1,9.426842E0,4.5354233E0,7.1214676E0,5.4812765E0,5.81356E0,3.9132347E0,0E0,0E0,1.9215927E0,2.0041199E0,5.3533783E0,6.1034594E0,1.7033684E1,8.440857E0,4.6550903E0,5.671031E0,0E0,5.178108E0,4.874096E0,0E0,0E0,0E0,0E0,0E0,0E0,0E0,0E0,0E0,0E0,0E0,0E0,0E0,0E0,0E0,0E0,0E0,0E0,0E0,0E0,0E0,0E0,0E0,0E0,0E0,0E0],"parents":[2147483647,0,0,1,1,2,2,3,3,4,4,5,5,6,6,7,7,8,8,9,9,10,10,11,11,12,12,13,13,14,14,15,15,16,16,17,17,20,20,21,21,22,22,23,23,24,24,25,25,26,26,27,27,29,29,30,30],"right_children":[2,4,6,8,10,12,14,16,18,20,22,24,26,28,30,32,34,36,-1,-1,38,40,42,44,46,48,50,52,-1,54,56,-1,-1,-1,-1,-1,-1,-1,-1,-1,-1,-1,-1,-1,-1,-1,-1,-1,-1,-1,-1,-1,-1,-1,-1,-1,-1],"split_conditions":[-3.0960047E-1,-1.20072484E-1,6.497596E-1,3.264776E-1,-3.453825E-1,-1.1795597E-1,-1.0068231E0,1.5671021E0,1.9495989E0,-1.8400481E0,-4.6515055E0,-8.899045E-1,5.54462E-1,-1.0991046E0,7.5470555E-1,-5.0498855E-1,-3.0610126E-1,2.5706067E0,2.0176085E-2,5.565841E-3,-1.4758414E0,2.7145927E0,3.0970893E0,-2.0554377E-1,4.1961128E-1,1.7544641E0,1.2153447E0,1.21211E-1,-2.6070151E-2,1.184605E0,-5.780411E-1,4.434254E-4,-1.1738424E-2,-1.4808555E-2,2.3662735E-2,-1.6252529E-2,2.3268495E-2,-2.9170182E-2,-2.0896465E-2,-3.1134022E-2,-4.101283E-3,-1.4258928E-2,3.7134336E-3,1.2144897E-2,1.9425648E-3,-7.269622E-3,2.2942808E-3,-5.466664E-3,2.8257563E-3,-7.95201E-3,-1.4991357E-2,1.3748281E-2,-3.472927E-2,-1.1873891E-2,-5.5812495E-3,3.5883702E-4,-9.050727E-3],"split_indices":[23,2,2,3,4,3,3,4,4,21,23,2,24,12,13,2,0,12,0,0,24,4,4,13,4,5,3,22,0,4,25,0,0,0,0,0,0,0,0,0,0,0,0,0,0,0,0,0,0,0,0,0,0,0,0,0,0],"split_type":[0,0,0,0,0,0,0,0,0,0,0,0,0,0,0,0,0,0,0,0,0,0,0,0,0,0,0,0,0,0,0,0,0,0,0,0,0,0,0,0,0,0,0,0,0,0,0,0,0,0,0,0,0,0,0,0,0],"sum_hessian":[1.6961627E4,3.0060745E3,1.3955553E4,9.071336E2,2.0989407E3,1.0883612E4,3.071941E3,5.4758215E2,3.5955148E2,3.7642526E2,1.7225155E3,3.2838347E3,7.599777E3,2.3865482E2,2.8332861E3,4.871905E2,6.0391663E1,3.468827E2,1.2668804E1,8.503363E0,3.679219E2,9.853302E1,1.6239824E3,7.9682465E2,2.4870103E3,6.1613564E3,1.4384209E3,3.197486E1,2.0667996E2,2.1500264E3,6.8325977E2,3.0839148E2,1.7879901E2,1.650945E1,4.388221E1,3.3910117E2,7.7815256E0,1.4013438E2,2.2778754E2,8.922041E1,9.312602E0,1.5715182E3,5.2464264E1,2.737844E2,5.230402E2,1.5995297E3,8.8748047E2,5.7588516E3,4.0250473E2,1.0399647E3,3.9845618E2,2.0529465E1,1.14453945E1,1.6167189E3,5.3330743E2,3.7956747E2,3.036923E2],"tree_param":{"num_deleted":"0","num_feature":"28","num_nodes":"57","size_leaf_vector":"1"}},{"base_weights":[-7.572445E-2,2.1278319E-1,-1.6916789E-1,5.0077873E-1,1.3135977E-1,-7.608913E-2,-3.3091655E-1,2.7998343E-1,5.709225E-1,3.3515635E-1,5.138126E-2,1.9360103E-1,-1.2186739E-1,-2.4876128E-1,-4.4827524E-1,7.5620186E-1,2.2324882E-1,6.7886466E-1,4.8084027E-1,5.389391E-1,2.838564E-1,1.03234015E-1,-1.1772689E-1,2.7541256E-1,5.206614E-2,-8.828973E-2,-2.9468215E-1,-3.5311136E-1,-1.7557101E-1,-4.854002E-1,-3.1539747E-1,2.444505E-2,6.74973E-2,4.782966E-3,1.9880729E-2,1.46063855E-2,3.9501023E-2,4.655503E-2,2.469892E-2,2.8347757E-2,6.363666E-2,1.8202167E-2,1.6239746E-3,-5.1574496E-4,9.733754E-3,-9.965557E-3,2.1579175E-3,1.016479E-2,2.3089077E-2,-5.0876156E-4,2.0397058E-2,-6.3936664E-3,2.1890413E-3,-1.8970704E-2,-7.926965E-3,-2.2235531E-2,-1.1892465E-2,-1.15545085E-2,1.9654606E-3,-2.3815818E-2,-3.1045452E-2,-1.3738271E-2,-2.7073426E-2],"categories":[],"categories_nodes":[],"categories_segments":[],"categories_sizes":[],"default_left":[0,0,0,0,0,0,0,0,0,0,0,0,0,0,0,0,0,0,0,0,0,0,0,0,0,0,0,0,0,0,0,0,0,0,0,0,0,0,0,0,0,0,0,0,0,0,0,0,0,0,0,0,0,0,0,0,0,0,0,0,0,0,0],"id":17,"left_children":[1,3,5,7,9,11,13,15,17,19,21,23,25,27,29,31,33,35,37,39,41,43,45,47,49,51,53,55,57,59,61,-1,-1,-1,-1,-1,-1,-1,-1,-1,-1,-1,-1,-1,-1,-1,-1,-1,-1,-1,-1,-1,-1,-1,-1,-1,-1,-1,-1,-1,-1,-1,-1],"loss_changes":[4.575467E2,9.735988E1,1.930029E2,1.4158661E1,5.276086E1,1.0046435E2,4.5137024E1,5.9506416E0,6.7227783E0,9.523582E0,2.0387165E1,1.367197E1,4.0364235E1,2.103215E1,9.497345E0,3.3701315E0,3.6676378E0,4.5173492E0,4.702446E0,2.9602013E0,8.333149E0,1.4534958E1,5.3249273E0,9.723259E0,8.384338E0,2.0248425E1,8.220314E0,7.610428E0,1.1322716E1,6.2493896E0,4.9080925E0,0E0,0E0,0E0,0E0,0E0,0E0,0E0,0E0,0E0,0E0,0E0,0E0,0E0,0E0,0E0,0E0,0E0,0E0,0E0,0E0,0E0,0E0,0E0,0E0,0E0,0E0,0E0,0E0,0E0,0E0,0E0,0E0],"parents":[2147483647,0,0,1,1,2,2,3,3,4,4,5,5,6,6,7,7,8,8,9,9,10,10,11,11,12,12,13,13,14,14,15,15,16,16,17,17,18,18,19,19,20,20,21,21,22,22,23,23,24,24,25,25,26,26,27,27,28,28,29,29,30,30],"right_children":[2,4,6,8,10,12,14,16,18,20,22,24,26,28,30,32,34,36,38,40,42,44,46,48,50,52,54,56,58,60,62,-1,-1,-1,-1,-1,-1,-1,-1,-1,-1,-1,-1,-1,-1,-1,-1,-1,-1,-1,-1,-1,-1,-1,-1,-1,-1,-1,-1,-1,-1,-1,-1],"split_conditions":[-4.4450924E-1,-8.899045E-1,2.6484355E-1,-2.7108783E-1,1.4098255E-1,-8.899045E-1,6.509E-1,-1.7233585E0,3.3687735E-1,-2.1477773E0,6.497596E-1,4.3897894E-1,9.002421E-1,-2.7108783E-1,1.5671021E0,-5.338976E-1,-3.453825E-1,2.0420456E-1,-1.6597366E0,2.3868477E0,6.497596E-1,-3.453825E-1,8.1282043E-1,3.7114378E-2,4.0249243E-1,4.1961128E-1,8.0210817E-1,9.760235E-1,1.5671021E0,1.3939956E0,2.1894238E0,2.444505E-2,6.74973E-2,4.782966E-3,1.9880729E-2,1.46063855E-2,3.9501023E-2,4.655503E-2,2.469892E-2,2.8347757E-2,6.363666E-2,1.8202167E-2,1.6239746E-3,-5.1574496E-4,9.733754E-3,-9.965557E-3,2.1579175E-3,1.016479E-2,2.3089077E-2,-5.0876156E-4,2.0397058E-2,-6.3936664E-3,2.1890413E-3,-1.8970704E-2,-7.926965E-3,-2.2235531E-2,-1.1892465E-2,-1.15545085E-2,1.9654606E-3,-2.3815818E-2,-3.1045452E-2,-1.3738271E-2,-2.7073426E-2],"split_indices":[22,2,2,1,23,2,22,8,23,22,2,22,22,1,4,1,4,17,2,17,2,4,10,4,0,4,4,14,4,22,2,0,0,0,0,0,0,0,0,0,0,0,0,0,0,0,0,0,0,0,0,0,0,0,0,0,0,0,0,0,0,0,0],"split_type":[0,0,0,0,0,0,0,0,0,0,0,0,0,0,0,0,0,0,0,0,0,0,0,0,0,0,0,0,0,0,0,0,0,0,0,0,0,0,0,0,0,0,0,0,0,0,0,0,0,0,0,0,0,0,0,0,0,0,0,0,0,0,0],"sum_hessian":[1.6971646E4,4.152045E3,1.2819601E4,9.150472E2,3.2369978E3,8.1371733E3,4.6824277E3,2.2072127E2,6.943259E2,9.122266E2,2.3247712E3,1.1807593E3,6.956414E3,2.7544768E3,1.9279509E3,2.3378004E1,1.9734326E2,3.155836E2,3.7874237E2,1.8328632E2,7.289403E2,1.7792457E3,5.455256E2,7.4819434E2,4.325649E2,5.8248003E3,1.1316136E3,1.1353793E3,1.6190975E3,1.5067402E3,4.2121066E2,1.402283E1,9.355175E0,9.837678E1,9.896648E1,2.4349709E1,2.9123386E2,3.3130688E1,3.4561166E2,1.7570496E2,7.5813603E0,6.1958124E2,1.09359055E2,6.975751E2,1.0816705E3,3.903793E2,1.5514627E2,4.5404724E2,2.941471E2,3.6246698E2,7.009793E1,4.803035E3,1.0217651E3,8.593961E2,2.7221753E2,8.404337E2,2.9494553E2,1.399451E3,2.1964647E2,8.697512E2,6.36989E2,3.0375583E2,1.1745484E2],"tree_param":{"num_deleted":"0","num_feature":"28","num_nodes":"63","size_leaf_vector":"1"}},{"base_weights":[1.7896645E-1,-1.5829664E-1,2.6842293E-1,1.4717333E-1,-2.7603287E-1,5.2252805E-1,1.5625477E-1,-2.2585428E-1,2.4787566E-1,-5.3891253E-1,-2.0876728E-1,4.1342142E-1,6.792494E-1,-7.3784195E-2,2.1156995E-1,3.2784662E-1,-3.240368E-1,3.864005E-1,7.184961E-2,-3.6643196E-2,-5.036748E-1,3.0022757E-2,-2.7784872E-1,5.5337447E-1,2.9147267E-1,7.871657E-1,5.5489093E-1,-3.0331727E-2,-3.045891E-1,1.6270924E-1,4.0815145E-1,4.5935363E-2,-1.6872642E-3,-3.6136296E-2,-1.3072803E-2,2.4372311E-2,-1.1304217E-2,1.2775805E-2,-3.592956E-3,-2.454566E-2,-3.3880856E-2,1.0509623E-2,-8.949445E-3,-1.1443876E-2,-2.2146901E-2,3.929074E-2,2.4753768E-2,2.268558E-2,6.0156216E-3,4.7217235E-2,3.2215677E-2,4.9336836E-2,2.790524E-2,-4.290474E-3,1.1154217E-2,-1.0712604E-2,-2.6701078E-2,1.1420251E-2,-1.9019996E-3,3.153486E-2,1.5371017E-2],"categories":[],"categories_nodes":[],"categories_segments":[],"categories_sizes":[],"default_left":[0,0,0,0,0,0,0,0,0,0,0,0,0,0,0,0,0,0,0,0,0,0,0,0,0,0,0,0,0,0,0,0,0,0,0,0,0,0,0,0,0,0,0,0,0,0,0,0,0,0,0,0,0,0,0,0,0,0,0,0,0],"id":18,"left_children":[1,3,5,7,9,11,13,15,17,19,21,23,25,27,29,31,33,35,37,-1,39,41,43,45,47,49,51,53,55,57,59,-1,-1,-1,-1,-1,-1,-1,-1,-1,-1,-1,-1,-1,-1,-1,-1,-1,-1,-1,-1,-1,-1,-1,-1,-1,-1,-1,-1,-1,-1],"loss_changes":[5.38703E2,1.3462694E2,4.022243E2,3.9125576E1,4.7766174E1,7.387256E1,1.245827E2,1.2047049E1,1.9994339E1,2.3544922E0,3.5492104E1,4.3474396E1,2.376355E1,1.903368E1,7.580423E1,6.007342E0,5.4216156E0,1.4593277E1,7.8517265E0,0E0,2.772705E0,1.4792094E1,1.4497833E1,1.9676819E1,2.9443275E1,1.2755554E1,1.4057526E1,1.7464329E1,5.9274616E0,5.427231E1,3.3090393E1,0E0,0E0,0E0,0E0,0E0,0E0,0E0,0E0,0E0,0E0,0E0,0E0,0E0,0E0,0E0,0E0,0E0,0E0,0E0,0E0,0E0,0E0,0E0,0E0,0E0,0E0,0E0,0E0,0E0,0E0],"parents":[2147483647,0,0,1,1,2,2,3,3,4,4,5,5,6,6,7,7,8,8,9,9,10,10,11,11,12,12,13,13,14,14,15,15,16,16,17,17,18,18,20,20,21,21,22,22,23,23,24,24,25,25,26,26,27,27,28,28,29,29,30,30],"right_children":[2,4,6,8,10,12,14,16,18,20,22,24,26,28,30,32,34,36,38,-1,40,42,44,46,48,50,52,54,56,58,60,-1,-1,-1,-1,-1,-1,-1,-1,-1,-1,-1,-1,-1,-1,-1,-1,-1,-1,-1,-1,-1,-1,-1,-1,-1,-1,-1,-1,-1,-1],"split_conditions":[-5.0498855E-1,-5.623895E-1,-1.1795597E-1,-1.2748206E0,-1.2748206E0,6.497596E-1,-4.4450924E-1,-1.4512566E0,3.7114378E-2,-1.6597366E0,-5.576278E-1,3.7114378E-2,-4.147392E-2,1.8609282E0,1.0346757E0,-4.0969345E-1,-1.6597366E0,1.2546037E0,-1.0068231E0,-3.6643196E-2,7.709111E-1,3.7114378E-2,7.709111E-1,-4.3893433E-1,-5.623895E-1,1.5671021E0,-7.278794E-1,1.0346757E0,1.2153447E0,4.1961128E-1,4.1961128E-1,4.5935363E-2,-1.6872642E-3,-3.6136296E-2,-1.3072803E-2,2.4372311E-2,-1.1304217E-2,1.2775805E-2,-3.592956E-3,-2.454566E-2,-3.3880856E-2,1.0509623E-2,-8.949445E-3,-1.1443876E-2,-2.2146901E-2,3.929074E-2,2.4753768E-2,2.268558E-2,6.0156216E-3,4.7217235E-2,3.2215677E-2,4.9336836E-2,2.790524E-2,-4.290474E-3,1.1154217E-2,-1.0712604E-2,-2.6701078E-2,1.1420251E-2,-1.9019996E-3,3.153486E-2,1.5371017E-2],"split_indices":[2,3,3,2,2,2,22,3,4,2,24,4,23,24,2,24,2,24,3,0,3,4,3,24,3,4,4,2,3,4,4,0,0,0,0,0,0,0,0,0,0,0,0,0,0,0,0,0,0,0,0,0,0,0,0,0,0,0,0,0,0],"split_type":[0,0,0,0,0,0,0,0,0,0,0,0,0,0,0,0,0,0,0,0,0,0,0,0,0,0,0,0,0,0,0,0,0,0,0,0,0,0,0,0,0,0,0,0,0,0,0,0,0,0,0,0,0,0,0,0,0,0,0,0,0],"sum_hessian":[1.7855152E4,3.743097E3,1.4112056E4,1.0413254E3,2.7017715E3,4.321598E3,9.790457E3,2.2133408E2,8.1999133E2,5.5034454E2,2.151427E3,2.5480315E3,1.773567E3,1.8978496E3,7.8926074E3,3.3304096E1,1.8802998E2,4.5881555E2,3.611758E2,1.22242386E2,4.2810214E2,4.827573E2,1.6686698E3,1.1862854E3,1.361746E3,9.4929895E2,8.24268E2,1.5972463E3,3.0060327E2,6.321541E3,1.5710663E3,1.382414E1,1.9479958E1,3.9559265E1,1.4847072E2,4.2051926E2,3.829629E1,1.6702211E2,1.9415369E2,2.7522903E2,1.5287311E2,2.6326315E2,2.1949414E2,1.0547E3,6.139697E2,4.7991202E2,7.063734E2,8.267506E2,5.349954E2,7.189795E2,2.3031946E2,1.0810724E2,7.1616077E2,1.3272559E3,2.6999048E2,1.8507684E2,1.1552642E2,5.1770425E3,1.1444987E3,7.0220935E2,8.68857E2],"tree_param":{"num_deleted":"0","num_feature":"28","num_nodes":"61","size_leaf_vector":"1"}},{"base_weights":[-1.2603281E-1,-2.3733841E-1,-1.0178607E-1,-1.636941E-1,-3.2910678E-1,-8.165991E-2,-1.739104E-1,-1.6980098E-1,3.7150737E-2,-3.5990855E-1,-6.0452294E-2,-1.40363835E-2,-1.108432E-1,-3.022408E-1,-1.4251593E-1,-1.9094667E-1,6.2122118E-2,-2.8355598E-2,-3.281994E-1,1.0534418E-2,-2.2980513E-2,7.5403884E-2,-8.303661E-2,-9.199544E-2,-1.9206686E-1,-2.5993484E-1,-4.4099575E-1,-1.9392544E-1,-8.807189E-2,-1.8075656E-2,-8.762852E-3,1.060521E-2,-7.636037E-3,-2.3255412E-2,-1.593253E-2,-5.4137474E-3,1.9512521E-2,4.6920823E-4,8.065581E-3,-7.038445E-3,7.415042E-3,2.68471E-2,-5.2004745E-3,-8.771092E-3,-1.564766E-2,-8.237309E-3,-1.7556408E-2,-4.3222436E-4,-2.6550364E-2,-1.3796559E-2,-5.8232E-3,-8.758855E-3,-3.2170594E-3],"categories":[],"categories_nodes":[],"categories_segments":[],"categories_sizes":[],"default_left":[0,0,0,0,0,0,0,0,0,0,0,0,0,0,0,0,0,0,0,0,0,0,0,0,0,0,0,0,0,0,0,0,0,0,0,0,0,0,0,0,0,0,0,0,0,0,0,0,0,0,0,0,0],"id":19,"left_children":[1,3,5,7,9,11,13,15,-1,17,19,21,23,25,27,29,31,-1,33,35,-1,37,39,41,43,45,47,49,51,-1,-1,-1,-1,-1,-1,-1,-1,-1,-1,-1,-1,-1,-1,-1,-1,-1,-1,-1,-1,-1,-1,-1,-1],"loss_changes":[4.54946E1,2.0373947E1,2.0092758E1,8.538841E0,1.1106583E1,2.135865E1,1.2163246E1,8.146923E0,0E0,5.799103E0,3.4791129E0,2.0136438E1,1.1572258E1,3.473629E0,6.790287E0,6.7360115E0,3.597667E0,0E0,3.6905289E0,4.270531E0,0E0,6.6836023E0,1.7622433E1,6.859005E0,4.3340187E0,2.887455E0,2.3139591E0,6.1190186E0,2.4761324E0,0E0,0E0,0E0,0E0,0E0,0E0,0E0,0E0,0E0,0E0,0E0,0E0,0E0,0E0,0E0,0E0,0E0,0E0,0E0,0E0,0E0,0E0,0E0,0E0],"parents":[2147483647,0,0,1,1,2,2,3,3,4,4,5,5,6,6,7,7,9,9,10,10,11,11,12,12,13,13,14,14,15,15,16,16,18,18,19,19,21,21,22,22,23,23,24,24,25,25,26,26,27,27,28,28],"right_children":[2,4,6,8,10,12,14,16,-1,18,20,22,24,26,28,30,32,-1,34,36,-1,38,40,42,44,46,48,50,52,-1,-1,-1,-1,-1,-1,-1,-1,-1,-1,-1,-1,-1,-1,-1,-1,-1,-1,-1,-1,-1,-1,-1,-1],"split_conditions":[-3.0960047E-1,2.6484355E-1,6.497596E-1,3.2473342E0,2.3320959E0,-1.1795597E-1,-5.623895E-1,1.5671021E0,3.7150737E-2,-3.0306613E0,1.4708023E0,-5.0498855E-1,5.54462E-1,1.8045077E0,4.1961128E-1,-1.9403595E0,3.1283E-1,-2.8355598E-2,-5.623895E-1,3.4795864E0,-2.2980513E-2,3.1695224E-2,1.184605E0,-1.4030178E0,1.2153447E0,1.5548486E-1,-1.8479462E0,7.87624E-1,1.6522883E-1,-1.8075656E-2,-8.762852E-3,1.060521E-2,-7.636037E-3,-2.3255412E-2,-1.593253E-2,-5.4137474E-3,1.9512521E-2,4.6920823E-4,8.065581E-3,-7.038445E-3,7.415042E-3,2.68471E-2,-5.2004745E-3,-8.771092E-3,-1.564766E-2,-8.237309E-3,-1.7556408E-2,-4.3222436E-4,-2.6550364E-2,-1.3796559E-2,-5.8232E-3,-8.758855E-3,-3.2170594E-3],"split_indices":[23,2,2,27,4,3,3,4,0,23,9,2,24,2,4,23,26,0,3,4,0,8,4,24,3,17,1,18,17,0,0,0,0,0,0,0,0,0,0,0,0,0,0,0,0,0,0,0,0,0,0,0,0],"split_type":[0,0,0,0,0,0,0,0,0,0,0,0,0,0,0,0,0,0,0,0,0,0,0,0,0,0,0,0,0,0,0,0,0,0,0,0,0,0,0,0,0,0,0,0,0,0,0,0,0,0,0,0,0],"sum_hessian":[1.6858062E4,3.015322E3,1.3842739E4,1.672993E3,1.342329E3,1.0822839E4,3.0199006E3,1.6609135E3,1.2079509E1,1.2042308E3,1.3809819E2,3.2626826E3,7.5601562E3,5.9341864E2,2.426482E3,1.5221471E3,1.3876643E2,2.0733322E2,9.968976E2,1.15138084E2,2.296011E1,1.420882E3,1.8418008E3,6.13641E3,1.4237461E3,4.5496176E2,1.3845691E2,1.247902E3,1.17858E3,2.9548398E2,1.2266631E3,8.425607E1,5.4510357E1,3.0441464E2,6.92483E2,8.748606E1,2.765202E1,7.278328E2,6.9304913E2,1.5307544E3,3.1104633E2,2.0451439E1,6.115959E3,1.0382937E3,3.8545242E2,1.5464018E2,3.0032156E2,1.1326374E1,1.2713053E2,7.6888513E2,4.790168E2,3.527031E2,8.258769E2],"tree_param":{"num_deleted":"0","num_feature":"28","num_nodes":"53","size_leaf_vector":"1"}},{"base_weights":[-7.240228E-2,-1.9765575E-1,1.70438E-1,-4.187219E-1,-1.0991437E-1,4.255861E-1,-1.0583538E-2,-1.2932247E-1,-4.7964266E-1,2.7524886E-1,-1.4800152E-1,6.3228387E-1,3.1232014E-1,-2.1317609E-1,6.738536E-2,-3.4005255E-1,5.2370757E-2,-5.6332594E-1,-4.1652083E-1,3.5550475E-1,4.4737257E-2,-8.841457E-2,-3.267473E-1,6.912161E-1,3.2476464E-1,4.8378366E-1,2.2564587E-1,-1.06996775E-1,-3.3218735E-1,-6.0186796E-2,2.0370634E-1,-3.4125213E-2,-1.3920485E-2,3.989284E-2,3.440226E-4,-3.1879194E-2,-1.255075E-2,-1.8331436E-2,-2.8075114E-2,4.6538107E-2,1.7251723E-2,-2.9827995E-2,5.024656E-3,-7.19295E-3,1.1062992E-2,-2.2834066E-2,-1.2945933E-2,2.4994768E-2,4.2112734E-2,1.3431556E-3,2.440731E-2,2.324399E-2,4.066893E-2,1.8997822E-2,4.5488626E-3,3.5147525E-3,-1.0043046E-2,-1.4894242E-2,-2.4837406E-2,1.9335225E-3,-1.11873895E-2,1.9582944E-2,3.4492698E-3],"categories":[],"categories_nodes":[],"categories_segments":[],"categories_sizes":[],"default_left":[0,0,0,0,0,0,0,0,0,0,0,0,0,0,0,0,0,0,0,0,0,0,0,0,0,0,0,0,0,0,0,0,0,0,0,0,0,0,0,0,0,0,0,0,0,0,0,0,0,0,0,0,0,0,0,0,0,0,0,0,0,0,0],"id":20,"left_children":[1,3,5,7,9,11,13,15,17,19,21,23,25,27,29,31,33,35,37,39,41,43,45,47,49,51,53,55,57,59,61,-1,-1,-1,-1,-1,-1,-1,-1,-1,-1,-1,-1,-1,-1,-1,-1,-1,-1,-1,-1,-1,-1,-1,-1,-1,-1,-1,-1,-1,-1,-1,-1],"loss_changes":[5.160405E2,2.1709665E2,2.666422E2,5.6061646E1,1.17547295E2,5.607614E1,5.3346916E1,2.1180786E1,1.3855591E1,1.3338234E1,7.766028E1,1.5349243E1,2.2995438E1,1.1856796E1,4.2412273E1,6.2577534E0,9.163059E0,4.7329407E0,1.1573242E1,1.1365982E1,5.007406E0,6.54272E1,1.4505066E1,1.1814667E1,4.7626276E0,8.30629E0,1.7334751E1,6.2942624E0,3.2433167E0,1.700161E1,2.5005142E1,0E0,0E0,0E0,0E0,0E0,0E0,0E0,0E0,0E0,0E0,0E0,0E0,0E0,0E0,0E0,0E0,0E0,0E0,0E0,0E0,0E0,0E0,0E0,0E0,0E0,0E0,0E0,0E0,0E0,0E0,0E0,0E0],"parents":[2147483647,0,0,1,1,2,2,3,3,4,4,5,5,6,6,7,7,8,8,9,9,10,10,11,11,12,12,13,13,14,14,15,15,16,16,17,17,18,18,19,19,20,20,21,21,22,22,23,23,24,24,25,25,26,26,27,27,28,28,29,29,30,30],"right_children":[2,4,6,8,10,12,14,16,18,20,22,24,26,28,30,32,34,36,38,40,42,44,46,48,50,52,54,56,58,60,62,-1,-1,-1,-1,-1,-1,-1,-1,-1,-1,-1,-1,-1,-1,-1,-1,-1,-1,-1,-1,-1,-1,-1,-1,-1,-1,-1,-1,-1,-1,-1,-1],"split_conditions":[3.264776E-1,-5.623895E-1,-1.20072484E-1,-8.899045E-1,-8.899045E-1,-8.899045E-1,-6.2534237E-1,-1.0068231E0,-1.0068231E0,9.0622765E-1,2.6484355E-1,1.7544641E0,-6.1528385E-1,1.0346757E0,1.2153447E0,-1.4512566E0,-1.5102898E0,1.1408101E0,2.6484355E-1,-1.6597366E0,-4.676169E-1,6.541504E-1,1.536434E-1,-3.4554714E-1,1.4564626E-1,2.1042118E0,4.821093E-1,-3.6612722E-1,1.3939956E0,4.821093E-1,4.821093E-1,-3.4125213E-2,-1.3920485E-2,3.989284E-2,3.440226E-4,-3.1879194E-2,-1.255075E-2,-1.8331436E-2,-2.8075114E-2,4.6538107E-2,1.7251723E-2,-2.9827995E-2,5.024656E-3,-7.19295E-3,1.1062992E-2,-2.2834066E-2,-1.2945933E-2,2.4994768E-2,4.2112734E-2,1.3431556E-3,2.440731E-2,2.324399E-2,4.066893E-2,1.8997822E-2,4.5488626E-3,3.5147525E-3,-1.0043046E-2,-1.4894242E-2,-2.4837406E-2,1.9335225E-3,-1.11873895E-2,1.9582944E-2,3.4492698E-3],"split_indices":[3,3,2,2,2,2,24,3,3,5,2,5,22,2,3,3,22,24,2,2,18,24,23,24,24,3,5,5,22,5,5,0,0,0,0,0,0,0,0,0,0,0,0,0,0,0,0,0,0,0,0,0,0,0,0,0,0,0,0,0,0,0,0],"split_type":[0,0,0,0,0,0,0,0,0,0,0,0,0,0,0,0,0,0,0,0,0,0,0,0,0,0,0,0,0,0,0,0,0,0,0,0,0,0,0,0,0,0,0,0,0,0,0,0,0,0,0,0,0,0,0,0,0,0,0,0,0,0,0],"sum_hessian":[1.6965568E4,1.1192604E4,5.7729644E3,3.1800537E3,8.01255E3,2.3958772E3,3.3770872E3,5.530608E2,2.626993E3,7.2097705E2,7.2915728E3,8.47985E2,1.5478922E3,9.384596E2,2.4386274E3,2.560325E2,2.970283E2,1.1292206E3,1.4977722E3,5.34748E2,1.8622911E2,5.4686655E3,1.8229072E3,7.1151855E2,1.3646648E2,5.195929E2,1.0282993E3,4.9605844E2,4.4240115E2,1.2597635E3,1.178864E3,6.2041885E1,1.9399062E2,1.9107285E1,2.7792102E2,1.0887894E3,4.0431206E1,7.710604E2,7.267118E2,4.4244717E1,4.9050323E2,1.3543068E1,1.7268604E2,4.7803516E3,6.883139E2,9.4819415E2,8.747131E2,1.5992886E2,5.5158966E2,3.8057335E1,9.840914E1,4.1421426E2,1.0537863E2,5.6527905E2,4.6302023E2,1.507202E2,3.4533823E2,2.86998E2,1.5540317E2,7.542317E2,5.055319E2,5.719739E2,6.0689014E2],"tree_param":{"num_deleted":"0","num_feature":"28","num_nodes":"63","size_leaf_vector":"1"}},{"base_weights":[1.7280617E-1,-7.277775E-2,2.9027572E-1,2.168539E-1,-1.7762028E-1,5.6161195E-1,1.8094116E-1,-4.2651955E-2,3.6394796E-1,-3.8761103E-1,-7.3361084E-2,7.377754E-1,4.9911585E-1,2.2334366E-1,-1.03748785E-2,-2.4333526E-1,7.913148E-2,7.643084E-1,3.2249883E-1,-5.20952E-1,-3.054374E-1,3.9449383E-2,-1.750989E-1,9.0147907E-1,6.8352425E-1,5.8087206E-1,3.4807914E-1,1.8852349E-1,4.8755893E-1,-1.371959E-1,1.8108155E-1,1.0408494E-2,-1.7393569E-2,1.9398551E-2,-1.080776E-3,4.684493E-2,7.1321176E-3,2.2712285E-2,8.983093E-3,-2.4759864E-2,-3.2456778E-2,-1.8107278E-2,5.879142E-3,-5.085725E-3,9.6425535E-3,-4.1754246E-3,-1.4751268E-2,5.1274505E-2,3.0128041E-2,4.1295573E-2,2.7881557E-2,2.6414355E-2,3.8557447E-2,3.6452261E-3,2.3488168E-2,4.075612E-3,1.2833441E-2,3.3298377E-2,1.8873405E-2,-1.3376354E-2,1.8132655E-3,1.940559E-2,2.08233E-3],"categories":[],"categories_nodes":[],"categories_segments":[],"categories_sizes":[],"default_left":[0,0,0,0,0,0,0,0,0,0,0,0,0,0,0,0,0,0,0,0,0,0,0,0,0,0,0,0,0,0,0,0,0,0,0,0,0,0,0,0,0,0,0,0,0,0,0,0,0,0,0,0,0,0,0,0,0,0,0,0,0,0,0],"id":21,"left_children":[1,3,5,7,9,11,13,15,17,19,21,23,25,27,29,31,33,35,37,39,41,43,45,47,49,51,53,55,57,59,61,-1,-1,-1,-1,-1,-1,-1,-1,-1,-1,-1,-1,-1,-1,-1,-1,-1,-1,-1,-1,-1,-1,-1,-1,-1,-1,-1,-1,-1,-1,-1,-1],"loss_changes":[5.148263E2,1.7534206E2,3.581114E2,5.8583748E1,9.281732E1,3.8137817E1,6.9802765E1,1.3572836E1,1.62323E1,1.5397461E1,3.251687E1,8.005859E0,3.1586609E1,6.479184E1,3.790861E1,6.4129467E0,9.249786E0,4.764324E0,1.24750595E1,2.557495E0,7.7494125E0,2.3767723E1,1.3561859E1,1.9418335E0,7.6201477E0,1.9881775E1,1.9325912E1,3.0946594E1,1.3679016E1,1.66653E1,1.5120581E1,0E0,0E0,0E0,0E0,0E0,0E0,0E0,0E0,0E0,0E0,0E0,0E0,0E0,0E0,0E0,0E0,0E0,0E0,0E0,0E0,0E0,0E0,0E0,0E0,0E0,0E0,0E0,0E0,0E0,0E0,0E0,0E0],"parents":[2147483647,0,0,1,1,2,2,3,3,4,4,5,5,6,6,7,7,8,8,9,9,10,10,11,11,12,12,13,13,14,14,15,15,16,16,17,17,18,18,19,19,20,20,21,21,22,22,23,23,24,24,25,25,26,26,27,27,28,28,29,29,30,30],"right_children":[2,4,6,8,10,12,14,16,18,20,22,24,26,28,30,32,34,36,38,40,42,44,46,48,50,52,54,56,58,60,62,-1,-1,-1,-1,-1,-1,-1,-1,-1,-1,-1,-1,-1,-1,-1,-1,-1,-1,-1,-1,-1,-1,-1,-1,-1,-1,-1,-1,-1,-1,-1,-1],"split_conditions":[-1.20072484E-1,-5.623895E-1,-1.1795597E-1,-8.899045E-1,-8.899045E-1,-1.0068231E0,1.2153447E0,-1.2748206E0,-1.4512566E0,-1.2748206E0,3.264776E-1,-1.4512566E0,8.0210817E-1,1.4195918E0,1.0346757E0,-1.4512566E0,-7.278794E-1,1.5671021E0,4.1961128E-1,3.264776E-1,2.6027007E0,5.7991058E-2,-3.453825E-1,1.6225549E0,1.184605E0,6.497596E-1,2.6484355E-1,-5.533227E-1,8.0210817E-1,9.0622765E-1,1.7581463E-1,1.0408494E-2,-1.7393569E-2,1.9398551E-2,-1.080776E-3,4.684493E-2,7.1321176E-3,2.2712285E-2,8.983093E-3,-2.4759864E-2,-3.2456778E-2,-1.8107278E-2,5.879142E-3,-5.085725E-3,9.6425535E-3,-4.1754246E-3,-1.4751268E-2,5.1274505E-2,3.0128041E-2,4.1295573E-2,2.7881557E-2,2.6414355E-2,3.8557447E-2,3.6452261E-3,2.3488168E-2,4.075612E-3,1.2833441E-2,3.3298377E-2,1.8873405E-2,-1.3376354E-2,1.8132655E-3,1.940559E-2,2.08233E-3],"split_indices":[2,3,3,2,2,3,3,2,3,2,3,3,4,2,2,3,4,4,4,3,5,5,4,14,4,2,2,8,4,5,23,0,0,0,0,0,0,0,0,0,0,0,0,0,0,0,0,0,0,0,0,0,0,0,0,0,0,0,0,0,0,0,0],"split_type":[0,0,0,0,0,0,0,0,0,0,0,0,0,0,0,0,0,0,0,0,0,0,0,0,0,0,0,0,0,0,0,0,0,0,0,0,0,0,0,0,0,0,0,0,0,0,0,0,0,0,0,0,0,0,0,0,0,0,0,0,0,0,0],"sum_hessian":[1.7845621E4,5.7741387E3,1.2071481E4,1.5346129E3,4.239526E3,3.4670098E3,8.604472E3,5.551941E2,9.794189E2,1.4064727E3,2.833053E3,9.076263E2,2.5593835E3,7.043389E3,1.5610825E3,2.0964174E2,3.4555234E2,9.173818E1,8.8768066E2,5.3609064E2,8.70382E2,1.3434469E3,1.4896061E3,2.255664E2,6.820599E2,1.6603687E3,8.9901495E2,6.2233823E3,8.2000665E2,9.390681E2,6.220144E2,2.9548685E1,1.8009305E2,9.209754E1,2.534548E2,8.124844E1,1.0489742E1,5.735319E2,3.1414874E2,2.5208896E2,2.8400168E2,8.269678E2,4.3414257E1,6.803416E2,6.631053E2,7.123597E2,7.7724634E2,2.1087535E2,1.4691053E1,5.0629205E2,1.7576782E2,8.7503973E2,7.8532886E2,1.9109227E2,7.079227E2,1.7026475E3,4.520735E3,4.6143478E2,3.585719E2,5.816714E2,3.5739673E2,2.8514917E2,3.3686526E2],"tree_param":{"num_deleted":"0","num_feature":"28","num_nodes":"63","size_leaf_vector":"1"}},{"base_weights":[-1.0916276E-1,-2.7677453E-1,-9.435642E-2,-1.9114357E-1,-3.6474022E-1,-7.368094E-2,-1.6583718E-1,-2.8238505E-1,-1.23896055E-1,-4.268642E-1,-2.4216454E-1,-5.299834E-2,-1.6125621E-1,-2.8069547E-1,-1.3629462E-1,-3.1521365E-1,1.0080801E-1,-1.6932867E-1,1.4283183E-1,-3.6243132E-1,-3.0924091E-2,-1.949357E-1,-2.9029744E-2,9.516579E-3,-9.675066E-2,-2.1263923E-1,-7.82218E-2,-3.5233724E-1,-1.756755E-1,-1.9309044E-1,-7.8918174E-2,2.196132E-2,-1.8536998E-2,3.0373715E-2,-1.6614398E-2,-1.04153E-2,2.9280212E-2,1.944011E-2,-2.0281937E-2,-2.887252E-2,-1.5980385E-2,-8.842207E-3,-3.2656264E-2,2.0275556E-3,-6.134605E-3,-2.3985865E-2,-5.100607E-3,-1.728814E-2,-8.526162E-3,-5.895302E-3,5.22437E-3,-2.1257732E-2,-8.94438E-3,-6.3476246E-3,-2.8120808E-2,-1.0984312E-2,2.6527986E-2,-1.657713E-2,-3.3115337E-3],"categories":[],"categories_nodes":[],"categories_segments":[],"categories_sizes":[],"default_left":[0,0,0,0,0,0,0,0,0,0,0,0,0,0,0,0,0,0,0,0,0,0,0,0,0,0,0,0,0,0,0,0,0,0,0,0,0,0,0,0,0,0,0,0,0,0,0,0,0,0,0,0,0,0,0,0,0,0,0],"id":22,"left_children":[1,3,5,7,9,11,13,15,17,19,21,23,25,27,29,31,33,35,37,39,-1,41,-1,43,45,47,49,51,53,55,57,-1,-1,-1,-1,-1,-1,-1,-1,-1,-1,-1,-1,-1,-1,-1,-1,-1,-1,-1,-1,-1,-1,-1,-1,-1,-1,-1,-1],"loss_changes":[4.1509003E1,1.0220116E1,2.2713211E1,4.2190495E0,5.0894623E0,2.1592178E1,1.1696587E1,3.6749592E0,4.8047943E0,3.7512817E0,2.9949389E0,2.6377865E1,9.715675E0,5.3013E0,8.936768E0,3.7646656E0,4.1624236E0,4.453027E0,6.1343412E0,3.4908104E0,0E0,2.6797748E0,0E0,1.2950101E1,8.821205E0,8.214008E0,4.2478223E0,2.5235786E0,5.7978287E0,4.9284782E0,5.746851E0,0E0,0E0,0E0,0E0,0E0,0E0,0E0,0E0,0E0,0E0,0E0,0E0,0E0,0E0,0E0,0E0,0E0,0E0,0E0,0E0,0E0,0E0,0E0,0E0,0E0,0E0,0E0,0E0],"parents":[2147483647,0,0,1,1,2,2,3,3,4,4,5,5,6,6,7,7,8,8,9,9,10,10,11,11,12,12,13,13,14,14,15,15,16,16,17,17,18,18,19,19,21,21,23,23,24,24,25,25,26,26,27,27,28,28,29,29,30,30],"right_children":[2,4,6,8,10,12,14,16,18,20,22,24,26,28,30,32,34,36,38,40,-1,42,-1,44,46,48,50,52,54,56,58,-1,-1,-1,-1,-1,-1,-1,-1,-1,-1,-1,-1,-1,-1,-1,-1,-1,-1,-1,-1,-1,-1,-1,-1,-1,-1,-1,-1],"split_conditions":[-1.1205047E0,2.6484355E-1,6.497596E-1,-2.1497626E0,1.184605E0,7.709111E-1,-5.623895E-1,3.010972E0,1.6894861E0,2.3757894E0,4.821093E-1,-1.20072484E-1,9.0622765E-1,8.0210817E-1,4.1961128E-1,-2.267894E0,-1.20072484E-1,2.5006135E0,8.859575E-1,-5.623895E-1,-3.0924091E-2,-1.4609365E0,-2.9029744E-2,3.264776E-1,-1.4512566E0,-5.0498855E-1,8.760448E-1,8.1982905E-1,1.2495106E0,4.3263793E0,-2.3427284E-1,2.196132E-2,-1.8536998E-2,3.0373715E-2,-1.6614398E-2,-1.04153E-2,2.9280212E-2,1.944011E-2,-2.0281937E-2,-2.887252E-2,-1.5980385E-2,-8.842207E-3,-3.2656264E-2,2.0275556E-3,-6.134605E-3,-2.3985865E-2,-5.100607E-3,-1.728814E-2,-8.526162E-3,-5.895302E-3,5.22437E-3,-2.1257732E-2,-8.94438E-3,-6.3476246E-3,-2.8120808E-2,-1.0984312E-2,2.6527986E-2,-1.657713E-2,-3.3115337E-3],"split_indices":[23,2,2,23,4,3,3,12,6,22,5,2,5,4,4,26,2,13,9,3,0,24,0,3,3,2,9,23,12,3,17,0,0,0,0,0,0,0,0,0,0,0,0,0,0,0,0,0,0,0,0,0,0,0,0,0,0,0,0],"split_type":[0,0,0,0,0,0,0,0,0,0,0,0,0,0,0,0,0,0,0,0,0,0,0,0,0,0,0,0,0,0,0,0,0,0,0,0,0,0,0,0,0,0,0,0,0,0,0,0,0,0,0,0,0,0,0,0,0,0,0],"sum_hessian":[1.6726781E4,1.3575343E3,1.5369247E4,6.880414E2,6.694929E2,1.1921261E4,3.4479863E3,2.9181604E2,3.962253E2,4.441592E2,2.253337E2,9.643829E3,2.2774316E3,7.052569E2,2.7427292E3,2.6880344E2,2.3012623E1,3.385859E2,5.7639393E1,2.9846658E2,1.4569263E2,1.9315688E2,3.2176815E1,3.9705835E3,5.6732456E3,1.4067632E3,8.706684E2,4.1912708E2,2.8612985E2,1.3782313E3,1.364498E3,7.1575646E0,2.6164587E2,1.0854685E1,1.2157938E1,3.2977496E2,8.810945E0,4.0925133E1,1.6714258E1,9.440792E1,2.0405867E2,1.7745442E2,1.5702465E1,3.2406128E3,7.299708E2,7.6771225E1,5.596474E3,5.2108813E2,8.8567505E2,7.4819037E2,1.2247802E2,3.5945444E2,5.9672638E1,2.418337E2,4.4296143E1,1.3674935E3,1.0737721E1,1.0869168E2,1.2558063E3],"tree_param":{"num_deleted":"0","num_feature":"28","num_nodes":"59","size_leaf_vector":"1"}},{"base_weights":[-7.060741E-2,-3.0711725E-1,3.8803767E-2,-4.0677023E-1,-1.6870579E-1,3.2549512E-1,-4.589303E-2,-5.341695E-1,-3.408621E-1,-3.2980075E-1,-7.075806E-2,2.7944195E-1,6.09848E-1,-1.12250865E-1,1.0741371E-1,-3.6892585E-2,-5.140846E-1,-4.6317664E-1,-2.5672078E-1,-4.7894478E-1,-2.840179E-1,5.5150867E-2,-1.4865512E-1,4.2473224E-1,2.1566339E-1,7.3037916E-1,4.240593E-1,-3.7917155E-1,-9.198411E-2,-7.47101E-2,1.8710017E-1,-2.5505388E-2,-3.18118E-2,-3.5018835E-2,-2.298958E-2,-2.2444855E-3,-1.5986402E-2,-8.660657E-3,-2.8321754E-2,-2.2033507E-2,-1.1463449E-2,7.545123E-3,-3.6507798E-3,-2.4176354E-3,-1.5497677E-2,1.4011259E-2,2.7394617E-2,8.519341E-3,1.9540625E-2,5.3942893E-2,3.7824586E-2,1.3140584E-2,2.8834091E-2,-2.587846E-2,-1.6359815E-2,2.8140945E-3,-7.578567E-3,6.086388E-3,-8.076935E-3,1.3334075E-2,6.969627E-5],"categories":[],"categories_nodes":[],"categories_segments":[],"categories_sizes":[],"default_left":[0,0,0,0,0,0,0,0,0,0,0,0,0,0,0,0,0,0,0,0,0,0,0,0,0,0,0,0,0,0,0,0,0,0,0,0,0,0,0,0,0,0,0,0,0,0,0,0,0,0,0,0,0,0,0,0,0,0,0,0,0],"id":23,"left_children":[1,3,5,7,9,11,13,15,17,19,21,23,25,27,29,-1,31,33,35,37,39,41,43,45,47,49,51,53,55,57,59,-1,-1,-1,-1,-1,-1,-1,-1,-1,-1,-1,-1,-1,-1,-1,-1,-1,-1,-1,-1,-1,-1,-1,-1,-1,-1,-1,-1,-1,-1],"loss_changes":[4.3924048E2,7.404596E1,2.8180533E2,2.6192566E1,3.5461082E1,3.4644257E1,9.114117E1,2.794159E0,2.1163254E1,5.7902756E0,1.37103615E1,2.1100296E1,8.231384E0,3.382099E1,3.9279045E1,0E0,2.9620056E0,6.7816772E0,8.439766E0,2.090332E0,5.696953E0,5.2501316E0,1.190007E1,8.346535E0,1.342424E1,2.5134354E0,2.6142693E0,3.2456741E0,3.726637E1,1.08282175E1,1.8803375E1,0E0,0E0,0E0,0E0,0E0,0E0,0E0,0E0,0E0,0E0,0E0,0E0,0E0,0E0,0E0,0E0,0E0,0E0,0E0,0E0,0E0,0E0,0E0,0E0,0E0,0E0,0E0,0E0,0E0,0E0],"parents":[2147483647,0,0,1,1,2,2,3,3,4,4,5,5,6,6,7,7,8,8,9,9,10,10,11,11,12,12,13,13,14,14,16,16,17,17,18,18,19,19,20,20,21,21,22,22,23,23,24,24,25,25,26,26,27,27,28,28,29,29,30,30],"right_children":[2,4,6,8,10,12,14,16,18,20,22,24,26,28,30,-1,32,34,36,38,40,42,44,46,48,50,52,54,56,58,60,-1,-1,-1,-1,-1,-1,-1,-1,-1,-1,-1,-1,-1,-1,-1,-1,-1,-1,-1,-1,-1,-1,-1,-1,-1,-1,-1,-1,-1,-1],"split_conditions":[-1.1795597E-1,-5.623895E-1,-5.513891E-1,-8.168039E-1,-4.9293536E-1,2.2871027E0,7.709111E-1,-1.4512566E0,-1.0068231E0,-1.4758414E0,-4.4450924E-1,5.7991058E-2,9.0622765E-1,-1.4030178E0,-6.2534237E-1,-3.6892585E-2,1.3646437E0,-1.4512566E0,-9.133148E-1,-1.4226617E0,3.7114378E-2,4.821093E-1,5.7991058E-2,3.264776E-1,1.2153447E0,-2.6489136E0,-1.1103762E0,-1.6907603E0,5.7991058E-2,-3.6612722E-1,1.3303459E0,-2.5505388E-2,-3.18118E-2,-3.5018835E-2,-2.298958E-2,-2.2444855E-3,-1.5986402E-2,-8.660657E-3,-2.8321754E-2,-2.2033507E-2,-1.1463449E-2,7.545123E-3,-3.6507798E-3,-2.4176354E-3,-1.5497677E-2,1.4011259E-2,2.7394617E-2,8.519341E-3,1.9540625E-2,5.3942893E-2,3.7824586E-2,1.3140584E-2,2.8834091E-2,-2.587846E-2,-1.6359815E-2,2.8140945E-3,-7.578567E-3,6.086388E-3,-8.076935E-3,1.3334075E-2,6.969627E-5],"split_indices":[3,3,22,24,24,24,3,3,3,24,22,5,5,24,24,0,22,3,22,20,4,5,5,3,3,22,4,24,5,5,5,0,0,0,0,0,0,0,0,0,0,0,0,0,0,0,0,0,0,0,0,0,0,0,0,0,0,0,0,0,0],"split_type":[0,0,0,0,0,0,0,0,0,0,0,0,0,0,0,0,0,0,0,0,0,0,0,0,0,0,0,0,0,0,0,0,0,0,0,0,0,0,0,0,0,0,0,0,0,0,0,0,0,0,0,0,0,0,0,0,0,0,0,0,0],"sum_hessian":[1.697415E4,5.3686934E3,1.1605456E4,3.1212744E3,2.2474192E3,2.6466199E3,8.958837E3,1.0639795E3,2.057295E3,8.497003E2,1.3977189E3,2.2778787E3,3.6874112E2,6.2525044E3,2.706332E3,1.3995486E2,9.240246E2,8.382869E2,1.2190079E3,1.9937007E2,6.5033026E2,5.342346E2,8.6348425E2,6.94734E2,1.5831447E3,2.2348787E2,1.4525327E2,4.41125E2,5.8113794E3,8.2372046E2,1.8826116E3,4.9123264E2,4.3279196E2,1.8470155E2,6.535853E2,1.5732301E2,1.0616849E3,1.835406E1,1.81016E2,2.6201108E2,3.8831918E2,3.1989627E2,2.1433838E2,4.798322E2,3.83652E2,2.0151036E2,4.9322366E2,1.0919078E3,4.9123688E2,3.5934902E1,1.8755296E2,4.9682392E1,9.557087E1,2.1449712E2,2.266279E2,1.3900776E3,4.421302E3,2.2916962E2,5.9455084E2,1.4602948E3,4.2231686E2],"tree_param":{"num_deleted":"0","num_feature":"28","num_nodes":"61","size_leaf_vector":"1"}},{"base_weights":[1.626174E-1,-7.136727E-2,2.7220643E-1,-2.669951E-1,3.019857E-2,4.987249E-1,1.9417828E-1,-4.2962137E-1,-1.6836613E-1,1.6653405E-1,-6.769861E-2,5.270652E-1,1.502922E-1,1.5256913E-1,3.5475978E-1,-3.367337E-2,-3.7770995E-1,3.0936092E-1,-2.0361926E-1,2.7084202E-1,5.6345124E-2,1.7337796E-1,-1.1319788E-1,6.810779E-1,4.646245E-1,5.7429492E-2,5.0274277E-1,1.8052077E-1,-7.700592E-2,5.499728E-1,2.9520598E-1,-2.5275705E-2,-1.2450692E-2,2.0978373E-2,-2.0681987E-2,-4.325634E-3,-1.7717248E-2,5.760141E-3,1.7642776E-2,5.076545E-3,-1.0909485E-2,1.3994566E-2,-4.054545E-3,-1.2446261E-2,-3.2129972E-3,3.6247E-2,5.7331815E-2,1.9131681E-2,2.8879011E-2,-7.205894E-3,8.558535E-3,1.8341314E-2,4.69523E-2,1.2091118E-2,1.6766216E-3,3.945899E-4,-1.3846896E-2,1.7731955E-2,3.3481773E-2,2.7305854E-2,1.200934E-2],"categories":[],"categories_nodes":[],"categories_segments":[],"categories_sizes":[],"default_left":[0,0,0,0,0,0,0,0,0,0,0,0,0,0,0,0,0,0,0,0,0,0,0,0,0,0,0,0,0,0,0,0,0,0,0,0,0,0,0,0,0,0,0,0,0,0,0,0,0,0,0,0,0,0,0,0,0,0,0,0,0],"id":24,"left_children":[1,3,5,7,9,11,13,15,17,19,21,23,25,27,29,-1,31,33,35,37,39,41,43,45,47,49,51,53,55,57,59,-1,-1,-1,-1,-1,-1,-1,-1,-1,-1,-1,-1,-1,-1,-1,-1,-1,-1,-1,-1,-1,-1,-1,-1,-1,-1,-1,-1,-1,-1],"loss_changes":[4.6021988E2,1.137478E2,2.1603046E2,3.1374496E1,5.029794E1,3.0916443E1,6.074124E1,6.8262634E0,2.0518631E1,1.8101498E1,2.4061785E1,2.782135E1,7.7111096E0,4.6336426E1,2.1735596E1,0E0,6.886589E0,3.9903994E0,1.656614E1,6.451252E0,6.863087E0,